901 300
0 0.021475911 -0.016305173 0.15691306 0.3515565 -0.39551196 -0.3139666 0.22512072 0.37823546 -0.21661747 -0.17562388 0.314224 -0.013078937 -0.18870783 0.25357723 -0.1867759 -0.052953955 0.13385671 0.06288145 -0.33130896 -0.4284334 0.3168706 0.18828532 0.32751837 0.00043871114 0.30833396 -0.08172846 -0.07395342 0.23838308 -0.32157847 -0.19650522 -0.3169372 -0.013628957 0.36343732 -0.27363554 -0.0382704 -0.07631244 0.32071957 -0.1885043 -0.0030399014 -0.25381267 -0.40209463 0.24796367 -0.34060076 -0.1578139 -0.05091964 -0.029790143 -0.31091458 0.44868308 0.24771288 0.38972428 -0.29537848 0.17810549 -0.16996863 0.031801984 0.37007043 -0.18302189 0.22771662 -0.22648859 -0.05428879 0.3746718 -0.071099214 0.05823301 -0.1152228 -0.32995957 -0.071606226 0.0821433 -0.079535455 0.16006567 -0.11656909 0.071679085 0.26066673 0.3683228 -0.07561129 -0.37712586 0.1511157 -0.023795644 0.29546547 -0.05518844 -0.13386366 -0.37054047 -0.013768672 0.11419659 0.17537242 0.31498268 -0.18838498 0.0067246496 0.25410804 -0.19966702 -0.1728296 0.27897727 0.090712026 -0.02228007 0.08704734 0.043724597 0.4434473 0.16745265 -0.40047807 -0.36544007 0.08339477 0.23393163 -0.37131706 0.16787556 0.2314374 0.2073188 0.29061988 -0.26964396 0.05683657 0.27171198 -0.11891661 -0.26122448 -0.013288593 -0.33522746 -0.22483042 0.28751305 0.19627702 0.27997565 0.29634935 0.2608932 -0.15638608 0.00030803325 0.07989015 -0.1845557 0.33144855 -0.43159515 0.27097476 0.097670145 -0.21436618 0.16555929 -0.09374735 0.27836278 0.44399813 -0.22520863 0.01603325 -0.2294903 0.21239431 0.13704342 0.2806817 0.2524415 0.42945808 0.37160692 0.3372386 -0.25897092 -0.45340803 -0.038854208 -0.13692603 0.29799888 0.27810252 -0.07622993 0.07251073 0.09520922 0.30394754 -0.37715834 -0.055155385 0.12538734 0.0010277795 0.3986562 0.38179755 0.30480647 0.044671208 0.33615094 -0.35864606 0.123885736 -0.18881081 -0.20992298 0.1527453 0.27446693 0.39687777 -0.25195962 0.33877003 0.28220528 -0.18395627 -0.37416592 0.24399762 0.27869734 0.038972165 -0.25711602 -0.30862036 -0.0875369 0.20763573 -0.19000068 -0.3472341 0.16687703 0.2758957 -0.23880929 0.06205503 -0.006057326 0.0008704158 -0.37609607 0.15481935 -0.19953556 0.052858964 -0.027104342 0.061179124 -0.34811613 -0.13017546 0.11396796 0.24454623 -0.11622883 -0.36519027 0.12935609 0.0029641322 0.17125012 -0.31842685 -0.06307996 0.3174132 0.32585862 -0.15047772 0.09895525 -0.34950638 0.2574323 -0.11543917 -0.10233547 0.34370902 0.012265009 0.2569268 -0.2458039 0.175561 0.40737203 -0.35458088 -0.16748558 -0.28252134 -0.17059068 -0.10181771 -0.3071667 0.3314206 -0.18469292 0.36592153 0.23486269 -0.30727708 0.15373956 0.22477804 -0.34761515 -0.34102112 -0.1167423 -0.43528342 -0.14013183 -0.025484474 0.13689509 0.09108074 -0.06866176 -0.2876688 0.101436816 -0.052263957 0.24410243 0.1438263 0.28132862 0.08303076 -0.12434619 -0.22830285 0.02481609 0.029143695 -0.13813849 -0.28426442 -0.33797312 -0.41606042 -0.18192284 -0.0629997 -0.15053868 -0.2523122 -0.16918403 0.18283984 -0.13331763 0.3986671 0.046758942 -0.2727979 0.40370902 0.33176237 0.27191958 -0.30803996 0.23456685 0.13092753 0.20612834 0.1907762 0.110683635 -0.16172506 0.33183485 0.4485294 0.12134003 -0.13626416 -0.043908365 0.08986553 -0.3194874 -0.29559934 -0.06304856 0.0107284775 -0.30492318 -0.20462796 -0.290022 0.33815315 0.006813492 -0.25354925 0.21474572 0.37201244 -0.1588922 0.3209448 0.18090309 0.23395878 0.037789904 0.2954384 -0.31712687
144 -0.0609894 -0.013534448 0.053691775 0.124123484 -0.10291245 -0.12332353 0.14957777 0.25373268 0.011365943 -0.1667542 0.20310254 -0.049542323 -0.07280602 0.11085852 -0.059238214 -0.08681287 0.1510276 -0.018222783 -0.07112981 -0.089679845 0.066398375 0.020546157 0.15419264 0.09111391 0.0005586021 -0.022543076 -0.03538182 0.15972406 -0.043873567 -0.10189975 -0.027263358 -0.015207253 0.091392845 -0.06601289 -0.13480632 0.06944049 0.1564928 -0.18052292 -0.13338995 0.00010922356 -0.049041577 0.09583985 -0.0145206805 -0.09801836 0.06296089 0.08108192 -0.09555363 0.017281188 -0.0021113525 0.11322726 -0.077313356 -0.0036512988 -0.14267093 -0.047230758 -0.007188302 -0.1385553 0.05216503 -0.05777317 0.05299673 0.037405785 -0.050804257 0.033484466 0.08838549 -0.07251166 -0.060868833 0.044885408 -0.032960016 0.12442189 -0.12017405 -0.0700424 0.15999265 0.17922245 -0.0071110106 -0.060635675 0.0962667 -0.094041675 0.07637398 0.028481264 -0.06698914 -0.040150754 -0.08493993 0.043035116 0.041228674 0.20460276 -0.0851699 -0.056855574 0.23846936 -0.053090394 -0.05716688 0.047053542 -0.11233501 0.04448403 0.12256669 -0.023183292 0.24199098 0.066551 0.007564087 -0.10597989 0.045996726 0.1440672 -0.07842962 0.007582391 0.052976906 0.07996261 0.026983004 -0.073891036 0.021603087 0.027989384 -0.102944806 -0.082433 -0.10327458 -0.08198168 -0.0961638 0.13761032 -0.0016700948 0.13749531 0.15433235 0.1403915 -0.027894001 -0.17166993 0.052415244 -0.07349251 0.24160837 -0.08359578 0.01965699 0.18191406 -0.12249298 0.050772134 -0.11761638 0.17633247 0.16917804 0.04576824 0.012745339 -0.20394245 0.13346076 0.0040950263 -0.0074208803 0.10881264 0.010701467 0.08506273 0.13422012 -0.19811112 -0.2116189 0.16560192 0.02899279 -0.029387623 -0.010230268 -0.105539314 0.16340591 -0.009456156 0.06443739 -0.12637036 0.084632605 -0.00072283926 -0.0632344 0.09645744 -0.02294724 0.03787267 -0.005348863 0.09173168 -0.010794751 -0.0309681 -0.039772216 0.055789016 0.01582753 0.11730394 0.08447331 0.046735317 0.09555393 0.15940331 -0.075473085 -0.036958348 -0.00528625 0.07655064 0.018152652 0.010271599 -0.03334941 -0.0017875936 0.16439699 -0.10492182 -0.1836785 -0.033511758 0.0401171 -0.016723 -0.11990154 -0.07412983 0.13724665 -0.055124138 -0.0048671234 -0.14320987 0.1460496 -0.02374432 0.0404913 -0.079126544 -0.080529556 -0.061031207 0.09468231 -0.055968452 -0.09297597 0.13592152 -0.025661176 0.17375328 -0.057971083 -0.07044531 0.058503304 0.101349026 0.052458912 0.07921738 -0.19720088 0.0014529792 -0.07243627 -0.09428939 0.08342632 -0.13121921 0.15664099 -0.13934185 0.016471544 0.01886961 -0.13617091 -0.16325505 -0.10446345 -0.051677942 0.041725982 -0.14955701 -0.024300966 -0.09222673 0.08032083 -0.08733592 -0.033389024 0.03387489 0.11688476 -0.26885116 -0.11433778 -0.07935766 -0.06986323 0.10876305 0.0543212 0.18934831 0.07420247 -0.09050853 0.056435052 -0.059053306 -0.00371974 0.12798668 0.035415843 -0.004442913 0.030488838 0.020389887 -0.072195835 -0.013124821 0.121479586 -0.056152854 0.045317437 -0.03685176 -0.22570343 -0.06681453 0.15900673 -0.09044659 -0.13245766 -0.18046321 0.025086364 -0.08249463 0.24455939 -0.04600977 -0.12832916 0.21878143 0.09040597 0.08398689 -0.18175085 -0.02842446 0.022737682 0.11427463 0.20461267 0.12150059 -0.04700057 0.11775724 0.04288712 0.12640455 -0.11953978 0.07946279 0.024447963 -0.09983013 -0.019626115 -0.06889792 0.10727432 -0.074969 -0.11622851 -0.04040805 0.104912855 0.09213722 -0.011358645 0.15222028 0.02592136 -0.02934111 0.2829941 0.14823228 0.020772899 0.042290363 0.10716524 -0.16923945
170 -0.041680805 -0.027735393 0.047966342 0.1273701 -0.10848753 -0.11984876 0.14784902 0.24152377 -0.00020307624 -0.15165631 0.18898538 -0.049106456 -0.07132126 0.120024204 -0.07465468 -0.08570972 0.13236801 -0.00385785 -0.064534314 -0.097823456 0.07163083 0.020284446 0.14311096 0.07549459 0.02149191 -0.03183293 -0.045561925 0.15362291 -0.048800133 -0.10420124 -0.026524484 -0.009233816 0.10595434 -0.05905508 -0.1400878 0.050007176 0.14479129 -0.17013799 -0.116456024 -0.016345965 -0.058379672 0.08806514 -0.02183074 -0.0924105 0.055483747 0.07160354 -0.104795516 0.025280712 0.0050784787 0.12566786 -0.07814077 -0.0036850302 -0.13249819 -0.031482138 0.0007691039 -0.13502675 0.048167404 -0.06811141 0.04035825 0.04244631 -0.049378224 0.031420477 0.07605546 -0.06941308 -0.06346807 0.05626804 -0.032045774 0.116504766 -0.115533955 -0.052163385 0.15056147 0.182102 -0.007064034 -0.078299865 0.09845423 -0.0925611 0.075661615 0.022397451 -0.063975744 -0.04419386 -0.07752859 0.031757202 0.03558754 0.20518258 -0.08299067 -0.052404214 0.2262321 -0.06339566 -0.052974686 0.054706726 -0.096574016 0.04390506 0.11918645 -0.013655957 0.23146524 0.06474118 -0.0019018826 -0.09645905 0.044894807 0.14671429 -0.07430943 0.004699042 0.06344234 0.087097175 0.023332404 -0.07800927 0.020362675 0.025068766 -0.09010273 -0.091901705 -0.098716006 -0.0832029 -0.08144735 0.13036577 0.0106059415 0.14507379 0.15261959 0.13069895 -0.04008251 -0.16671637 0.052462116 -0.066805184 0.22519909 -0.10255429 0.02062244 0.17349364 -0.11622111 0.043616995 -0.10957896 0.16776784 0.15838681 0.041263416 0.012167497 -0.18413901 0.121744916 0.009189475 -0.001753158 0.09799812 0.011201741 0.08099416 0.13261057 -0.18959306 -0.1959081 0.15407059 0.021029448 -0.01775215 -0.012860982 -0.10908093 0.15496083 -0.0004313511 0.06257458 -0.13773113 0.06666004 0.0036100228 -0.06425515 0.112545 -0.003506462 0.05151345 -0.00715485 0.09843718 -0.0143335285 -0.01996256 -0.051055674 0.057363432 0.019039277 0.11821338 0.07343169 0.026486529 0.10223205 0.14828154 -0.06697814 -0.044884104 0.0021896765 0.068379946 0.01181099 -0.0036198401 -0.02882813 -0.013991732 0.150167 -0.09065211 -0.17609614 -0.014125278 0.03866292 -0.018844709 -0.10469534 -0.06454556 0.12497661 -0.06137322 0.005946121 -0.13098215 0.1353715 -0.022822786 0.027207375 -0.07080784 -0.08205474 -0.05319922 0.08903859 -0.06511445 -0.09694395 0.13261417 -0.021425717 0.17108564 -0.06097908 -0.05342181 0.072343655 0.103892505 0.04023969 0.072884806 -0.1940934 0.010963648 -0.065073505 -0.09075605 0.09219591 -0.11144093 0.15994963 -0.13047253 0.026166212 0.025199804 -0.13621543 -0.15276992 -0.086253695 -0.051317822 0.029004646 -0.15722966 -0.011464923 -0.08659842 0.07647892 -0.07626578 -0.044255495 0.026190562 0.1061803 -0.2488703 -0.109883934 -0.060829584 -0.074750744 0.102855384 0.042961143 0.17622763 0.06882751 -0.09126944 0.03765667 -0.049132876 0.00235679 0.13294175 0.04040427 0.0018117861 0.028904136 0.013459544 -0.07645877 -0.0108146705 0.11308483 -0.04844969 0.031411186 -0.048362628 -0.21114591 -0.07039471 0.14687599 -0.07865509 -0.12975721 -0.1711932 0.018831959 -0.07902248 0.22672549 -0.036475595 -0.13543679 0.20953715 0.0907153 0.08271741 -0.17082767 -0.014196825 0.018271152 0.11048856 0.18696512 0.10734298 -0.046404604 0.11180384 0.056564678 0.11606483 -0.1186406 0.07293627 0.019164998 -0.090792224 -0.027252946 -0.054390103 0.104081094 -0.061799597 -0.11095235 -0.059130326 0.104016654 0.08900879 -0.03114678 0.138926 0.04251967 -0.027534926 0.26549372 0.14094736 0.02378992 0.05183599 0.106369376 -0.16433921
348 -0.0404437 -0.027231105 0.04004798 0.117440075 -0.09837909 -0.11089269 0.12967737 0.21871598 -0.0003245811 -0.13659485 0.16817597 -0.045668084 -0.06389324 0.10636469 -0.0681909 -0.07455978 0.11572226 -0.007852054 -0.055626545 -0.08779235 0.065080754 0.019855402 0.1228061 0.0657225 0.023094617 -0.03271749 -0.044534955 0.14404641 -0.044787787 -0.09566763 -0.022285823 -0.0098387785 0.09889245 -0.04973593 -0.12832 0.04430092 0.13289052 -0.14833413 -0.10078816 -0.010553624 -0.053859 0.083218746 -0.023270791 -0.08172002 0.04817455 0.061133333 -0.094015844 0.028940463 0.0076487246 0.118718706 -0.06846314 0.0025956724 -0.11670124 -0.024730427 0.004692644 -0.12162396 0.04234875 -0.059437733 0.03964945 0.040595073 -0.045633584 0.033314954 0.06934721 -0.0628327 -0.05841968 0.04893499 -0.02831604 0.10344288 -0.100800395 -0.045096543 0.13635544 0.16471344 -0.0063445084 -0.077330634 0.0873063 -0.0840136 0.066440135 0.016635245 -0.05400923 -0.041696567 -0.07125054 0.028684303 0.03304639 0.18827203 -0.07366582 -0.047061794 0.19736145 -0.0552302 -0.042284887 0.051581703 -0.08878646 0.04297211 0.11058365 -0.008494563 0.21216325 0.054992262 -0.007987346 -0.08113474 0.044043127 0.13179092 -0.06704827 0.0043803016 0.05701716 0.07315222 0.018385043 -0.072392724 0.01555246 0.024840683 -0.07876851 -0.08422081 -0.0865903 -0.07548443 -0.070800625 0.11633147 0.012028871 0.13278309 0.13636449 0.11618501 -0.03395182 -0.1509103 0.046446852 -0.06370709 0.20431836 -0.09174501 0.018344516 0.15558593 -0.10305261 0.034628175 -0.09354475 0.1486748 0.14276667 0.03706318 0.014372193 -0.15913604 0.11228719 0.009802944 0.00087324786 0.08688998 0.009550017 0.07093227 0.115691915 -0.17022395 -0.1771589 0.14132065 0.013251782 -0.016028255 -0.01090898 -0.098720565 0.1337167 0.0002330067 0.05743544 -0.12581061 0.05243378 0.0069407667 -0.055233072 0.099728376 -0.0005548362 0.044993974 -0.0051070647 0.08799437 -0.018368725 -0.017396959 -0.044807162 0.051004525 0.012354719 0.1059516 0.064952105 0.016232805 0.09454884 0.1341128 -0.059422947 -0.036867037 -0.00072537904 0.0645328 0.0119370185 -0.0019097085 -0.025331076 -0.014992588 0.13172224 -0.07472543 -0.15431832 -0.007980905 0.039992597 -0.014776034 -0.097831234 -0.055552278 0.10907641 -0.057996392 0.004844338 -0.11463905 0.123522624 -0.018894603 0.025225865 -0.06206837 -0.07547927 -0.04801918 0.083863206 -0.060155537 -0.087840706 0.11889398 -0.012718965 0.15451641 -0.055685792 -0.048214205 0.06460644 0.090236716 0.03151603 0.06919654 -0.17492785 0.0071319714 -0.057793066 -0.078924894 0.078899786 -0.098486155 0.14369479 -0.11968613 0.025951307 0.02078314 -0.12148191 -0.13917893 -0.07754239 -0.052861713 0.021829575 -0.1435193 -0.014742863 -0.08083243 0.06599769 -0.06349821 -0.039330643 0.025496922 0.09087279 -0.22344811 -0.10012317 -0.05639838 -0.0675213 0.09260331 0.03923418 0.15566374 0.057663247 -0.08192201 0.03164764 -0.045761906 0.004058759 0.12404284 0.036674295 0.0012256027 0.02899794 0.010244881 -0.06859996 -0.004783711 0.10284085 -0.045337692 0.030621748 -0.0405778 -0.19326262 -0.06317355 0.1326469 -0.06813687 -0.12021749 -0.15280361 0.019353107 -0.068987474 0.19983274 -0.03263023 -0.121713504 0.19096586 0.085891284 0.07457559 -0.15244612 -0.012395575 0.018129842 0.10327712 0.16634004 0.0942576 -0.038292345 0.10529803 0.051667802 0.10994344 -0.104910456 0.06517752 0.016316025 -0.07448763 -0.029596787 -0.04854838 0.09455816 -0.054095365 -0.10276264 -0.054604672 0.09727586 0.0813752 -0.02614367 0.12280058 0.03520882 -0.022318821 0.23735256 0.12201111 0.017581534 0.044336405 0.09153404 -0.14654294
578 -0.028832546 -0.023612283 0.042748924 0.10171089 -0.09234182 -0.096281275 0.11183191 0.18793976 -0.006743319 -0.11355796 0.14117795 -0.03755464 -0.06029487 0.09302059 -0.06388732 -0.06554253 0.0930307 0.0013715933 -0.05668716 -0.0863403 0.06331084 0.023104958 0.11053113 0.05314944 0.031045966 -0.026151292 -0.039486002 0.122734606 -0.04927718 -0.07878925 -0.036457177 -0.008742101 0.09370055 -0.052706793 -0.101448424 0.02492116 0.11421459 -0.12675731 -0.07715615 -0.021423677 -0.06241205 0.075871564 -0.033884395 -0.06919051 0.031949095 0.04108091 -0.083269246 0.039553132 0.014011868 0.110448934 -0.06542282 0.005046443 -0.09677964 -0.021280602 0.020259859 -0.10153507 0.042050768 -0.05517545 0.029152093 0.05119224 -0.041415747 0.024263086 0.047401693 -0.061894525 -0.049035467 0.044007484 -0.0204895 0.08939179 -0.086727306 -0.028746122 0.1183322 0.14496435 -0.0057471697 -0.07805406 0.07432985 -0.064249374 0.06516045 0.008328693 -0.05233227 -0.048903406 -0.059686333 0.02966775 0.03370697 0.16138035 -0.06752406 -0.03424923 0.16827294 -0.054554064 -0.043691065 0.051817242 -0.060393926 0.028992144 0.09126585 -0.008707098 0.18255351 0.052222345 -0.019070562 -0.07755198 0.037974518 0.114683636 -0.073388144 0.014548237 0.050412312 0.06798268 0.02777028 -0.068262085 0.01246028 0.0271574 -0.06574242 -0.076123655 -0.07191797 -0.07058963 -0.06948425 0.102445535 0.020898204 0.11773775 0.12072868 0.103620104 -0.034703624 -0.11624042 0.042566665 -0.05572234 0.17268452 -0.088376656 0.031129882 0.12644817 -0.092677094 0.03228324 -0.07803703 0.12850957 0.13358076 0.020012246 0.0122031765 -0.13573284 0.096359655 0.011318796 0.0095337 0.08169817 0.028607931 0.07043156 0.104225695 -0.14458562 -0.15328658 0.106309325 0.0042090854 0.0014101602 0.0028066242 -0.08059941 0.110356234 0.004112089 0.059501752 -0.11506446 0.036231443 0.011658907 -0.04456533 0.097656816 0.02124384 0.04984478 -0.0052099363 0.08511968 -0.026107552 -0.004013764 -0.043027107 0.032713246 0.02181005 0.092726514 0.07275311 0.0033219378 0.09033157 0.11637835 -0.055442613 -0.050022215 0.008746949 0.06013305 0.013093252 -0.013666811 -0.035469946 -0.011254673 0.11337913 -0.06802156 -0.1356194 -0.0017607386 0.044381764 -0.02276569 -0.06841002 -0.042341985 0.08821491 -0.061308414 0.009174411 -0.10069544 0.09867222 -0.013398016 0.022592507 -0.06537899 -0.06478247 -0.03323055 0.07592425 -0.051975995 -0.088106774 0.104059756 -0.008975551 0.12780309 -0.05755333 -0.043385155 0.06720513 0.08554223 0.018742375 0.057910703 -0.14638785 0.015413111 -0.04788674 -0.06916596 0.07508003 -0.07621529 0.11976249 -0.09904658 0.032619525 0.035172027 -0.107619934 -0.11308459 -0.06702746 -0.044772957 0.011056024 -0.124490045 0.0042001056 -0.06701445 0.06990097 -0.04066194 -0.043475665 0.02495814 0.07772753 -0.18589884 -0.09274041 -0.050442178 -0.073521264 0.062273324 0.031263545 0.12841177 0.050631914 -0.062118195 0.015732009 -0.030488243 0.0028902548 0.10708046 0.037601188 0.017368821 0.021686014 0.00092147046 -0.06292658 -0.0034954946 0.08075659 -0.037568156 0.009739788 -0.05106021 -0.16679561 -0.060051616 0.10258453 -0.05858997 -0.104692936 -0.12291052 0.01954495 -0.06095429 0.17205393 -0.019558577 -0.10403068 0.16584417 0.0789575 0.06644272 -0.12863 -0.000192271 0.019003553 0.08360222 0.13776799 0.07532423 -0.037666153 0.09156215 0.06618805 0.0887204 -0.08648104 0.0507174 0.01417096 -0.07327354 -0.03374969 -0.041931387 0.07329738 -0.05332477 -0.08464595 -0.05330411 0.08710028 0.05852814 -0.031626854 0.10570403 0.04920635 -0.0231998 0.19528222 0.10149745 0.026045721 0.039925646 0.08334285 -0.123604625
201 -0.03348731 -0.019951476 0.032819472 0.09115116 -0.07598515 -0.085380964 0.10183906 0.17246486 0.0016124824 -0.10392857 0.12996364 -0.03920992 -0.050482232 0.08545252 -0.055473924 -0.064388685 0.08738656 -0.0017628075 -0.040875245 -0.062347565 0.047770493 0.014179657 0.094001316 0.052660454 0.011491144 -0.02536443 -0.03439397 0.114346884 -0.031379566 -0.076823644 -0.017885363 -0.011439422 0.07632384 -0.035543192 -0.1043477 0.03735325 0.1060426 -0.12122106 -0.08490146 -0.00354736 -0.03722377 0.06062077 -0.015915385 -0.05971053 0.04122789 0.051577266 -0.07415566 0.012832936 0.0022404545 0.0870046 -0.054219663 -0.0040612887 -0.08858328 -0.01917873 -0.0031778205 -0.092061125 0.034695525 -0.045312304 0.034334317 0.03058452 -0.034666676 0.022868086 0.052764416 -0.04670549 -0.04261127 0.038684674 -0.021304892 0.087833874 -0.07956652 -0.033541843 0.10366158 0.12716137 -0.0009881088 -0.05803063 0.071413 -0.06326095 0.048524898 0.014293714 -0.044451803 -0.030849177 -0.061757788 0.021548627 0.023997435 0.14843093 -0.060007032 -0.03445296 0.15667152 -0.04603395 -0.03039889 0.039564155 -0.07159754 0.03403994 0.08640157 -0.011988243 0.16174509 0.04668129 0.0036932284 -0.05831823 0.03441138 0.105513975 -0.050775573 -0.0018749033 0.042937115 0.0594455 0.015049179 -0.052804988 0.011601259 0.017290201 -0.05999917 -0.06313123 -0.074505165 -0.058636963 -0.058846965 0.09490163 0.003487474 0.106833234 0.10277762 0.09149491 -0.027301867 -0.12355385 0.04049141 -0.04621143 0.15985353 -0.06689542 0.013007938 0.12713459 -0.078180835 0.022952829 -0.07817207 0.11507024 0.111684926 0.031642206 0.009564786 -0.12986976 0.087170206 0.0064386274 -0.002122735 0.0660153 0.00043342533 0.049257845 0.08950164 -0.13718645 -0.13767728 0.11532835 0.016519427 -0.014032641 -0.015000104 -0.08161626 0.11229189 0.00046285053 0.042407695 -0.1004493 0.04463734 0.004811784 -0.04561171 0.07755181 -0.005179835 0.030253462 -0.009609925 0.06618844 -0.005642096 -0.013023735 -0.03455204 0.04620353 0.010561477 0.08245442 0.046267632 0.020118956 0.07399524 0.107648686 -0.044029392 -0.024784332 -0.0026301455 0.04482082 0.008573173 -0.0046695517 -0.014919345 -0.010664745 0.107964955 -0.060117178 -0.12197496 -0.013335527 0.023606261 -0.013975715 -0.07979131 -0.045786604 0.087406725 -0.04538694 -0.0014587574 -0.09270693 0.09985957 -0.013792388 0.02243882 -0.044436723 -0.05994695 -0.03809121 0.05876259 -0.0474106 -0.070659384 0.09930167 -0.012200719 0.123236015 -0.040525828 -0.041443408 0.050747227 0.069048546 0.030085001 0.054128177 -0.13768093 0.0019394959 -0.04816882 -0.06533573 0.06340812 -0.079247184 0.11452022 -0.09528346 0.020911258 0.012453856 -0.09007108 -0.1108786 -0.053895496 -0.04043181 0.016095571 -0.11241934 -0.014596233 -0.06219556 0.049319103 -0.059155148 -0.029292703 0.018417945 0.07060689 -0.17257197 -0.079475634 -0.044853766 -0.047011174 0.080254376 0.028117292 0.12657174 0.049518652 -0.065252945 0.03448753 -0.041213706 0.0063148555 0.09798098 0.029165154 -0.0036296372 0.018180614 0.0085103065 -0.051666275 -0.0061396714 0.084636174 -0.02973172 0.029458877 -0.031021582 -0.14579712 -0.049385503 0.110217184 -0.053463012 -0.09447512 -0.119713746 0.010781099 -0.05611479 0.15288322 -0.025322437 -0.09194321 0.14760956 0.06374044 0.055370845 -0.11399074 -0.01611946 0.0147298165 0.07583138 0.1322618 0.07614031 -0.0264807 0.08129357 0.04110831 0.08780527 -0.08052533 0.05797827 0.010664774 -0.054947883 -0.016491696 -0.03806456 0.07743145 -0.03691149 -0.07583591 -0.03865159 0.07522654 0.06455545 -0.01688491 0.09869616 0.028954966 -0.017997492 0.18780096 0.10054992 0.01226195 0.03619295 0.072892144 -0.116338044
184 -0.02104387 -0.021287935 0.020524215 0.06699176 -0.05146532 -0.0646414 0.081494056 0.13513272 0.0032546755 -0.0849524 0.098527364 -0.030358762 -0.03571609 0.06702422 -0.03910195 -0.049817797 0.069824696 -0.00051220786 -0.024830764 -0.042376865 0.036593907 0.0040623588 0.070060104 0.04028481 0.009170827 -0.020619916 -0.029891131 0.08891377 -0.017106192 -0.0578483 -0.0043709716 -0.0073464448 0.054857723 -0.026287368 -0.082889795 0.026735635 0.07849661 -0.09067319 -0.06285466 -0.00495892 -0.02703335 0.04392525 -0.0030917749 -0.045283813 0.031336132 0.039906587 -0.055322934 0.0058723004 0.0008117753 0.06694359 -0.03924708 -0.0079168 -0.07210842 -0.017992366 -0.006460425 -0.06946329 0.020528829 -0.032034297 0.028699655 0.017610721 -0.027343575 0.022154078 0.04866333 -0.02856599 -0.037868302 0.035926793 -0.012803832 0.06881904 -0.063747436 -0.027625764 0.0836218 0.0958208 0.0012080924 -0.039727673 0.056536917 -0.054428607 0.03284504 0.014779975 -0.036450908 -0.019867113 -0.049873684 0.015195619 0.016120592 0.11644355 -0.040365603 -0.029561885 0.12420783 -0.03150436 -0.024198657 0.022453709 -0.05513595 0.025562419 0.07178216 -0.004382231 0.12609103 0.0339775 0.008896434 -0.043714456 0.02583671 0.079995155 -0.03307196 0.0001938233 0.03067681 0.04719174 0.0020845223 -0.03656536 0.012074561 0.005497082 -0.045308765 -0.048987765 -0.05867431 -0.03816726 -0.03789751 0.069553636 0.003568515 0.08048279 0.083435066 0.06730967 -0.021841899 -0.09884214 0.028374264 -0.034524135 0.11943117 -0.050140012 0.0030728767 0.09977909 -0.06217395 0.014601194 -0.05871985 0.09122984 0.08055947 0.028423402 0.008263802 -0.09783693 0.06239543 0.004598236 -0.010125079 0.04779832 -0.005746383 0.033736564 0.06730928 -0.101124436 -0.09949943 0.0947619 0.012988199 -0.016076455 -0.01606146 -0.066726975 0.088276185 -0.0009085937 0.027647067 -0.0756819 0.032080576 -0.0006598161 -0.03630016 0.059413053 -0.0060156765 0.02373279 -0.004118714 0.047614437 -0.00034859352 -0.016148334 -0.02609461 0.03891799 0.0061015594 0.06327822 0.03030522 0.015544231 0.050885864 0.07947886 -0.035065435 -0.01577897 -0.005065172 0.029848102 0.004038558 0.0024658213 -0.006827179 -0.004226344 0.079728656 -0.044669777 -0.09466475 -0.01007585 0.017959392 -0.004616832 -0.06041525 -0.03736748 0.072101586 -0.03155386 -0.0023183823 -0.07227814 0.07696477 -0.011394139 0.010909849 -0.02852345 -0.04804705 -0.0377108 0.04278928 -0.03384805 -0.04729137 0.08064142 -0.009164258 0.095183074 -0.029414328 -0.026363585 0.035021994 0.05357734 0.023012796 0.041690316 -0.10221413 -0.0014766889 -0.03442263 -0.04966918 0.04490946 -0.06099536 0.08756467 -0.07178056 0.012598221 0.0050148177 -0.070994355 -0.083733305 -0.039693974 -0.027449345 0.012419321 -0.08186403 -0.016583888 -0.047824215 0.035638914 -0.04996371 -0.022181422 0.010474911 0.052843787 -0.13668416 -0.056117717 -0.03141628 -0.033392113 0.06606166 0.026124092 0.10067713 0.037456963 -0.04993242 0.030700184 -0.032967407 0.001324433 0.07713766 0.020783866 -0.008990107 0.011997684 0.008377267 -0.037613444 -0.0038485716 0.067816176 -0.026342368 0.025758447 -0.019755203 -0.11484909 -0.03473989 0.09017741 -0.04180573 -0.07526253 -0.0962696 0.0065122074 -0.038616702 0.12007562 -0.024328595 -0.07520779 0.114718445 0.045022406 0.037928853 -0.086548544 -0.016338993 0.010655339 0.059963446 0.09962317 0.05596325 -0.018372707 0.06145043 0.025076278 0.0685236 -0.066645026 0.045168668 0.0063556214 -0.04040662 -0.010954536 -0.029574733 0.05773624 -0.021719892 -0.05950504 -0.029133651 0.05105137 0.054254476 -0.015378644 0.075722106 0.0165181 -0.007841987 0.1460653 0.07475853 0.007385755 0.029087596 0.049600367 -0.08769716
132 -0.015886337 -0.010931438 0.027322521 0.066505276 -0.059774622 -0.057295345 0.065861 0.11105565 -0.006511313 -0.06504985 0.08807014 -0.019483015 -0.031415507 0.057138987 -0.03992408 -0.039980564 0.05798605 -0.0013533619 -0.037115287 -0.05067232 0.038750175 0.01175034 0.06585489 0.030228999 0.020444589 -0.01575087 -0.024178242 0.07336622 -0.027193937 -0.04896326 -0.019147512 -0.0070122266 0.059111368 -0.034561682 -0.05875995 0.012987833 0.06973422 -0.077627674 -0.04695993 -0.015728278 -0.039327845 0.044792783 -0.019466886 -0.04165755 0.018036403 0.024447238 -0.052409183 0.024771092 0.0071503744 0.06623102 -0.038761105 0.007082902 -0.061829474 -0.009929017 0.010884104 -0.063557886 0.026354546 -0.03425801 0.012994315 0.028031854 -0.023862213 0.018468903 0.023808334 -0.03571695 -0.028876778 0.027239412 -0.01104294 0.05566966 -0.051414058 -0.015810193 0.07139257 0.088377915 -0.0044800653 -0.047946084 0.045298968 -0.04053184 0.038830686 0.008045759 -0.02822156 -0.02743127 -0.036528405 0.0148025695 0.022916876 0.096015215 -0.041959494 -0.020070804 0.10085029 -0.03335522 -0.026969505 0.033000086 -0.03314295 0.015603524 0.05336334 -0.0041812193 0.10743522 0.030904869 -0.015960755 -0.045162506 0.019191291 0.068754844 -0.042923044 0.008749758 0.0330135 0.045528118 0.018267164 -0.042337306 0.008846812 0.018795256 -0.039496962 -0.0484309 -0.044045437 -0.04603562 -0.03768136 0.064355955 0.013860531 0.07179511 0.06919925 0.06244798 -0.018542375 -0.068157904 0.025410365 -0.032432232 0.09949686 -0.05247298 0.019674305 0.0769176 -0.05657776 0.022959264 -0.04478298 0.07534882 0.0771361 0.012148978 0.003109499 -0.08226693 0.05787059 0.010642845 0.011234396 0.045782644 0.014891001 0.0468768 0.065554105 -0.08747191 -0.096338525 0.061266303 0.0012285974 0.002057968 0.0033438762 -0.048520222 0.06393091 0.0013685824 0.03984671 -0.07186662 0.020213906 0.009595283 -0.02572836 0.061850898 0.011644955 0.028561827 -0.002142563 0.049783096 -0.020776944 -0.0038271837 -0.026432378 0.019699404 0.01404253 0.057231035 0.04134948 -0.00055115414 0.052564874 0.07257812 -0.035051744 -0.029339012 0.006643467 0.03388874 0.0035252776 -0.008864894 -0.02429263 -0.008568132 0.06800719 -0.03722526 -0.08486583 0.001938872 0.029026777 -0.017628724 -0.04260018 -0.024266789 0.05259692 -0.03872922 0.008668329 -0.05903781 0.057852697 -0.010334426 0.010558582 -0.038425718 -0.037342712 -0.021922207 0.044184513 -0.030792404 -0.052387934 0.0636463 -0.007859845 0.073266216 -0.033319727 -0.026621873 0.036413096 0.052022 0.0066096075 0.034178093 -0.08980576 0.010823823 -0.033014253 -0.03983446 0.046778765 -0.04243972 0.0761925 -0.05935655 0.021150565 0.019542791 -0.062964335 -0.06799414 -0.03926413 -0.027644204 0.0074259746 -0.07779854 0.0015931319 -0.038318478 0.040935356 -0.022508034 -0.026609672 0.01588135 0.051786732 -0.11185834 -0.05948444 -0.031115307 -0.04427812 0.036066554 0.01904074 0.07648122 0.027617224 -0.03594801 0.010106421 -0.015825935 0.002568062 0.06106099 0.022025026 0.0064667515 0.012868748 0.0009276791 -0.038710225 -0.0022673982 0.048816003 -0.023141634 0.0059008407 -0.026784329 -0.10207761 -0.03211794 0.061262295 -0.03296561 -0.06173817 -0.0763346 0.012453399 -0.035816375 0.102400556 -0.009591355 -0.06372284 0.10008483 0.04967091 0.037895203 -0.07514781 0.0037956836 0.012103896 0.05316169 0.07928955 0.042958174 -0.019615155 0.056513775 0.041086342 0.05358666 -0.05304784 0.030877646 0.008924823 -0.045442756 -0.02096885 -0.021487461 0.042201955 -0.03304533 -0.05551121 -0.030736055 0.050603267 0.039173264 -0.019964162 0.06082807 0.027722346 -0.01807566 0.11541847 0.064597175 0.019429281 0.023229593 0.051985867 -0.073526815
522 -0.010585951 -0.007351287 0.0096926475 0.023052635 -0.023866499 -0.026926048 0.033440582 0.05162403 9.899435e-05 -0.03390284 0.03810473 -0.010033625 -0.014199884 0.024684208 -0.017314963 -0.017167093 0.026344353 0.0018837368 -0.014036283 -0.018880706 0.010273843 0.0025782501 0.024338158 0.017361647 0.0010466063 -0.009705853 -0.00861051 0.029882422 -0.007514926 -0.02393195 0.00017191685 0.0003460246 0.022224484 -0.008092043 -0.02972225 0.008182305 0.03264447 -0.03807539 -0.02156449 -0.00027079316 -0.01146566 0.016216751 0.00035704934 -0.019679388 0.01492267 0.012575857 -0.017569164 0.0025662929 0.002208925 0.024859747 -0.012358698 0.0010879261 -0.025740426 -0.006057282 -0.000629256 -0.024686094 0.011164171 -0.0098405965 0.011849525 0.009533484 -0.0076051634 0.0070237545 0.01652023 -0.011484191 -0.013487692 0.012607123 -0.008485749 0.021523634 -0.024470787 -0.0075212177 0.029540984 0.034409292 0.001152133 -0.015536031 0.020841759 -0.018770358 0.014223749 0.006493565 -0.012258032 -0.0067732427 -0.014749321 0.0066824816 0.004897671 0.04536456 -0.014679333 -0.009950039 0.045394585 -0.011365536 -0.006785011 0.0121956505 -0.021082882 0.0072450037 0.02643708 -0.0024765313 0.04854583 0.00940288 0.00548011 -0.01860026 0.011315408 0.02705323 -0.010261499 0.0019958518 0.011966244 0.016088419 0.0020342339 -0.014812281 0.0011574026 0.00487969 -0.01632663 -0.01684734 -0.024507351 -0.012245057 -0.01517358 0.026088707 -0.0016124768 0.031732365 0.032899108 0.028506484 -0.009823841 -0.039234646 0.009213949 -0.013891817 0.0431812 -0.021905418 0.00196214 0.03718962 -0.026275082 0.0054168203 -0.02232453 0.035563167 0.031518765 0.010876307 0.0003082969 -0.03896336 0.024574688 0.0034444402 -0.0007461999 0.01815026 -0.0009821181 0.010399846 0.024830854 -0.04094901 -0.03616849 0.03359142 0.0030852081 -0.008896685 -0.005851319 -0.026507245 0.03210474 -0.0017945289 0.011010931 -0.029252484 0.010226205 0.00023455382 -0.013605408 0.020332042 -0.004741007 0.007861117 -0.005530352 0.0182734 0.0014759277 -0.0056360955 -0.00900646 0.016333707 0.005339102 0.025070144 0.015806204 0.0025392938 0.017664744 0.028167307 -0.015312943 -0.009321805 -0.0046098507 0.01096759 0.002558495 -0.0005474306 -0.006513561 -0.00079575635 0.030643677 -0.014768687 -0.032613173 -0.0006951937 0.006483383 -0.001016367 -0.025143154 -0.012953289 0.028485198 -0.008263389 -0.0015954494 -0.025241494 0.027103353 -0.0051928586 0.007897882 -0.0134123 -0.017523384 -0.015819853 0.014235826 -0.010905859 -0.020937879 0.03083804 -0.005965079 0.03499101 -0.013794394 -0.008545609 0.015414538 0.02176165 0.011404658 0.015358513 -0.042599905 0.0029419768 -0.014931967 -0.015953662 0.0184772 -0.023562994 0.030166086 -0.026960084 0.007654174 -0.0005255128 -0.025746752 -0.03419494 -0.011897525 -0.011934737 0.008713235 -0.034088902 -0.008873 -0.020350818 0.011825289 -0.016517524 -0.007916837 0.0076600513 0.020989962 -0.049070448 -0.020532582 -0.0093627395 -0.01343814 0.026742835 0.0061015673 0.037509527 0.013683628 -0.018901832 0.012930538 -0.012882894 0.00076012395 0.02825 0.007998909 -0.003103921 0.0075179716 0.0011560153 -0.012158822 -0.0020111634 0.025577672 -0.008026063 0.009105144 -0.0069509903 -0.043818 -0.012579023 0.033212904 -0.01629464 -0.03043271 -0.03893741 0.0028075282 -0.017527968 0.044134147 -0.009382777 -0.03026493 0.04283842 0.019552061 0.014253008 -0.035810273 -0.0039044293 0.0033073865 0.020802695 0.037804965 0.020770857 -0.008856951 0.01890481 0.01237639 0.026292693 -0.0252673 0.019273499 0.0032471444 -0.013102331 -0.0048556793 -0.008071236 0.022532623 -0.011633417 -0.024297064 -0.007894107 0.020249933 0.01980621 -0.002529437 0.025888482 0.0060350928 -0.0068483218 0.051905848 0.025603 0.0040411022 0.012170842 0.021954283 -0.0321347
501 -0.007035971 -0.005539415 0.014563629 0.040727317 -0.034533646 -0.03667902 0.04137378 0.06239831 -0.0053663184 -0.036197267 0.052092094 -0.014537749 -0.02181283 0.035596013 -0.025428623 -0.022812346 0.03300941 -0.0006202143 -0.026606508 -0.032732796 0.02432406 0.013709382 0.04068608 0.016655251 0.015452631 -0.012692729 -0.016209705 0.041750137 -0.023441337 -0.030459853 -0.014207471 -0.005696883 0.034839835 -0.023680765 -0.034127153 0.0036001217 0.042040672 -0.038697813 -0.020845143 -0.0141551085 -0.030431677 0.026769437 -0.020418927 -0.026103355 0.0074562007 0.013707876 -0.03579015 0.022796756 0.011077995 0.043990348 -0.027555361 0.002754265 -0.031517815 -0.006767665 0.0155761875 -0.033890452 0.021018922 -0.021623593 0.0059468304 0.025316091 -0.015560942 0.00645975 0.012360364 -0.026963845 -0.017898235 0.015078651 -0.012216225 0.031149838 -0.028435983 -0.008015219 0.04196927 0.053417146 -0.001602055 -0.034454413 0.024440544 -0.023214603 0.022585606 0.0007301879 -0.018452246 -0.0258442 -0.019493563 0.009936341 0.015872685 0.05595592 -0.021454504 -0.012990085 0.054606233 -0.020946987 -0.013341843 0.02210944 -0.016244903 0.00927558 0.030463401 -0.0038092523 0.06623351 0.021254452 -0.013724463 -0.030248925 0.009865678 0.038159873 -0.026367452 0.00666739 0.018246079 0.027408725 0.012827068 -0.024170024 0.0076406915 0.0127492845 -0.021043688 -0.027107216 -0.023042537 -0.029665953 -0.021713156 0.04101331 0.006799096 0.044231176 0.045941707 0.035777856 -0.0135567505 -0.03626792 0.016867528 -0.021297485 0.060954243 -0.034335364 0.015642913 0.037569214 -0.032494333 0.014163239 -0.025197005 0.045419194 0.052447803 0.0023223325 0.0065412233 -0.048530936 0.03128889 0.0074307187 0.011189515 0.028939052 0.015291834 0.028472733 0.036413368 -0.04628894 -0.05543894 0.028898247 -0.0004556611 0.009113435 0.0050815986 -0.028526647 0.035140995 0.0067726495 0.021469392 -0.043831725 0.00798075 0.0058206418 -0.012615213 0.036786873 0.013593172 0.022437906 -0.002699553 0.034762062 -0.014535217 -0.0019428339 -0.018791543 0.006084908 0.006165644 0.031938627 0.026641397 -0.0072034122 0.03754132 0.044237226 -0.019536832 -0.025727466 0.010631271 0.02517527 0.0036710028 -0.0138201825 -0.01768818 -0.006192662 0.035933312 -0.023154693 -0.048883446 0.0016777139 0.01568871 -0.010503435 -0.022675192 -0.015393849 0.027972639 -0.02788547 0.0052442164 -0.03596657 0.030021656 -0.003775926 0.0058734072 -0.02872149 -0.023840057 -0.008778553 0.024699057 -0.021673352 -0.031711943 0.03647676 -0.004767937 0.038934983 -0.025265606 -0.014588355 0.02983968 0.034553275 -0.00042000375 0.01820228 -0.05675513 0.012000129 -0.019336574 -0.02343263 0.032920346 -0.019355016 0.044415824 -0.03856615 0.015483087 0.016570913 -0.043313373 -0.04032408 -0.027718183 -0.017890759 -0.00035448032 -0.044042695 0.012373735 -0.022571383 0.028505068 -0.0040611383 -0.020433659 0.010443138 0.027104385 -0.06167525 -0.038501732 -0.01732498 -0.028665243 0.016354613 0.008409306 0.03890298 0.019001799 -0.019023292 -0.0054721534 -0.008052105 0.0019649009 0.038897734 0.014180234 0.01073167 0.005609313 0.0012627165 -0.024976874 -0.002498754 0.026022546 -0.014395549 -0.0055941427 -0.020129729 -0.060249873 -0.023604365 0.031547118 -0.019352328 -0.034448937 -0.041391023 0.010573711 -0.023488814 0.062077563 -0.0024226254 -0.03863848 0.058137376 0.030060612 0.02629348 -0.048408926 0.007342301 0.009722577 0.033925906 0.043352094 0.023535749 -0.016871473 0.03353512 0.029986762 0.031339534 -0.029243808 0.015722943 0.0038489047 -0.02946581 -0.019620502 -0.01182483 0.021412015 -0.019746989 -0.03223891 -0.021181252 0.03563632 0.019341305 -0.016350292 0.039304312 0.023624014 -0.0082980255 0.06756583 0.037285358 0.014591205 0.010166695 0.030438367 -0.045135815
292 -0.007842104 -0.005780716 0.011592615 0.032572158 -0.028261589 -0.028009491 0.034612365 0.053923286 -0.0012902706 -0.030673765 0.04059336 -0.012956545 -0.015209482 0.024256771 -0.018944873 -0.021531522 0.02641146 -0.0024838247 -0.014081477 -0.025929306 0.021810085 0.0031101387 0.029940484 0.015048069 0.007940713 -0.008083458 -0.012089432 0.03432684 -0.0155665055 -0.026914455 -0.007110448 -0.0024822692 0.029186632 -0.017247183 -0.028003203 0.004604528 0.036015347 -0.033677116 -0.02445077 -0.0032375185 -0.019470168 0.01803302 -0.008551729 -0.018467095 0.007471125 0.009831732 -0.021789499 0.012088792 0.0048247604 0.032317758 -0.02023131 0.0026262314 -0.027079662 -0.0020229665 0.0034187092 -0.02811996 0.014332475 -0.018246535 0.0045775184 0.016611373 -0.008651008 0.0062749158 0.015063969 -0.017454075 -0.015538178 0.012455419 -0.008382831 0.027964637 -0.023465917 -0.011130934 0.033429313 0.040264737 0.00031183366 -0.02215235 0.023959192 -0.018191947 0.016583173 0.005942474 -0.013251414 -0.015133193 -0.018299105 0.006603386 0.007899815 0.047064748 -0.021977814 -0.011805095 0.048918813 -0.015302364 -0.009660449 0.013443188 -0.017771244 0.009715983 0.027727138 -0.0010364602 0.05543487 0.016036056 -0.008350011 -0.022921141 0.007287563 0.030511856 -0.020619426 -0.00024028688 0.018371142 0.020664396 0.007471953 -0.020793103 0.0013794331 0.0047411174 -0.015180804 -0.022477036 -0.019002814 -0.022014571 -0.015245364 0.031123608 0.005439686 0.031896256 0.03436389 0.02828503 -0.0076463465 -0.03207665 0.012030102 -0.015127571 0.050143618 -0.028339418 0.010761703 0.036337852 -0.027362026 0.01231385 -0.022897039 0.03881305 0.03685867 0.008103628 0.0034856799 -0.039806858 0.025826825 0.0067372727 0.0037833822 0.020202506 0.0076627345 0.019433321 0.030382184 -0.0439017 -0.0416494 0.031248745 0.004226663 0.002204145 -0.00075836864 -0.022197323 0.031221097 -0.0019168818 0.019756414 -0.030130373 0.0142550655 0.0018897721 -0.015870096 0.029315954 0.002953969 0.017036632 -0.0005173026 0.025478449 -0.0057059852 -0.0016933441 -0.013633968 0.009378343 0.0086073205 0.02417553 0.019125903 -0.00034918127 0.026952958 0.035728835 -0.016856795 -0.012315349 0.0013203248 0.017685475 0.0054854695 -0.003376867 -0.011052013 -0.0050206413 0.034619074 -0.015543331 -0.0370572 -0.00086083804 0.011220395 -0.008884871 -0.021741161 -0.011569375 0.022627268 -0.020320613 0.005280766 -0.024925636 0.0303556 -0.0041080485 0.0032086966 -0.02071472 -0.01773961 -0.012617311 0.01853722 -0.014217194 -0.025608089 0.026130864 -0.001207619 0.033287358 -0.019010015 -0.01211478 0.019043919 0.024363855 0.0030254736 0.018459102 -0.040198185 0.0025994745 -0.011408802 -0.01653422 0.019601103 -0.02184767 0.036460523 -0.026804509 0.007403883 0.007587482 -0.029525211 -0.035437755 -0.021493297 -0.013935483 0.00501705 -0.037458327 0.0030869837 -0.019822426 0.020233765 -0.009858913 -0.012700259 0.009984521 0.022757247 -0.05609129 -0.023395298 -0.015128054 -0.01873402 0.018179245 0.0057379245 0.03404471 0.01606217 -0.019140732 0.004597386 -0.0119028315 -0.0012391941 0.028702302 0.013119267 0.0007990037 0.0083732065 0.0003038604 -0.018021453 0.0016961944 0.022067025 -0.013505975 0.0030169522 -0.010807716 -0.044633713 -0.017697541 0.030087957 -0.015522253 -0.032019928 -0.033875853 0.0041308133 -0.01639826 0.050340183 -0.004917747 -0.032066524 0.04781187 0.02520163 0.02196731 -0.04002594 0.0018552014 0.0074185478 0.024433324 0.041973278 0.020039389 -0.011012984 0.024802383 0.016541801 0.025629746 -0.026150825 0.012681476 0.006890989 -0.022537488 -0.011914324 -0.00850213 0.024177542 -0.013825027 -0.02501238 -0.015575805 0.024806667 0.020299442 -0.01196222 0.03022104 0.014804458 -0.007722071 0.05645749 0.03102048 0.010551874 0.011790582 0.027559495 -0.038433105
518 -0.0067801285 -0.007137291 0.005453207 0.021056907 -0.017449262 -0.021351598 0.027076453 0.045389466 0.0007696471 -0.03010567 0.030954907 -0.0073023564 -0.014559456 0.023346283 -0.013067622 -0.015663423 0.022026561 -0.003373622 -0.006758635 -0.010708439 0.007697853 0.0009461599 0.022761617 0.015670327 0.0032591168 -0.007416034 -0.006285361 0.026043938 -0.006039623 -0.015085859 0.0008244766 -0.00497348 0.01644496 -0.010470131 -0.02824093 0.011838761 0.022171719 -0.028289847 -0.01994472 -0.0005070523 -0.010202987 0.013562511 -0.0012774997 -0.013925341 0.01431937 0.014021519 -0.017062023 0.000739661 -0.0041707573 0.0202593 -0.01165721 0.0005416749 -0.024982048 -0.008421539 -0.0035466144 -0.022569096 0.003840675 -0.011905705 0.008639213 0.002734686 -0.011693799 0.004673075 0.014998267 -0.006580055 -0.011068934 0.010904781 -0.004635544 0.020111494 -0.019620646 -0.009889443 0.028011821 0.030568173 -0.0030636238 -0.011494026 0.020539388 -0.019679938 0.008265046 0.0036277415 -0.007766288 -0.004347145 -0.012740899 0.0018415315 0.0077663604 0.033545528 -0.010636897 -0.009333979 0.04135514 -0.011807434 -0.0042125867 0.009169818 -0.021787176 0.005950467 0.025368903 -0.0045433 0.036661193 0.011312303 0.0028716167 -0.015085085 0.011099908 0.025183057 -0.0105524715 -0.0028206322 0.0074608 0.012521648 -0.0015275344 -0.0136403255 7.642337e-05 0.004293238 -0.012771452 -0.01585049 -0.018919308 -0.014305192 -0.010104102 0.024464197 0.00025087228 0.023264742 0.024817374 0.023582147 -0.006847905 -0.03178402 0.012611541 -0.009852098 0.037793487 -0.012649564 -0.00023947109 0.030395322 -0.017084429 0.0022033125 -0.02013996 0.027908131 0.022484502 0.011131284 0.0042584175 -0.033509396 0.018745642 0.002119907 -0.004980085 0.012653593 -0.0036439481 0.009931254 0.02333834 -0.033772696 -0.029112056 0.028018124 0.0065789525 -0.0049643246 -0.006111763 -0.022030942 0.029253311 -0.0016090191 0.005998989 -0.02501575 0.012571505 -0.001101074 -0.009499331 0.01653266 -0.002507346 0.006718057 0.00019494984 0.01133558 0.0025262572 -0.005603761 -0.0069747837 0.014274543 -0.0008730657 0.022208512 0.008026636 0.007615708 0.01376962 0.027006907 -0.0072680293 -0.004099308 -0.0011058005 0.009352695 0.0045765815 0.005458723 -0.001703957 -0.0021850315 0.022976747 -0.010425345 -0.030351365 -0.0034073906 0.003927271 0.0021291103 -0.018868508 -0.01179114 0.025224004 -0.0058793 -0.0006328689 -0.020170461 0.025931645 -0.004680196 0.0061018136 -0.010019398 -0.015391338 -0.009273124 0.011131422 -0.012838175 -0.015739573 0.027124492 -0.0009486673 0.029071411 -0.006118319 -0.009798959 0.0070251394 0.015162473 0.008198127 0.01192846 -0.033763934 -0.0034694248 -0.009249743 -0.012899725 0.012171301 -0.020009007 0.02760245 -0.022745712 0.0014415842 -0.0002976875 -0.02019241 -0.025271427 -0.009786105 -0.0075304667 0.0074209273 -0.029483126 -0.007637788 -0.016538344 0.012066753 -0.015202221 -0.0064624012 0.003943824 0.0183572 -0.042657714 -0.017049469 -0.01252358 -0.005536443 0.02020415 0.006623027 0.03009844 0.009738831 -0.018089255 0.007997397 -0.011169487 0.0003954575 0.022868128 0.008290189 -0.00226675 0.005024745 0.0033007155 -0.0086262 -0.0020158482 0.023782203 -0.0045173797 0.0067016752 -0.007840066 -0.032902885 -0.010558332 0.029560128 -0.011409984 -0.024548914 -0.033178862 -0.0013483288 -0.010849126 0.03692531 -0.009943277 -0.024835434 0.038097616 0.013041092 0.009967943 -0.029006653 -0.0064619775 0.0012231112 0.018538818 0.034688193 0.01890522 -0.007216471 0.018862732 0.007869388 0.018737422 -0.023536706 0.01740034 -0.0006353242 -0.011864008 -0.0050882343 -0.0066094697 0.018680828 -0.009122001 -0.019644959 -0.008437508 0.018578824 0.020439103 -0.0031371876 0.024960047 0.005237381 -0.002714653 0.04505115 0.0244765 0.0017851114 0.012661394 0.015223087 -0.031074299
899 -0.0034696576 0.0002705644 0.0022530267 0.012391385 -0.011746499 -0.009974396 0.018976752 0.025867654 0.0034432146 -0.014604189 0.021449259 -0.008401455 -0.005872127 0.011675456 -0.008097439 -0.00786686 0.013965958 0.00217428 -0.005700227 -0.008090261 0.005561524 -0.001824643 0.010900839 0.010502931 -0.0017643876 -0.0025099036 -0.0039240886 0.014489152 -0.00454559 -0.012926808 -0.003811496 -0.0013250456 0.01337083 -0.007351645 -0.017502952 0.009014687 0.018348658 -0.015121949 -0.016810128 0.0018857666 -0.006615296 0.011307238 0.001573128 -0.010510967 0.009173714 0.0055806907 -0.008458794 0.0019710655 0.0010417816 0.014361225 -0.007932026 0.00015727975 -0.01634123 -0.0061252606 -0.0012496985 -0.017501988 0.0040445216 -0.005667364 0.008153256 0.00027194986 -0.006125111 0.0022919404 0.007864438 -0.0060214847 -0.0052090343 0.0043052444 -0.0036106277 0.015772955 -0.012989095 -0.007617324 0.01862023 0.019171983 -0.0003096613 -0.0036324034 0.01306886 -0.009594428 0.007675338 0.0020309312 -0.0038325961 -0.001274487 -0.011249662 0.0010554147 0.0030358261 0.019502603 -0.007322007 -0.009125423 0.024275796 -0.004816235 -0.0036280171 0.005589561 -0.015111839 0.0064884275 0.015477024 -0.0006048137 0.026946893 0.00696782 0.0042872895 -0.005605631 0.0044532944 0.015188793 -0.005903968 -0.0028924176 0.0074030813 0.0069343396 -0.00038967468 -0.007965466 0.004637063 0.0019848964 -0.009814415 -0.009711523 -0.0123895295 -0.007927764 -0.009850954 0.012019677 3.9148574e-05 0.016667688 0.016376982 0.015934955 -0.0032228264 -0.020581027 0.0031883258 -0.0050334916 0.026656345 -0.010942572 0.0023022585 0.022784293 -0.014259371 0.002829387 -0.015014837 0.01849288 0.014709857 0.00720229 0.0044962927 -0.022671074 0.00993644 0.0007510124 -0.004585496 0.0066886013 -0.004509105 0.006781541 0.012520249 -0.020261131 -0.020436702 0.021663582 0.0060102395 -0.006116835 -0.00031963494 -0.015297288 0.016998237 -3.0801373e-05 0.0056936652 -0.014909962 0.007895033 0.00014797106 -0.010546674 0.0084718615 -0.005314229 0.0049469755 -0.0016016876 0.0064482875 0.0023979186 -0.003011443 -0.0036649224 0.009850934 -0.0004784129 0.014443978 0.0036696058 0.0031935212 0.0071849823 0.016267892 -0.009257694 0.00049267063 5.7030702e-05 0.0038835392 0.0034380748 0.0035597463 -0.004037642 0.0006076284 0.013533862 -0.005920177 -0.016720572 -0.0027169187 0.00014359792 -0.000883852 -0.013029054 -0.0072553833 0.017536074 -0.005973481 -0.0036124592 -0.016901832 0.015287631 -0.002025335 0.003115492 -0.006797261 -0.0059065497 -0.007161154 0.011047571 -0.00542977 -0.011559151 0.014334435 -0.004940839 0.016585669 -0.006237331 -0.0039573335 0.005883983 0.012805341 0.0046299207 0.00638702 -0.019105297 -4.121686e-05 -0.00713914 -0.010649042 0.0059574223 -0.01181333 0.014300805 -0.016756704 -0.0007968606 0.0029184818 -0.011992647 -0.014579323 -0.0049266135 -0.0077345297 0.0050824634 -0.01531535 -0.0018603798 -0.010172193 0.0096037295 -0.012433498 -0.00074707065 0.004768913 0.010524968 -0.025137398 -0.008589186 -0.006098875 -0.0033224875 0.013938943 0.004914592 0.021996139 0.008875685 -0.011223834 0.007021615 -0.006726001 0.002317873 0.012349446 0.002515824 -0.0021381958 0.0041657174 2.2908214e-05 -0.0046936045 -0.0023273898 0.015176668 -0.0039861547 0.007988477 -0.004528819 -0.023425186 -0.0058334805 0.016875064 -0.006237842 -0.015901528 -0.018169632 0.0010760527 -0.00851016 0.02445526 -0.005342121 -0.015265923 0.019245224 0.009481272 0.009398652 -0.019684613 -0.00041443604 0.0028306902 0.010182884 0.020139884 0.012867954 -0.0063201035 0.011976376 0.005660223 0.015357819 -0.010869877 0.010263021 0.0008199058 -0.0101762125 0.0012762548 -0.008382849 0.011434539 -0.0062879957 -0.009659969 -0.006857704 0.011264416 0.011157466 -0.0031327454 0.012141422 -0.00036212278 -0.00074234337 0.025766721 0.01694067 3.0171657e-05 0.0026554368 0.00857132 -0.014413347
325 -0.0003484994 0.0026947248 -0.005196211 -0.007891072 0.003383387 0.0047804494 -0.006241987 -0.009553216 -0.00083308 0.0032298116 -0.00270447 -0.0021445607 0.0008819428 -0.0033372627 0.003802208 -0.0012902092 -7.891916e-05 -0.0033042205 0.005553851 0.008443845 -0.0019898529 1.7784605e-06 -0.0020089108 0.00035007045 -0.0056694844 0.0031532436 -0.0015034002 -0.0059725814 0.0056312517 0.000488812 0.0015015212 -0.0009139652 -0.0037717044 0.005067545 0.0026813266 0.0020042015 -0.0056698495 0.0051752245 -0.0011188247 0.0021307522 0.0020960951 -0.0033450765 0.0051479805 0.0041802726 -0.0016004061 0.00017462598 0.0068225167 -0.006635866 -0.0037511957 -0.0055636046 0.0022004931 0.0011611102 0.0056024 0.0030874219 -0.00057426933 0.0005069683 -0.0029264567 0.0004210646 -0.0014866387 -0.0071617737 0.0024168454 -0.000905674 -0.0019313712 0.006687978 0.0018097964 -0.0014304253 -0.00013088442 -0.004002776 0.0015660295 0.002348464 -0.0034606033 -0.0074294144 0.002370729 0.005020579 -0.0034368392 0.0038029647 -0.0050621196 0.0028309622 0.0006150913 0.0017116078 -0.00047993232 -0.0027945507 -0.0023627798 -0.006047856 0.004474315 0.0022792565 -0.0055228528 0.0038868985 0.0015846026 -0.0031300404 -0.00029958118 -0.0011240909 -0.0038934352 -0.0017244078 -0.0069349944 -0.0017835953 0.0008795675 0.0066280616 -0.0018648343 -0.0049681296 0.0028744848 -0.0031238957 -0.004582406 -0.006309739 -0.0033754979 0.00093652034 -0.0023448933 -0.005292837 0.0054411213 0.0031589107 -0.0013806432 0.005956467 0.00042143188 -0.005000912 -0.0011708745 -0.006777416 -0.007504299 -0.0062143556 0.00448982 0.004870377 -1.6676506e-05 0.0033544272 -0.0043617086 0.0040623005 0.0003587834 -0.00058494706 0.0047788727 0.000954338 -0.00069250766 -0.004263779 -0.0032206476 0.0014351148 -0.0024683597 0.0034705428 -0.0043691583 -0.0022473193 -0.0033611155 -0.0011762735 -0.0044958084 -0.00311944 -0.0059834393 0.007390749 0.0044146553 -0.0044385106 -0.00014329159 -0.0052697645 -0.004237409 0.002189279 -0.0016164368 -0.00048206956 -0.0021115658 0.0048902202 0.0006485089 -0.0012747817 0.003363097 -0.0025715977 -0.0044907704 -0.0032218785 -0.0022995165 -0.0059875855 0.0013841428 -0.0010558963 0.0008511213 3.53543e-05 -0.0012086832 -0.003071976 -0.0078035537 0.0028871824 -0.0028557715 -0.0030078741 0.0015471346 0.0073760976 0.00077090046 -0.0034081324 -0.00018454384 -0.00043806725 0.0017806125 0.0009460844 -0.0023347724 0.002808482 0.002434552 0.00037926008 -0.0056425445 0.0053976635 0.0023361708 -0.0015342981 -0.00045983552 0.007056159 -0.0035616732 0.0012686359 0.0010494312 0.0011011085 0.0022846488 0.0009150361 0.0017036838 0.0017219237 -0.003911818 0.0013298036 0.0023704628 -0.004685024 -0.0020851698 -0.00060599716 0.0033151545 -0.0015391053 -0.0012847357 -0.0053687054 0.00071728544 -0.0020384833 0.006507845 -0.0042374176 0.0018392381 0.0010784179 -0.0014810436 0.0033262284 -0.0038922927 0.0018328209 -0.001082525 -0.003920923 0.0029482201 0.0013979911 0.0026150935 0.0031568282 -0.0019591511 0.0031331102 -0.00047168825 0.0015598909 -0.0017667435 -0.0013305083 0.0017500119 -0.003429838 -0.0034417168 0.0076629748 0.0025219321 -3.7633734e-05 0.0028425884 0.0024921582 -0.0010300968 -0.001949548 -0.0021624896 -0.00082856586 0.0019229902 -0.00032986727 0.001649643 -0.006862175 -0.004122161 -0.00504067 -0.00012767097 -0.00015159808 0.0034109915 0.0012088044 3.1906697e-05 0.0026374646 0.0015155766 0.004041919 0.004608049 0.00046302183 0.0018988671 0.0009913634 0.0007980416 0.0048266323 0.0008191822 0.002100783 -0.0055794716 -0.0012884813 0.0027726528 -0.00915769 -0.0069248406 -0.0065549966 0.002860416 0.0006395338 0.0015832197 -0.0038029316 -0.00391423 0.00041423438 0.0024893954 -0.0062179556 -0.0042028865 -0.0019207671 0.0014405149 -0.0020844853 0.002130103 0.0066410177 0.00037619815 -0.0006936794 -0.00076266925 0.0039424435 0.0005258663 0.006602657 -0.006269461 0.0005204341 0.005955749 -0.003263012 -0.0028077452 0.0009656273 -0.009240817 -0.0030883423 -0.0029088452 -0.004319699 -0.0017360069 0.002412112
388 -0.00092054595 -0.004188329 -0.00042288163 0.0051395134 -0.0046238266 -0.00953904 0.011878271 0.015707375 0.00387538 -0.0077097467 0.015547123 -0.0008639832 -0.007139538 0.004849968 -0.0073971315 -0.006473646 0.009732035 0.0010553899 -0.003923074 -0.0039472524 0.003305779 -0.0015240384 0.010171319 0.0017410095 0.0014640128 -0.0043015736 -0.0009629726 0.009412077 -0.0015922231 -0.009230801 0.0023988823 -0.0026899998 0.0085889045 -0.001949667 -0.0074392925 0.0010994883 0.008048634 -0.013415387 -0.0057096398 -0.0019610864 -0.0017934893 0.005273521 0.0016964653 -0.007707801 0.0039347266 0.004543689 -0.009581204 0.0037679744 -0.00091421173 0.010998797 -0.0045811143 0.000999425 -0.007963529 0.0010290428 -0.0037690501 -0.0061174505 0.0054148557 -0.0038813553 0.0043980023 0.003550282 -0.0022069619 0.0013449178 0.0061578113 -0.0035438116 -0.0029527647 0.00704281 -0.0042653847 0.0081345895 -0.010668495 -0.003697194 0.0067428243 0.01313597 -0.00053917797 -0.005744585 0.008663964 -0.009278843 0.0043516746 0.00066229637 -0.0052933195 -0.004656488 -0.008648605 0.0044342172 -0.00049210433 0.015754271 -0.006677695 -0.0039329277 0.016107062 -0.007087523 -0.004554094 0.00070117036 -0.0100026 0.0018298209 0.0077862735 -0.00059620576 0.0151146455 0.0012755923 -0.00045954596 -0.0057777693 0.000997303 0.0077909753 -0.00515268 -0.0027925852 0.0011195163 0.0032182476 0.0017419872 -0.007315484 -0.00016270102 0.0028133627 -0.0028767656 -0.008002139 -0.0051814495 -0.007342554 -0.00477899 0.010838129 -0.00034982825 0.013248185 0.009813516 0.009990192 -0.0003647427 -0.014912373 0.0016461896 -0.006896432 0.014447757 -0.008847405 0.00068014505 0.009347711 -0.00724337 0.0018744436 -0.00517074 0.007695891 0.008869165 0.005675441 0.0040172357 -0.012336445 0.0082118 -0.0019375787 -0.0005257069 0.0031212273 -0.0033016626 0.004715008 0.008133813 -0.010999136 -0.0153079415 0.011930095 0.0019666506 -0.0035202338 -0.0019808519 -0.006075151 0.008499002 6.682485e-05 0.0050603 -0.008982967 0.004963029 0.0030228877 -0.0025239505 0.008459918 0.0021883005 0.00052905816 0.0014958639 0.0072150105 -0.0018061582 -0.0026725964 -0.001394718 0.0070453035 -0.002529014 0.007828356 0.0036338682 0.0019065422 0.009026108 0.0074199084 -0.00087872846 -0.00525511 0.0012603496 0.0068144724 -0.0007467655 -0.0031592273 0.0010951712 -0.003915134 0.00700181 -0.0051167747 -0.013617911 0.0019986413 0.0047764853 -0.00024267354 -0.0048532146 -0.0010981845 0.010452028 -0.0025105684 0.0016689297 -0.0063016624 0.010957393 0.0006119237 -0.0010214647 -0.00081930606 -0.002823977 -0.0009895853 0.0024646455 -0.005790325 -0.006300617 0.011145492 -0.0038424735 0.011715191 -0.0015620919 -0.00020835598 0.003440714 0.0070717707 0.004671144 0.004522145 -0.0122208595 -0.003142546 -0.0041379766 -0.004585145 0.006832057 -0.010446709 0.0090976395 -0.007559561 0.0026075812 -0.0011342277 -0.006648387 -0.008982633 -0.006971457 -0.00035147154 -0.0010917 -0.011741824 0.001437783 -0.005217776 0.0022772755 -0.0055919383 -0.0038437243 -0.000978618 0.0037101868 -0.014442044 -0.009891696 -0.0022655504 -0.005841151 0.009934036 0.0015233316 0.009986532 0.00660703 -0.009236939 0.00401708 -0.004527897 -0.0015862439 0.0069174925 0.0051551163 -0.0021363061 0.0032359962 -0.0021240693 -0.0043073585 -0.0012285896 0.00596919 -0.0036484124 0.00013925046 -0.0035664511 -0.01447247 -0.0054988055 0.009123776 -0.007882033 -0.0073310775 -0.011880381 0.0026288922 -0.0038659694 0.017075868 -0.0037125535 -0.011894813 0.014117055 0.0026806958 0.0067477445 -0.007812446 -0.0013910539 0.0035006658 0.010179541 0.013765118 0.008431859 0.0005680784 0.0074743903 0.00048331692 0.0055402275 -0.008667614 0.005481408 0.0038067673 -0.00790605 -0.0022261462 -0.0001728852 0.0068677627 -0.005731181 -0.006919226 -0.0058478764 0.004568231 0.0040616454 -0.001913178 0.011452472 0.0036879906 0.0014284924 0.020354552 0.0106440475 -0.0012718067 0.006155742 0.0032453903 -0.01223524
148 0.0012849825 0.0009471241 -0.0007212281 0.0015267654 -0.0004899047 -0.0051653325 0.0040790867 0.011089092 0.00249997 -0.0041384874 0.005889526 0.0007615223 0.00062731846 0.006667529 -8.6038315e-05 -0.005410569 0.0045281937 -0.0005482937 0.00097352156 0.00080940087 0.003715919 0.0014047836 0.0063294754 0.004642286 0.00045315336 -0.00435189 -0.0028319277 0.00880217 -0.0026263392 -0.0035063783 0.0018038903 -0.002716537 0.0064642094 -0.000671907 -0.005317106 0.0045152693 0.005319424 -0.00574885 -0.0074429 0.0034020164 -0.0046668705 0.005634752 0.0017719704 -0.0029042186 -0.00020496712 0.0057201646 -0.0038946348 0.0015055462 -0.0014894776 0.0029217266 -0.0020544934 -0.0034200798 -0.006823552 -0.004171742 0.000635147 -0.004610146 0.0007595374 -0.0003855952 0.0011809078 -0.0018890603 -0.00084781484 -0.000672965 0.003439804 0.0017456105 -0.002730691 0.004520367 0.00059597456 0.0031575842 -0.005964479 0.001170173 0.005849715 0.0062459297 0.0004160547 -0.0043746624 0.0047931927 -0.004885017 0.0031234636 -0.00070428103 -0.0023142388 0.0007395503 -0.0058169975 -0.00018558923 -0.0022265094 0.008242284 -0.0021131649 -0.0012968522 0.008624028 -0.002202147 -0.00034827087 0.0011533424 -0.0021667941 0.0010274802 0.003174012 -0.0021599599 0.0047670067 -0.00065525697 0.0018611532 -0.0006582864 -0.0002599854 0.0021085895 -0.003859816 0.0010532539 -0.0011629296 0.0046990365 0.0017287948 -0.00036953494 -0.0020529765 0.0008588781 -0.004470834 -2.4502035e-05 -0.005761344 -0.0030067675 -0.00041673574 0.0040082554 0.0017835111 0.00414353 0.0068813516 0.0010602332 0.0006723342 -0.0074220495 0.00021415693 -0.0023041745 0.0074882475 -0.003373043 -0.00068454293 0.0037151866 -0.0063946024 -0.001549703 -0.006815038 0.0040401383 0.007837898 0.00209093 -0.0020000804 -0.008055359 0.0052896016 -0.0010612077 -0.0014864089 0.0013411549 0.0006687791 -0.0010485675 0.0016044168 -0.004492932 -0.0083483355 0.0074438266 0.0011325047 0.0016349596 -0.00033019896 -0.0039938195 0.006934551 0.0005987592 0.0022656154 -0.00578525 0.0034946564 0.0019376827 0.00022554806 0.0033431714 -0.0012376823 0.0034045796 -0.0035490654 0.002621448 -0.001540432 0.0005831915 -0.0046929955 0.0046020853 0.0031671578 0.0031706523 -0.0016780844 -0.0015479713 0.0043748887 0.0033598288 0.00024107128 -0.0009936177 0.0017417357 0.0013241139 -0.0017959856 -0.0014605799 0.00031449174 -0.0021010728 0.0073631727 -0.0034931903 -0.0077232122 -0.00026300913 -0.00089373346 -0.0025992186 -0.0062473747 -0.0030808721 0.0051420885 -0.00043184956 0.0019867872 -0.0020085648 0.007363084 -0.00074890256 -0.001416295 0.0016492466 -0.003308328 -0.000998881 0.0022068769 -0.0006623543 -0.0011794447 0.003017002 -0.0015817283 0.006536825 -0.00084660144 -0.0047606123 0.0036989744 0.00434628 0.0016822803 0.0016356801 -0.009444432 0.0020491064 -0.0050411266 -0.00566753 0.0039713075 -0.0068505947 0.0047447807 -0.0051713567 0.00030420514 -0.002790976 -0.0028114244 -0.005219848 -0.0005553839 -0.0022721037 0.003230106 -0.008952648 0.00026984946 -0.0045743166 0.002238316 -0.0062261103 -0.0017983523 -0.0016726722 0.0019523645 -0.005170623 -0.0024797309 -0.0011784581 -0.0035971424 0.006887457 -0.0009949884 0.005664742 0.00023212895 -0.0057582976 0.0031663459 -0.0034907113 0.0013758665 0.0063836975 -0.00066569814 -0.0014779596 -0.00011829169 -0.0024967159 -0.0057872054 -8.91436e-05 0.006048013 -0.0012110206 0.0005936608 0.0003046603 -0.006589618 -0.005558617 0.008836148 0.00020679936 -0.0074295574 -0.006501675 0.0019995985 -0.0034642222 0.0070921117 -0.0028854508 -0.0027712935 0.009562062 0.0033795063 0.00072665786 -0.006132901 -0.002606404 -0.0029832076 0.0065809186 0.006337367 0.0032560944 0.0013132466 0.0004509426 0.0034043677 0.0019858214 -0.006172432 0.0050498736 -0.0008361724 -0.0030734735 -0.0024700498 -0.0029243527 0.0033574167 -0.0021270597 -0.0007904294 0.0012350568 0.0030457356 0.003549478 -0.0027290147 0.007340657 -0.00088940264 0.0016116487 0.012441443 0.0068419636 -0.00042757145 0.004118826 0.005490785 -0.0068310485
758 0.0003703294 0.0016802924 0.0023688942 0.0013302941 -0.000628564 -0.003408915 -0.0018927973 0.00018386895 -0.0023692565 -0.00064762984 4.2169064e-05 -0.00037483807 0.0018572032 0.0044535724 0.0015581055 0.00020723334 -0.00044760134 0.001147453 -0.0017426711 -0.004385479 0.003487055 -0.0024155206 0.0024860343 -0.0011742054 -0.0007925971 -0.0008960791 -0.0027416328 0.004144131 -0.0032288148 -0.0039316053 0.0011894964 0.0013796515 0.0032234725 0.00013587793 -0.002125185 -0.0020930683 0.0018238868 0.0017075216 -0.0021794962 -0.0015852085 -0.0006566682 0.0030873294 -0.0030111535 -0.0020910117 -0.0008061885 0.00044793726 0.00050185627 0.0031025654 -0.0022748539 0.0042145094 -0.0017613712 -0.0005951604 -0.003807164 -0.0017926182 0.00398929 5.882373e-05 -0.0021317904 6.9183836e-05 -0.0024668036 -0.0018652185 0.0007908454 0.0009728303 0.00026904896 0.0019876887 0.0015004952 -0.0010206458 0.00069633644 0.0018132799 0.00010537114 0.0030677503 -0.0011762507 0.000918267 0.00021940305 0.000535337 0.0006212648 0.0021459293 -0.0007865226 -0.0030710327 -0.0029165107 -0.0024727578 0.0027295235 -0.0014606621 -0.0010709396 0.004482598 -0.0032309194 0.00057352753 0.0033314757 -0.0034089738 -0.00055610144 6.669378e-05 0.0018720764 -0.0013379748 -0.0013531256 0.003518187 0.00048072502 0.003099587 -0.0038571907 0.0013900286 -0.0007112357 -0.0013825562 -0.001525911 -0.0004052489 0.0002734062 0.0005347525 -0.00149928 -0.0021088293 -0.00093258463 0.0031766468 0.0015970082 -0.0013958719 -0.0021747649 0.0007165974 -0.0035973827 0.0017127721 0.0020262916 0.0008730865 -0.00024233066 -0.0016725813 -0.0034525446 0.0016137989 0.0016739339 -0.00085047365 0.0047494727 -0.0045320983 0.0008815134 0.0007756471 -0.0036247517 -0.0027101007 0.0017389761 -3.5657806e-05 -0.0010905951 0.0022888482 -0.001890828 -0.0020596976 0.001508101 -0.00078114966 -0.0020269721 -0.0004759767 -0.0021121672 0.0015677453 -0.00027745767 -0.0013731316 -0.0007361317 -0.00023954506 0.0025337285 0.003120586 0.00019349504 -0.0010499875 0.0010471025 0.0025749146 0.0039890716 -0.0024622537 -0.0007209181 -0.00057602214 -0.00014652047 -0.00043529912 0.00052765466 -0.0017626166 0.00015616139 0.0017191673 0.00044896366 -0.00053781696 0.0010618103 -0.0024329016 0.003673858 0.0013028672 0.0018298078 0.0006404048 0.0015323709 0.0020618143 -6.199706e-05 -0.004226804 -0.0004431344 -0.00012551219 -0.0030958299 0.0002767219 0.00094658876 -0.0010690135 0.00344308 -0.00086686655 -0.0015918923 0.0025288777 -0.0019868088 -0.0029550788 0.0023584515 -0.0024270685 0.0032531612 0.0005020694 -0.0022337742 0.0019417511 0.002678765 -0.0023939186 -0.0027754072 -0.0038705538 0.00059445 0.002134308 0.0001570538 -0.00029679158 -0.004181201 -0.0006258241 0.00160819 -0.0019231212 -0.004060832 0.00017949617 -0.0016868885 -0.0011394018 0.0010945891 0.0032204383 -0.004099432 0.0033676396 0.0026650664 0.0009375608 -0.00029196023 0.0030921882 -0.0011961566 -0.0023022876 0.0014227194 -0.0015430507 -0.0046473597 0.00014016843 0.0021584125 -0.002380183 -0.0018614428 -0.00022530972 0.0009921989 -0.0036196832 0.003232901 -0.0007239692 0.0001724422 0.0013383217 0.0037250747 0.0013672243 0.0012001289 -0.0030814433 -0.0009138486 -0.000102799364 0.00026871567 0.0038874028 0.0020599177 -0.0035416163 0.002668872 -0.00016523598 0.00013596338 0.0030273441 -0.0013607655 0.0005845834 0.0006784935 0.0020465604 0.0005170093 -0.00051353156 -0.002328783 -0.0016965625 0.0023156542 -0.0041926755 0.0016144672 -0.00091490906 0.00013253582 0.0027557802 0.0018301827 0.0017659839 0.003379592 -0.00384856 0.0041179955 -0.0030793366 -0.003897566 -0.0012572363 0.0019018046 0.0032199111 -0.0033080673 -0.00028578297 -0.00045541854 -0.00054760126 0.0006221144 0.0020393867 0.00073169987 0.00015149562 0.00019904255 3.3293698e-05 -0.001959308 0.0016163996 0.0034203369 0.0017219222 -0.0034225276 -0.0022899653 -0.002583695 -0.0026180265 0.0002238813 -0.003246426 0.0017113049 0.0033132196 0.00015642862 0.0013592716 0.004220354 0.0016782315 0.00111193 -0.001158992 0.00027350758 0.0027982763 0.0035256818 -0.0027399978
502 1.689521e-05 -0.0025971788 0.0067223115 0.011880566 -0.010794154 -0.012811374 0.011768126 0.026101418 -0.004192184 -0.016796354 0.019627728 -0.0016586976 -0.008215787 0.014938141 -0.006896102 -0.007085952 0.0098105995 0.0019811376 -0.010237145 -0.012680476 0.010349469 5.696562e-05 0.016124904 0.00534766 0.004350254 -0.006480332 -0.0071248407 0.0147326095 -0.0033878784 -0.009150452 -0.0074014105 -0.0034345726 0.013854957 -0.009487909 -0.01133455 0.0053603603 0.012151062 -0.013481183 -0.0074567106 -0.0035758163 -0.007570136 0.007652173 -0.002132486 -0.0062564923 0.00593566 0.0026700145 -0.009788601 0.0043254504 0.001347197 0.016848836 -0.008095208 0.002437854 -0.014864804 -0.0005453443 0.0012214277 -0.013257361 0.007601686 -0.006073805 0.005861543 0.0050594634 -0.003967678 0.0059258067 0.004644407 -0.0060765184 -0.009583614 0.009129821 -0.0017675688 0.01360999 -0.009509802 -0.002010071 0.014049272 0.016838983 -0.0016369441 -0.009901324 0.008807048 -0.011511083 0.0059003257 0.004130859 -0.0034070094 -0.0043833326 -0.009001425 0.003557412 0.0013957263 0.023288064 -0.008521273 -0.0020640912 0.020079887 -0.0081066 -0.0042556184 0.007900529 -0.010272291 0.0016913813 0.012694486 -0.0036487659 0.025808811 0.00857003 -0.004092119 -0.01189175 0.0019127536 0.014227392 -0.0068186927 0.0014022164 0.0044306745 0.012226113 0.00068773405 -0.0068754363 0.0040395223 0.0039099823 -0.011014194 -0.007890413 -0.01215246 -0.010904437 -0.005228126 0.011036432 -3.2777396e-05 0.013854791 0.016725963 0.013975522 -0.006589243 -0.016423786 0.008236998 -0.0042608096 0.02553493 -0.011942003 0.0048527922 0.01686359 -0.011061968 0.005835204 -0.009514264 0.016416984 0.01589486 0.00043694992 0.0038970737 -0.01928153 0.013157632 0.0012450571 0.0003680981 0.00839603 0.004356362 0.0070513547 0.01125792 -0.019859893 -0.018382186 0.016184723 0.000100269484 0.002900125 -0.0023221937 -0.0125201885 0.01175251 -0.0012838548 0.010223469 -0.018664021 0.0018725859 -0.0017734057 -0.002992199 0.012097194 0.0031365785 0.004624615 -0.0016382001 0.010783144 -0.004227493 -0.003107542 -0.008206742 0.005318802 -0.0006482194 0.012482176 0.008175285 0.0026739768 0.01153473 0.017273271 -0.009380234 -0.00884708 0.0031162417 0.0076684533 -0.0005063761 -0.0032340842 -0.0012993881 -0.0049681333 0.013299696 -0.007983033 -0.017994242 0.0034602457 0.004789349 -0.005462598 -0.011668264 -0.0090523595 0.008598179 -0.01047566 -0.000729148 -0.013169874 0.012469709 -0.003780994 0.003277124 -0.0069633382 -0.005426446 -0.005709903 0.011183772 -0.004584492 -0.012610144 0.011126647 -0.0026333202 0.014344248 -0.005407843 -0.0018861238 0.011307531 0.008589824 0.0036765644 0.00921239 -0.017915854 -0.00033436617 -0.006613008 -0.011022805 0.0071376166 -0.0085330065 0.019414805 -0.01119411 0.0017813935 0.0052445135 -0.0155914035 -0.0114311 -0.011489907 -0.003021042 -0.0010004215 -0.018846406 0.0012805432 -0.009235312 0.006030789 -0.0056018615 -0.006238074 0.0010380095 0.012248544 -0.023008874 -0.009302811 -0.0034151808 -0.01155154 0.010610009 0.0055578738 0.0184166 0.008431432 -0.010319234 0.0033220598 -0.003550328 0.00025023014 0.012088343 0.0053581344 0.0037024298 -3.945871e-05 0.0031212708 -0.007377611 -0.0005874442 0.009299675 -0.0048424704 0.003150255 -0.0047206213 -0.023561653 -0.005064698 0.013065127 -0.010456244 -0.01088912 -0.014758457 0.0039224564 -0.004906926 0.019583492 -0.0048208586 -0.014639638 0.020101555 0.009836672 0.008492935 -0.019526852 0.0008710696 0.0034194298 0.011072649 0.019253666 0.01007546 -0.00270019 0.011524171 0.011145331 0.011200843 -0.010484737 0.00547392 0.004188047 -0.008339659 -0.0043491027 -0.0018623204 0.0068033356 -0.003433036 -0.011272812 -0.008271233 0.010093809 0.0050276 -0.0054457556 0.014523743 0.008660217 -0.000114582836 0.022580884 0.0164681 0.0002592663 0.0064524543 0.013831148 -0.017525706
659 -0.0032524962 -0.0034079957 0.0005015136 0.00084826734 -0.0037609907 1.9140978e-05 0.0026331795 0.0045046424 0.0022430592 -0.0009548058 -0.0011388392 0.0010363006 0.000886896 -0.0012404346 -0.0016259147 -0.001225908 0.0014274269 -0.00045305933 -0.0016670799 -0.00016963319 0.001686862 -0.0006481752 0.0014234192 0.0019257504 -0.0018153707 -0.0031822105 0.002285024 -0.001195993 -0.00060976454 -0.0017049147 -0.001707221 0.00041803668 0.0034484705 -0.00035550396 9.702839e-05 0.0010527654 -0.0004143394 -0.0029172357 -0.00216102 0.0026991926 0.0027401922 0.0027830538 -0.0012274145 -0.0032392547 0.0032427702 0.0021098575 0.0008978649 -0.00094839383 0.0019051816 -0.0018487907 0.0030620906 -0.0034169112 -0.0022325353 0.0015495338 -0.0044778204 -0.00023489248 -0.0023944774 -0.002686457 0.0017479492 -3.3032775e-05 -0.001609692 0.003117825 -0.0005865476 0.00023779122 0.0020563935 0.001506977 -0.0025209081 0.002773549 -0.003263002 -0.0008136126 0.0026883432 0.0045533935 0.002708214 -0.0019433369 0.004407342 -0.003580394 0.0026588934 -0.0021092917 -0.0032696244 0.00013796985 -0.0041773873 -0.0011153737 -0.000269897 0.002781563 -0.004120771 -0.003109054 0.0007203152 -0.00068604975 0.001658028 -2.921485e-05 0.0012745984 -0.00037576107 0.004565233 0.0017785007 0.005356932 0.00053328555 0.0012817632 0.00046296348 -0.002756319 0.0048277164 -0.0007750877 0.0019247307 0.00096582214 0.0018327099 -0.0012340166 -0.0037312414 0.00053721794 0.0004184651 -0.0041969637 -0.002071299 -0.0026773992 -0.002035317 0.00083639333 0.0019608454 0.0010228436 -0.00030005467 -0.00033550343 0.002871571 0.0019912892 -0.0013783481 0.002376442 -0.0030641477 0.0055305255 -0.0027239327 -0.003225796 0.0056551835 -0.00201354 -0.0031395317 -0.002583989 0.0038430966 0.00019355213 0.0033522989 0.00031268565 -0.00094744127 0.0018150354 -0.0033966987 -0.0022624182 0.0035852585 -0.0010597317 -0.0020760444 0.0034179692 -7.3153584e-05 0.0006650163 0.0030785343 -0.0022784935 -0.0025827426 0.0003337462 -0.004057773 0.005764552 -0.0036042284 -0.0027373708 -0.003083675 0.0030746462 -0.0029131803 0.0016916292 -0.0026153794 -0.000105968706 0.00093075406 -0.00037872815 0.0037338363 0.0028114987 -0.00071303255 0.0012892733 0.004120767 0.00069496996 0.00428759 -0.0007389643 -0.0016718061 -0.0008170531 0.0012892297 -0.0029075802 0.0001852423 0.0017263818 -0.0015004306 0.0018195265 0.0022830318 0.00047260628 0.00027910675 0.0036975653 -0.0028903668 -0.0005822475 0.0023271337 -0.0014877648 -0.001975391 -0.0052376133 -0.004133658 0.0035433765 0.0018766724 0.0018846763 -0.001925452 0.0025995811 0.0006607005 -0.0031895465 -0.0029423188 0.00040764143 -0.004301894 -0.00035442 -0.0023807583 0.0014488571 0.0009771902 0.0030110008 0.0027174708 -0.0016966211 -0.0018769302 0.00072848547 -0.001123914 0.003591646 0.0039770016 -0.0009696697 -0.0032988864 -0.002685335 -0.0011728768 2.0894899e-05 -0.003738987 0.004682704 0.0006269689 -0.0013030687 -0.00036881113 0.0005641054 -0.001354847 0.0026262961 -0.00082603295 -0.0014961493 -0.0021700347 -0.00429971 0.0023660758 -0.0029261985 -0.0027626725 -0.0006984074 0.000967179 0.0025440156 -0.0058293846 -0.0022547212 -0.00037223133 0.0015630072 0.004243148 0.00043442557 0.0023869989 -0.0017382151 -5.8670325e-05 -0.00092897355 -0.00022265126 -0.00076868775 -0.00089338084 0.0026424786 -0.0012638461 -0.0029701155 -0.0024618092 -0.00035787237 -0.0029161712 0.003316582 0.0008224585 0.002831368 -0.0014965117 0.00035452557 -0.003598346 0.005516218 -0.0009270454 -0.0021643077 -0.0011227811 -0.0011878726 -0.0024075804 0.001627645 -0.0028352067 -0.0017211427 0.0005653515 0.002035318 -0.0027387477 -0.003319606 -0.004150318 -0.003416862 0.001178134 -0.00018156372 -0.0005595594 0.0007973309 0.0003659644 0.0005929888 0.0045160856 -0.0048223557 0.0035456193 -0.0026665048 0.0020457183 0.0029595357 0.0022176653 -0.00077980215 0.0014228206 -0.0038788682 -0.00061817665 -0.0010574616 -0.001105588 0.0018727578 0.003095582 -0.0019300824 -0.0023947957 0.0047512255 0.000507134 -0.0035006464 -0.000620452 5.430154e-05 0.0011121896
329 -0.0017046749 0.0025749865 0.0027018816 -0.00022243231 -0.0024054225 -0.002111313 0.0016021654 0.0007900277 -0.0022008994 -0.0032802566 0.0031039715 -0.002974588 -0.0036765034 0.0013575706 0.00026740506 0.00018971914 0.0002415466 0.0012681171 -0.0011147456 0.0003552755 0.00038277023 -0.0013261092 -0.0013228962 0.00226287 0.0023834351 -0.0022033611 0.0019265831 0.003430259 0.0009487668 -0.002824308 -0.003556687 -0.0007012832 -0.0006213557 0.00012516505 0.0025274875 -0.0026732371 0.0035409285 -0.0027945763 0.0026810651 -0.0030689505 -0.001426591 -8.2896724e-05 -0.0007788397 0.0021153172 -0.0011509261 -0.0021971478 -0.004181482 0.0038804598 0.0028692565 0.0038196242 -0.0028396384 -0.0021109004 0.0018730338 -0.0011671664 0.0037436173 0.0023111133 -0.00018242227 -0.00046760304 -0.0018182397 -0.00012803005 -0.0021124661 0.00011123622 -0.0036531414 -0.002321441 -0.001029759 0.00251149 0.00014569443 0.002302252 0.0012429014 -0.0004431988 -0.00095365697 0.0044630202 0.0019146256 -0.0048133912 0.0021601976 0.003180469 0.004505666 -0.0031315396 -0.0011319327 -0.0017269885 0.0013224268 5.307133e-05 -0.0007264212 0.0028838764 0.0016105461 0.0001545606 -0.0016793346 -0.0022759633 -0.0026258607 0.0027751443 0.0012776903 -0.0011995146 -0.0031847677 -0.00016460898 0.0035910022 0.0027698653 -0.0010547293 -0.0027209374 0.003241206 0.0008212284 -0.0014526624 0.0031150847 -0.0011464778 0.0029998713 0.004967347 2.2044776e-05 0.0014612146 0.002907977 -0.0009064035 -0.0038024317 0.00099673 -0.0012780919 -0.003280664 0.0017616388 0.0029089567 -0.0014849283 0.0017956397 0.0035044402 -0.0035830634 0.0021845812 -0.0027331936 -0.0034083657 0.0031581179 -0.004562984 0.0010963167 -0.002999366 -0.0033955663 -0.0014998568 0.00016577504 0.0014337522 -0.0007930836 -0.004419927 -0.00096865 -0.001073727 -0.001473331 -0.0006765779 0.002978075 0.002139823 0.004806244 0.003352734 0.0010959054 0.000497778 0.0012417736 -0.00053638336 -0.00032191406 0.0023700204 -0.0013098578 0.0019942988 0.0012649761 0.0006159916 0.004627689 -0.003432637 0.00042364158 -0.0019002685 -0.0025045557 0.0025184364 0.00391255 0.0036900383 -0.002560689 0.0029819796 -0.0013194309 0.0022459177 -0.0011035776 0.00018650008 0.0031687208 -0.0017484175 -0.0012449964 0.000712501 0.0011912042 -0.0021955105 -0.0021537647 -0.0017121804 0.004372017 0.00080548914 -0.00022162015 -0.0040124333 -0.0042934325 5.3583986e-05 0.00031506727 -0.0033257955 -0.0009760927 -0.0020151325 0.00056138315 3.9119885e-05 0.0014040342 0.0029021644 0.0015116323 -0.0024287633 0.0025812273 0.001528105 0.0024198007 0.0029926854 0.001878353 -0.00022700967 0.0020918692 0.0005347994 -0.00090381684 0.002653583 -0.0012556023 -0.0016367607 -0.00019641794 -0.0017155241 0.0014373468 0.0011159867 0.0029700745 0.003626083 0.0015801952 -0.0014250906 -0.0031782298 0.00031206792 -0.00157729 -0.0032938665 0.0014094622 -0.002003583 0.0039455905 -0.0019019195 -0.0011621652 -0.0002317968 -0.0026726748 -0.0032986584 -0.0011182035 0.0011473185 -0.0017515554 0.0015543621 0.0015794053 -0.0030565183 0.0008745632 0.0008728773 -0.0040024514 -0.0025115416 -0.0004403072 -0.0012998915 0.00023424716 -0.0029063502 -0.003943398 -0.0010711683 -0.0009675662 0.00104308 -0.00042041644 0.001591642 0.0007173428 -0.0016613381 0.00089036307 0.0026824991 0.000453858 0.0040690405 -0.0014946392 -0.0023829245 -0.0035701029 0.003316661 -0.0036215507 -0.0016996954 -0.0021042102 -0.0034417973 0.0018780482 -0.0029625243 -0.004002336 0.0025610388 -0.003505282 0.003201511 -0.00036199138 0.0015876797 0.0011569243 -0.00087616604 -0.0034481976 -0.0007646817 0.0037635923 0.0033402937 -0.00088836526 0.0037107577 0.0020374611 0.0019021016 0.0011031174 -0.003087947 0.0022783477 -0.0013030089 0.0014420361 0.0005542799 0.0015166405 -0.0037065959 0.001043447 0.00053927687 -0.004574239 0.0031114633 -0.0022701172 0.0015957878 -0.002841896 0.00071076915 0.0046237074 -0.0036107504 -0.0012726267 -0.0019247868 0.004822379 0.0023395778 -0.0015262823 0.0006188814 0.00057253323 -0.0026997342 0.0015237068 -0.0042785583
312 0.0007225507 -0.0019708613 0.0011275873 0.00019887183 0.001497267 0.00066525006 -0.005062807 -0.0013069488 0.0018855351 0.004341102 -0.0010764891 -0.00055350305 0.0023548498 0.00091118336 0.004692306 0.003466499 -0.0037422122 -0.003022553 0.0039197137 -0.00015007617 -0.0006569564 0.001887379 -0.0028933063 0.0020436016 -0.0044296826 0.0030156171 0.002798692 -0.00094197283 -0.001103121 0.0046305447 0.004093741 -0.0004041691 -0.0011664658 0.0033691756 0.0008655346 0.0021700573 -0.0034441194 0.0012072342 1.5056299e-05 -0.00015030784 0.001970676 -0.004013851 0.0028126934 0.0041432264 0.0015836731 0.0020882809 0.0004423848 -0.00045603397 -0.0033365677 -0.004453591 0.0048741032 0.0014518916 -0.00032010314 -0.0023277819 0.00088576623 0.0024416666 0.0011124962 -0.0008477421 -0.00020983996 -0.0021671688 0.0004807862 0.0002568169 -0.0021297054 0.0030080988 -7.979154e-05 0.0016879279 7.8959296e-05 0.0016472596 0.0008618834 0.0013836962 -0.004457131 -0.005808458 0.00017385684 0.0017320691 0.0020057973 0.0022253972 -0.0033257778 0.0026794104 0.0010932672 -0.0014014698 0.0025221657 -0.0011418057 -0.0038813355 8.7524575e-05 0.0036846201 0.0031176824 -0.0021432084 0.0038638816 0.0025439945 -0.0038625195 0.0032223307 -0.0014920515 -0.0045860917 0.0025264681 -0.0050077084 0.0017686874 -0.00093025446 0.004704456 -0.0025556018 -0.0006913021 0.005028874 0.00088331295 -0.0021733628 -0.0031702328 -0.00432539 0.003073309 0.0021874765 -0.0025946526 0.002667861 0.004079806 -0.0022566766 0.0024534578 -0.0011769469 -0.0033160094 -0.00080750143 -0.004697188 -0.0035397725 -0.004220195 -0.0012416145 -0.0011193955 0.0026626475 0.0039240457 -0.002590335 0.0017438768 0.00094737555 -0.0010030617 -0.0015591375 -0.0029441123 0.001268907 0.00068792637 -0.0015582077 0.0038201339 0.0020527628 0.0017464596 0.0014268819 0.0023701563 0.0015532533 0.0017447593 -0.0047613857 -0.00049805554 -0.004655754 -0.00016977591 -0.000117089236 0.00013410418 0.000589135 -0.0033584738 0.0010163403 0.0038667147 0.00029542058 0.0021233156 -0.0030415957 0.00056719617 0.0015513554 -0.0016125034 -0.0018420113 -0.0013640336 -0.00296632 -0.0034419948 0.0008896531 0.0003271342 0.0036281794 -0.00050171616 0.0042557996 0.0012205135 0.0015588653 -0.002080058 -0.0010627767 0.0033353325 -0.00542416 -4.191602e-05 0.001403193 0.0038841364 -0.0014318858 -0.00215606 -0.0019471665 0.00033579321 0.0003380247 -0.0010615072 -0.0011722943 0.0035081187 0.0040791677 -0.003511023 -0.0037553443 0.00012157219 0.0016124919 -0.0027934047 0.0013395506 0.0031173911 -0.0016333314 0.00444867 0.0016926834 0.00044493165 0.0014488153 -0.0015626141 -0.001811774 -0.001091746 0.0016368713 0.0022256197 0.0040407656 -0.003801611 0.0013689622 -0.0017021057 0.0013895389 -0.0007574046 -0.00031703757 -0.0050296267 0.0023706383 0.0010557054 0.0018874519 -0.0025419462 -0.0016693112 -0.0011945525 -0.0036085143 0.0013768806 -0.0037546183 0.001334382 -0.004181839 -0.0028867226 0.0019579257 -0.0011783978 0.0022888654 0.0043411856 0.0020229076 0.0031122048 -0.002902843 0.00083373906 -0.0010214924 2.0795764e-05 0.004682041 -0.0009693631 0.0011028682 0.004573297 0.002937819 0.0028992642 0.00056539784 -0.0015915487 0.002336864 0.0014225363 0.0004001209 -0.00039406327 0.0036563124 0.00085735635 -0.00015877567 0.00087368785 0.00050578924 0.00012900961 -0.00048247314 -0.0024922767 0.00041565398 0.00071605976 -0.0026785203 0.003084416 0.0034668425 -0.0012626244 0.0010227128 -0.00078916625 -0.0009781104 0.0002998258 0.0012151728 0.0009901847 0.0005214348 0.0041052466 -0.0041143266 -0.0028882641 0.003326853 -0.005075289 0.00030415482 -0.0006046631 -0.00057983067 -0.0035520487 -0.0037521801 -0.000753824 -0.0007859409 0.00012790362 0.0008802273 -0.001633505 -0.0013712541 -0.0017344791 -0.0013460246 -0.0005881514 0.0008676706 0.0005761427 0.00076832814 -0.00050598115 0.0016546566 0.00015458868 0.0046868725 0.0005394368 -0.0052994182 -0.0028490212 0.00014313617 -0.0011099975 -0.00033927217 0.0013612673 0.00028772643 -0.0011899007 0.0009062645 -0.0007283562 -0.0025293783 0.0042789914
275 0.002475248 0.0038592648 -0.0030823199 -0.004612378 0.00034374258 0.0011651334 -0.0044778716 -0.0062012067 -0.0037783175 0.0015838281 -0.0016143942 0.0007594084 -4.6181813e-06 -0.002899587 0.00091338955 -9.122478e-05 -0.004241666 0.00027569366 0.002154183 -0.0029953108 -0.0014339726 0.00045113117 -0.0013005754 -0.004861859 8.050852e-05 -0.0018984738 0.0030932676 -0.006922123 -0.0022377246 0.0024384898 -0.0015592928 -0.002972829 0.00190935 -0.0011233687 0.0054707467 -0.005423653 -0.005506618 0.0060597938 0.005707708 -0.00089537754 0.00054718927 -0.0034372287 -0.0027605928 0.0010684216 -0.0030998872 -0.0014184703 0.0016420751 0.00069238077 0.0031461995 0.00050390145 -0.0018265818 0.0027982716 0.0020070935 0.0043656584 0.0048487564 0.0041756 1.0386404e-05 -0.0025577112 0.0007163201 0.0012190507 0.0037753684 0.0004624811 -0.006763633 -0.00069575367 0.0027929775 -0.002418316 0.003597182 -0.004891255 0.0009682768 0.003783958 -0.0047025774 -0.00602073 0.00013084512 0.0015411156 -0.0042261793 0.0020210352 -0.0023775233 -0.0007941658 -0.00037515795 0.0010940575 0.003333057 0.0004944992 -0.0008473113 -0.0028657073 0.0012471933 -0.00067826954 -0.008886799 0.00073388783 0.0027330515 0.0015075587 0.0028577347 -0.0042850464 -0.007363208 0.0021283948 -0.008182615 0.00020016599 -0.0031287866 -0.00024913016 -0.004320338 -0.0016318965 -0.0005866302 -0.0018435299 -0.0027189343 0.0013761732 0.0026131158 -0.0022915732 -0.00042127137 0.0035157439 -0.00095313956 -0.0011787587 0.0035732808 -0.0032335762 0.0011515337 -0.001825267 0.0041895052 -0.0028960647 -0.0027171562 -0.00096289476 -0.0013010554 0.009125738 -0.001300919 0.0007925408 -0.008908222 0.00013485475 0.0040231855 -0.005339351 -0.0003000032 -0.0009623721 0.0013167425 -0.0017573979 -0.004197693 -0.0021056083 -0.0020791679 0.0025332947 -0.005356554 0.002194207 -0.0001817068 -0.0032146557 0.0014085979 -0.0008950987 -0.0031581405 0.0055600526 0.005409516 -0.0070200413 -0.0037937765 0.004006663 0.005107514 0.0019980026 -0.007143886 0.0026146458 0.0024072996 -0.0005395237 -9.841709e-05 -0.0024004972 0.00012789742 -0.0026114797 0.0041011553 0.000894351 0.0019931763 0.0016999237 -0.0012343556 0.00080728024 -0.0018533672 -0.007112926 0.00063892384 0.001291817 -0.0016416592 -0.0018596875 0.00056953315 -0.0047441637 -0.0014535162 -0.0036678666 0.00072371995 -0.0022689025 0.0018884247 -0.0048052436 -0.0028540513 0.0012030052 -0.0037330247 -0.0011507673 0.0019891574 0.0031541053 0.0018523491 -0.0022188788 0.0045799394 0.0033048633 -0.004433238 -0.0018478174 0.003167459 0.000616623 -0.0027655233 -0.0027034394 -0.0012424185 0.0016037938 0.00088416215 0.005425288 0.00057745527 -0.0008888584 0.0003692386 -0.0057331757 -0.002004748 -0.005433284 0.0015536706 0.00445487 -0.0015206106 -0.0018385749 -0.004777522 -0.0016471145 0.0052164234 -0.0011534184 0.0023163743 -0.00042020323 -5.7843965e-05 0.0059237164 -0.005591596 0.0028812352 -0.0003271982 9.2025446e-05 0.0011213098 0.0058996063 -0.002416498 -0.0013797592 -0.0020354968 0.006058667 0.004162882 0.00494845 -0.0019747168 0.008207386 -0.0026971437 -0.0017019849 -0.004446228 0.0069957217 0.0002255358 0.0037553916 -0.0013993679 -0.004761872 3.617759e-05 -0.008438471 -0.0024885132 0.0013889194 -0.0071779424 0.0041735563 7.436103e-05 -0.003940143 -0.0009752002 0.00047327788 -0.0014206448 -0.0012117056 0.0034180784 0.0028617326 -0.0054940963 0.0017459912 -0.004874249 -0.0030343866 0.0031988614 -0.0009984461 -0.005406837 -0.0009771789 0.00048431894 0.0036387243 0.0034150134 0.002386948 -0.003059337 0.0046085487 0.00069626677 -0.005989713 0.0020265137 0.0011459292 0.0051507032 0.0058396035 0.0033667714 -0.0033702662 -0.005064027 -0.0010809957 0.003071067 0.0019411179 -0.0008392923 -0.005312343 0.004982218 -0.0030969032 0.00018685698 0.002732386 0.00053058704 -0.0009941404 -0.0049023437 -0.0035538294 0.004834646 0.00057338376 -0.0016549084 -0.0029146285 0.0014459024 -0.0006184585 0.0039371466 0.0005295899 -0.0067735356 -0.000985781 0.0018165079 -0.0015663011 -0.0044359113 0.0042799553
491 -0.0028307089 0.0013020141 -0.0008119096 0.002836693 -0.002956919 -0.0035493746 -0.00013998817 0.0059679807 -0.0032872583 -0.005244594 0.0047064032 -0.00094730384 0.000472904 0.0005361654 -0.0019420881 -0.0017031328 0.0034057992 -0.002679937 -2.1210646e-05 -0.0062198504 -0.000106797255 0.0012828268 0.0019315745 -0.00063616596 0.00031120892 0.00019128181 -0.004350938 0.0035218664 -0.0007680892 -0.0023933712 -0.0018811378 0.0022129312 0.00032839095 -0.004679492 -0.00075603405 0.002646797 0.00061074423 -0.0054504173 -0.001223885 -0.0044899 -0.00216987 0.0052223634 -0.003995895 -0.0039581014 0.0032710133 6.9560054e-05 -0.0041196956 0.0017075443 -0.001476818 0.0023359573 -0.003578561 0.0008731506 -0.0019147779 0.0027219958 0.004014216 -0.002911873 -0.0018004475 -0.0011838266 -0.0019485478 0.005541221 0.0003567983 0.00028550514 0.0022677898 -0.0033272838 -0.0024610509 0.0013500426 0.0021568274 0.004149082 -0.0012633306 0.0014245226 0.0019309485 0.0071349437 -0.0026735896 -0.004442969 0.0002517089 0.0016838309 0.0010085182 -0.0009198208 0.0009929852 -0.005514614 -0.0021118403 0.0016381423 -0.0009466122 0.007125998 -0.0015149586 -0.0022404385 0.005257698 0.0007596809 -0.00092680834 0.004341122 -0.0027631095 -0.00075021584 0.0054887617 0.0022985328 0.005475342 0.00030095017 -0.000597814 -0.001583482 0.0037722604 0.0030095843 0.00039812017 -0.0013216577 -0.000458199 0.0016487342 0.0024560085 -0.0029652405 0.002388143 -0.0013400329 -0.004252279 3.362885e-05 0.00067762524 -0.0038950953 -0.0030329977 0.0015954488 0.0013618008 0.006470496 0.0035375413 0.001975534 -0.002643783 -0.0027966471 -0.0020104847 0.0005694868 0.0010958599 -0.0046124533 -0.0008678806 0.0055179847 -0.00026446691 0.0007186884 -0.00035082112 0.002272206 0.0070776776 -0.0017731539 0.002014959 -0.0040674037 0.0055533564 0.003951664 0.0034668506 0.001955389 0.0013478077 -0.0005138649 0.0061553265 -0.006287759 -0.0062688217 0.0036284442 -0.0014034795 0.003983288 -0.0016825753 0.0010443963 0.0026900424 -0.002288516 0.0035299775 -0.005506032 0.0020960073 0.002969036 -0.0037838635 0.005756011 0.003915606 0.004402769 -0.0023949302 0.00061319786 -0.004817196 0.0023721498 -0.0032577584 0.0015212168 0.0025208949 0.005400313 0.0031897463 -0.0018050633 0.0035099268 0.0039800783 -0.004445918 -0.0043087495 0.0008970761 0.003478744 9.906128e-05 -0.00477767 -0.0018074282 0.0015937182 0.0046323226 -0.00026322185 -0.0051198835 -0.00016320965 0.0010564862 -0.0033807168 -0.0036248858 -0.00091173884 0.0019917656 -0.0011268334 0.0021362943 0.0006555761 -0.00058385637 0.0027623938 -0.00076573907 -0.0019058767 -0.003089764 -0.0014270021 0.0016318532 -0.0041666613 -9.8756944e-05 0.003918181 -0.0007773566 0.003510874 0.00033373997 -0.0025794567 0.0038810808 0.0030448777 0.000271488 0.0006130234 -0.007321187 0.0033433314 -0.0017259375 -0.00428 0.002925657 -0.0028956905 0.005790933 -0.0047513507 0.0009299163 0.002010552 -0.0046249186 -0.0035211463 0.0006192869 -0.0009687865 -0.0037252067 -0.0036994775 -0.0017633644 -0.0029923588 0.004102543 0.0015918895 -0.0041722464 0.0014332486 0.003857371 -0.006736537 -0.003949763 -0.0017183212 -0.005907328 0.0014460243 0.0023292857 0.003298152 0.0019159378 -0.0018087181 -0.0014476492 -0.0021503638 -1.5569387e-05 0.00530188 0.0023520347 0.0015798953 0.0033216393 0.0004099682 -0.004510828 0.0025684969 0.004652102 -0.0040898896 0.0013724009 -0.004828728 -0.004482055 -0.00034874363 -0.0003237808 -0.004063795 -0.005461428 -0.0059214314 -0.0013398209 0.001729865 0.005113196 -0.003096251 -0.00018792207 0.0066922344 0.0053858384 0.00540158 -0.006060268 0.00038855267 0.0015941286 0.0030865571 0.004474112 -0.0012268189 0.00039002637 0.0061199698 9.126267e-05 0.0045995335 -0.001065395 -0.00065162935 -3.3790348e-05 -0.0049526864 -0.0044264058 0.0012042581 0.00033308548 0.0016875751 -0.004963613 -0.0048217103 0.004737013 0.0037151787 -0.00073323154 0.004903096 0.004692721 -0.0028975874 0.0072707827 0.00027112872 0.00033325245 -0.0009594836 0.0046412377 -0.0048686205
462 0.0016840311 -0.00059586094 -2.073246e-06 -0.00082866184 -0.003389046 -0.002009294 0.00024552527 0.0006242705 -0.0024424077 0.0010108796 -0.0017888471 0.0036440836 -0.0007545889 -0.001684143 -0.001362326 0.0029740166 -0.00096073013 -0.0011327812 -0.0038982313 -0.003629268 0.00024971188 0.0034460144 -0.0019073676 -0.00033728094 0.0018458698 0.0008755627 -0.0029243175 0.0028508517 -0.0024440337 0.0013877451 -0.0046817 0.0017522435 -0.0013042717 -0.0019934645 0.00027645988 -0.0022735836 0.00036362506 0.00042945534 0.0025807954 -0.002158494 -0.003305108 -0.0013971947 0.0008754559 0.001442672 0.002267786 0.0009592132 -0.002621115 0.00519768 -0.00084947067 0.002437248 -0.0021397043 0.0010856668 0.0014828709 -0.00024512765 0.00066892157 -0.00057604595 0.0009829424 0.0012977594 -0.0026834588 0.0033616535 -0.0011887013 -0.0025500134 -0.0032095714 -0.00058165885 0.0030220796 0.0028042484 0.0028723825 0.0022536162 -0.00065920246 0.0002382498 0.0031392695 0.0028802857 0.0016621096 0.0004555252 0.000708916 0.0013499236 -0.0017187606 0.001955847 0.0029241997 -0.0040808585 0.0009199235 0.0031870801 0.0018151937 0.0025930717 0.0021639096 -0.0001600935 0.0025071092 0.0012133061 -0.0010938017 0.0012496893 0.004624427 0.0014618679 -0.0026574025 -0.0006084524 -0.00055334263 0.0014851436 -0.0019131646 -0.0039610043 0.00085376325 0.0034414413 -0.00064329273 0.0021833093 0.0015725761 0.003281008 0.0043148473 3.39062e-05 -0.00070223137 0.002485125 -0.0023179532 0.0017566787 -0.0006555695 0.0020106444 -0.0035578273 -0.00041160712 0.0041536205 -0.0007183917 -0.00017612093 0.0020109795 0.0023596026 0.0011293626 -0.0021844094 0.0028490804 -0.003213607 -0.0014228199 0.0032272337 -0.0034742474 -0.0020590646 -0.002606848 0.00034729415 0.0018220956 -0.0015772872 -0.0025841317 0.0028589484 -0.0010449294 0.0011828684 0.00193734 0.0004413572 -0.0012594945 0.005008212 0.0004719174 0.0038063452 -0.0007533679 0.00017008293 0.00041754922 -0.00083273527 0.0033819012 -0.00046816655 0.0030824733 -0.001444311 -0.0008498044 0.0028757094 0.0020847935 -0.0030262452 0.000981489 0.0018905142 0.0006465855 0.0026186542 0.004382724 0.0028183365 -0.00095162675 -0.003000852 0.004021304 -0.0009454934 -0.0047563408 0.00043057933 -0.0016202248 0.0017818396 -0.0016484527 -0.00025913242 -0.001145939 0.002536217 -0.00029658005 0.0022967085 0.0015368508 0.0028248415 -0.0032068614 0.00059693033 -0.0008856498 -0.0027278776 -0.003341698 -0.0010499713 0.0040491344 0.001971324 -0.004210789 0.0016750111 -0.00063231436 -0.0024018737 0.0009771739 0.0028743066 0.00020605259 -1.3710422e-05 0.00035630094 -0.0033631963 -0.00018467847 0.002267408 0.0023437117 0.0014501704 -0.0015005835 -0.0005829641 -0.0028335857 0.0016423038 0.00044019008 -0.0014990021 4.0160943e-05 0.0022997365 0.0018139534 -0.0008551522 0.002981459 0.0006494171 0.0018413635 -0.0010299489 -0.0018049362 -0.0018574442 0.00010079694 0.0017605246 0.0022381018 0.0011649105 0.0005179558 0.00027367432 -0.00093508 -0.00087160117 0.0023875833 0.0017370286 -0.00078404613 3.7878126e-05 0.0008998392 0.004652984 0.004868117 -0.002179585 0.0030301702 0.0033138287 -0.002950427 0.0019159005 3.873901e-05 -0.0036238623 -0.00030530296 0.00235099 -0.003211697 0.002163445 -0.0019145174 -0.004819002 0.0027859702 -0.0016702259 0.002071983 0.0030229122 0.0047752364 0.0021308495 -0.0038540128 0.00032218045 -0.002775597 -0.0008461814 0.002902646 -0.003647272 -0.00028628678 -0.0025334037 -0.0032078035 0.001180308 0.0010222748 0.001946102 0.0014349127 0.0011703295 0.0011284206 -0.0025760485 0.0028734403 -0.002114667 0.0021466867 -0.0005983117 0.0012493123 0.0010729728 0.00071380404 -0.0019585849 -0.0016653533 -0.0039131544 0.0028127923 -0.0019458672 0.00061270664 -0.0007000568 -0.0018326489 -0.0014914259 0.0001551845 0.002134282 0.0003270015 0.0017081351 0.00086778536 0.0025869631 0.0015560363 0.00067420554 -0.0007226218 -0.0013810536 -0.0013639907 0.00041399445 -0.0027267348 0.0027018362 -0.0031338802 0.0028005585 -0.00015437749 0.0014204833 -0.0016565953 0.0028763579 -0.002855252
549 -0.0013219686 0.0029370415 -0.0017762049 -0.0024150307 0.003223879 0.003562536 -0.0010011637 -0.0026886195 0.0010356336 0.00037761088 -0.0020593812 0.0043348228 -0.00014648188 -0.0018980876 0.0002667724 0.0009818937 3.65674e-05 0.0002378062 0.0015695926 -0.0008960672 0.0011967643 -0.0009309226 -0.004093552 -0.0012196596 0.0037373658 -0.0013823613 0.0022158623 -0.0036565128 -0.002278919 0.0006183436 -0.0031819204 0.002145156 -0.0025215116 -0.0012095949 0.0039885393 -7.715367e-06 0.00042286297 0.00047702156 0.002869917 -0.00097652967 -0.00074292475 -0.0016523035 0.002088493 0.001153392 0.001504463 -0.0017436458 0.0012526447 0.0031833637 0.0030458868 -0.0018984828 0.0008555159 0.0027720435 0.0015221838 0.0024028067 0.0012607273 0.000814418 0.0017359043 -0.0004335289 -0.0005665399 -0.0021016155 0.0019308081 0.0011561732 -0.0006870006 -0.0021091667 -0.00053206796 0.0011035656 0.001523433 -0.0021969045 0.0005209971 0.0010670286 -0.0061226925 -0.0030800703 -0.0016589009 0.0011063294 -0.0005389464 0.0031532284 -0.0031851365 -0.00041645873 -0.0010546771 -0.0014223171 0.0027445613 0.0022203205 -0.0024659103 -0.003597775 0.004230248 0.0047069774 -0.002938889 -0.0015434176 0.0019129813 0.0024983995 0.004284646 -0.0004526536 -0.0035027128 0.0016612277 -0.0031854408 0.001848677 -0.0026368757 -0.0018830057 0.0012852179 -0.0051285936 0.0004277923 0.0009605439 -0.0011727242 -0.0028913412 0.00079188176 -0.002121713 0.00018743858 -0.0010009743 -0.00012592349 0.0027414418 0.0031091962 0.0021573936 0.0016116758 -0.005605702 0.0037135326 -0.0040923986 -0.0036801773 -0.00010544162 0.0005301124 0.0054727457 -0.0003542417 0.0019593814 -0.0024740354 0.004258858 0.00024619576 -0.005375723 0.0037545823 -0.003191662 0.0053035514 -0.002518413 -0.0006026157 -0.0010282432 -0.0007111951 0.004238785 -0.0040454487 0.0032919364 0.002720201 -0.0004105656 -0.0003665925 -0.003541042 0.00047501602 0.005078633 0.002040539 -0.0072183614 -0.0023104707 0.0020040849 -0.001702609 0.0027090334 -0.002852633 -0.0029673073 -0.0006619935 0.00033928663 -0.0029845037 -0.000255429 -0.0016144353 -0.0027184086 -0.0009920361 -0.0026712874 0.0009447237 -0.0005402006 0.0021816306 0.0038911144 -0.001448936 -0.0053809015 0.0027865595 -0.00026676912 0.0018411846 -0.0024271316 -0.0032377476 -0.004494835 -0.0016969761 0.001751136 -0.00024430442 0.0021182047 -0.0020774675 0.0024151239 -0.0018671826 0.0029507116 -0.0049473126 -0.0009818943 0.0058912 -0.002347718 -0.0029864847 0.001252692 -0.0002044022 0.0034092327 -0.0020675745 -0.0019665128 0.0015317978 0.0031736689 -0.000511598 0.0014510663 -0.0021998528 -0.00022775364 0.003996262 -0.0003524214 0.0016430016 0.0002879193 -0.0002590798 -0.0046211276 0.0015275548 -0.0071684485 0.0015524062 -0.00029392118 0.0024630765 -0.0032077965 -0.004134204 -0.0004397444 0.0068634516 0.0016017398 0.00057337334 0.0031477734 -0.0040428643 0.0015456978 -0.0047437204 0.00322106 -0.0023231914 -0.0016512049 7.870293e-05 0.005170957 0.0020734733 0.003762218 -0.00020782478 0.0048744064 0.0030283013 0.003161527 -0.0022972014 0.0033391295 0.00019437497 0.0015822122 -0.0040696533 0.005008064 0.003020292 -0.000454061 -0.0024517216 -0.0014375184 -0.0015128976 -0.0039746254 -0.0034559334 0.005000985 -0.0017815082 0.0023337323 -0.00048271185 -0.0024840832 0.0013533357 -0.0020867563 0.00033031142 -0.0026351605 0.004318669 0.0017821746 -0.0047827503 0.00033921358 -0.003764615 0.0028306125 0.007101238 0.0019357107 -0.0009775142 -5.1638424e-05 0.0035354306 0.002215007 -0.0027613 0.00015782552 -0.004831508 -0.0007795468 0.0010543315 -0.003908235 -0.0012680297 -0.0038912469 0.005599195 0.0017800026 -0.003253248 -0.0026863657 -0.0067246887 0.00023683402 0.00019041337 0.000786785 0.0017182919 -0.004073244 -0.000425208 -0.0042271763 0.002789433 0.00054222485 -0.00037569055 0.001177963 -0.0054587447 0.0017987093 -0.0005159987 0.0036511065 -0.004252165 0.00027674454 -0.00071981567 -0.0035582085 -0.0005529335 0.00039480248 -0.0049759187 -0.0024569219 0.00010686221 0.0012385111 -0.0038208396 0.0005076393
381 -0.0048862933 1.9636533e-05 0.0023805164 0.0070604347 -0.0057608914 -0.010719054 0.010661803 0.019146672 0.0020504019 -0.01078665 0.012922295 -0.0016180485 -0.0015404487 0.0071296482 -0.004899533 -0.0070015243 0.0069380035 0.00022408357 -0.0036222246 -0.008421125 0.0064138607 -0.0001969938 0.0074868444 0.0015600866 0.0046490347 -0.0010268034 -0.003985112 0.013132462 -0.00290797 -0.010309578 -0.0046902634 -0.002181696 0.0051792236 -0.0015132191 -0.007446381 0.0034198866 0.00950922 -0.013259305 -0.004962483 -0.0030299895 -0.005471978 0.0041328156 -0.0027673244 -0.008864258 0.0044483184 0.0016172325 -0.0048110792 -3.169394e-05 -0.0011375856 0.009016403 -0.007932414 0.0019129541 -0.009833256 -0.0016201403 0.0033326393 -0.007535435 0.0033352096 -0.0019907663 0.002563008 0.0052541564 -0.0012160391 -0.00040634544 0.005106762 -0.007812958 -0.0045675146 0.0067431927 -0.0028008183 0.0061031478 -0.0063864584 -0.0003676454 0.012020388 0.0099005895 0.0018828097 -0.003513129 0.004659968 -0.0062519168 0.00470144 -0.0020722174 -0.0049521965 -0.00014411779 -0.006094385 -0.00044593928 0.0010109852 0.010459748 -0.004886925 -0.0012465288 0.014736825 -0.0055272933 -3.7071586e-05 0.00086496613 -0.0074514695 -0.0003951434 0.01109059 -0.0012578361 0.013539792 0.0016821711 0.00185867 -0.0070579858 0.0011189331 0.010830732 -0.0077009276 0.0035610485 0.0063794013 0.0044033816 0.00066295924 -0.00489002 -0.001989998 0.0032758815 -0.003992529 -0.004216747 -0.009460144 -0.0057114735 -0.0074597285 0.010606346 0.0044282414 0.009592558 0.0073873745 0.010212122 -0.002897669 -0.0096136555 0.0014356419 -0.0049531027 0.013745594 -0.0047442284 -0.0008284669 0.009854194 -0.007911408 0.0016658229 -0.0048162374 0.010565519 0.009805372 -0.000515873 -0.0023984916 -0.010863054 0.0076500867 -0.0024644334 0.0028003096 0.008765178 0.003355655 0.0042449096 0.008628901 -0.009861998 -0.014952 0.007598248 -0.0018328113 0.0008844195 -0.0035553798 -0.006692382 0.012422434 0.00058027194 0.0013127322 -0.006798824 0.005439209 -0.002171604 -0.0021635587 0.010543087 0.002834036 0.0022271213 0.0015033752 0.0048960038 -0.003989848 0.00029686623 -0.0052733924 0.0029668924 -0.000372173 0.0052894247 0.0045158355 0.0011553377 0.007480221 0.012352766 -0.003242637 -0.006687481 -0.00261055 0.0038571567 1.9218352e-05 -0.0028968162 0.00070796866 0.00034313765 0.007132824 -0.003546439 -0.0119738765 -0.0027322127 0.0030010957 0.00082175666 -0.008286961 -0.005249905 0.0070228796 -0.0031344462 0.002096893 -0.010742342 0.0058515253 -0.0016315586 0.002662201 -0.0038543302 -0.004403184 -0.0031779828 0.0054815267 -0.003114895 -0.006956722 0.010734027 -0.0008087413 0.013885191 -0.0057260343 -0.0024087864 0.006100488 0.004880719 0.005032582 0.006714253 -0.011188755 0.0004531657 -0.0010123461 -0.004373666 0.005637348 -0.005362655 0.012269145 -0.00606451 0.002716729 0.0026483203 -0.009964666 -0.011637723 -0.008329576 -0.004445226 0.00028303883 -0.0097361775 -0.00041983993 -0.0052602235 0.0070159384 -0.006419254 -0.0010258203 0.0040613962 0.008662232 -0.015277199 -0.007588584 -0.0033990885 -0.007824011 0.004548301 0.0033164336 0.011009883 0.005765321 -0.0073695453 0.0036876455 -0.004167209 0.0024131816 0.007981299 0.0014979795 0.0012560472 0.0015278596 -0.00037312263 -0.0063772276 0.0020903018 0.004199439 -0.0014811581 0.00052832917 -0.00031962676 -0.012587096 -0.004055075 0.008338482 -0.0055483896 -0.010636181 -0.01158053 0.0035504126 -0.008015217 0.015339401 -0.000796303 -0.0063991677 0.012659082 0.008083673 0.0022892992 -0.010676658 0.0021831442 0.0028107897 0.005589104 0.010799701 0.0038386413 -0.0028436475 0.009211651 0.0021215042 0.009536381 -0.008936602 0.006536917 0.0032022132 -0.004875331 -0.0027667542 -0.006476531 0.004666412 -0.0037029549 -0.010727289 -0.0012334215 0.008206123 0.005259294 0.0004059374 0.007588965 0.0037721158 -0.0013788547 0.019322377 0.009778006 0.00055252225 0.0021016228 0.0043203444 -0.008870637
