1175 300
143 -0.020723475 0.045967564 0.19223346 0.20043297 -0.15581636 -0.23489673 -0.10659673 0.32568535 -0.11642667 0.04520311 0.033628065 -0.054558992 0.24600641 0.09398347 -0.012956924 0.024658013 0.030748185 -0.07040573 0.16150407 -0.19546747 -0.09460739 0.1351983 0.1935147 0.07983628 0.3521688 0.16331188 -0.15271701 0.16713166 -0.09912197 -0.27332047 0.10892393 0.12979935 0.11464932 0.040793203 0.029484764 0.060781192 0.16976546 -0.104561195 0.11966712 0.20503713 0.026975991 0.20109484 -0.08654419 -0.18076141 -0.024539536 0.04826044 -0.06085947 0.06765703 -0.057209875 0.32371214 -0.23824999 -0.019428834 0.17285937 -0.029031916 0.0556841 0.31572372 0.014703706 -0.21786293 0.0016264188 0.0795607 -0.04292791 0.08064433 -0.22987182 -0.006192136 -0.14056474 0.08597886 -0.19937772 -0.0029146224 0.16785632 0.11257592 -0.12969278 0.343339 -0.067077525 -0.20750022 -0.11582829 0.03831291 -0.2377412 -0.037673865 0.1568213 0.02994908 -0.07761082 0.08689907 0.17744415 0.054829236 -0.013720101 0.06152392 0.24711668 0.0873946 0.08264919 -0.05661586 0.17314006 0.036849033 0.21991614 0.029624442 0.25916746 0.14094679 0.20096748 -0.14286546 -0.19608738 0.04730578 -0.20988077 -0.013624156 0.117532924 -0.0224961 0.32527158 -0.08357422 -0.352036 -0.15031336 -0.0016675758 -0.12561804 -0.06982192 -0.12602545 -0.33061782 0.08248501 0.25269532 0.011090333 -0.08532037 0.13999645 0.14295442 -0.097090974 0.026572637 0.10360072 0.14163218 -0.14301729 0.20003673 0.008772217 0.012725707 0.0035385622 0.006761144 -0.08002158 0.19960916 0.3194999 0.012713759 -0.1880123 0.03317263 0.0055404576 0.1539035 -0.04346119 0.04212494 0.006335847 -0.011796528 -0.105440415 -0.09660471 0.10718213 0.2948257 0.024333479 -0.015715823 -0.09443301 -0.12906979 -0.012585242 0.118518196 -0.26643905 -0.11174154 0.13418634 0.16125502 0.16255233 0.08862286 -0.030259168 0.1660938 0.059832837 -0.09522462 0.2665871 -0.36485434 0.113342226 -0.15773585 -0.020893123 0.13766332 -0.06736303 0.037684433 0.295927 0.103321 -0.08728063 -0.024511958 0.32409585 0.062477086 -0.07794103 -0.4509876 -0.0817287 -0.062016886 0.20189664 -0.43944633 0.23855133 -0.24443549 -0.18981522 0.004050495 -0.016334873 -0.04867339 -0.115199074 -0.07336639 -0.20273493 -0.102439605 -0.0791602 0.0299466 0.07159985 0.14139782 -0.22231624 0.09248772 0.06270246 -0.004784095 -0.009675407 -0.08471422 0.038342554 0.041436654 -0.296073 -0.034930263 -0.26920235 0.2794939 0.15285923 -0.022073017 0.0023993843 0.14639167 -0.13478467 -0.07177573 0.05359886 -0.103331216 -0.09475231 0.05245335 -0.12764482 -0.13252088 0.11547734 -0.07065587 0.15778719 -0.06747483 -0.12533358 0.09421472 -0.17912768 -0.17206147 -0.20075467 -0.11782033 -0.0006259058 0.29564542 0.05128359 -0.014248943 0.05918322 0.12875046 -0.044336833 0.13467254 -0.029571777 -0.08216231 -0.11613936 0.051711656 -0.17176655 -0.26778528 0.33618343 -0.076830715 -0.13006917 -0.029925881 0.060769655 -0.20797315 0.22378944 0.013789719 0.21681082 0.121842995 -0.13509451 -0.10648319 -0.23992851 0.24379162 -0.13999593 -0.33682936 0.046624467 -0.10140667 0.059973523 0.0862043 -0.20951945 -0.29531464 0.1807973 0.18483663 -0.0067959093 -0.014659568 -0.13886923 0.13349135 -0.10110795 -0.2236169 0.06442516 0.0023683126 -0.06446996 -0.06300723 -0.030561956 0.15697874 0.16117352 -0.0054823314 -0.071205385 -0.16351502 0.20129225 0.27863038 -0.105128445 -0.29631764 0.008427673 -0.07379851 0.0036478774 -0.024807325 -0.11003101 0.24267577 -0.11632957 0.094425954 0.2948191 0.14164986 -0.20143996 0.50840515 -0.11887757
120 -0.1915879 0.32958856 0.17724696 0.2244389 0.11727373 -0.060178876 0.095580585 0.33494675 -0.0016766292 -0.10964559 0.034996074 -0.11416571 0.055373043 -0.018507948 -0.026310144 -0.10216015 0.11757892 0.10337834 -0.116366856 0.13597752 -0.17312033 -0.2395615 -0.019074071 0.094041675 0.12954138 -0.10468799 -0.00886741 -0.0796971 -0.23592289 0.03301507 -0.11913343 -0.07360153 0.09779797 0.047905296 0.06668753 -0.15160276 0.17098677 -0.43374988 -0.08928215 0.1713344 -0.091604225 0.10185193 0.034673028 0.114679486 0.045892794 0.016456721 -0.040840812 0.16922313 -0.009901654 0.25545883 0.12600368 -0.005507337 -0.56825984 -0.06557195 0.06287707 0.06379517 0.036071397 0.112740174 -0.022948857 -0.18911141 -0.055617113 0.019774556 0.31756774 0.05848341 0.060140356 -0.15423103 0.021054575 0.36568084 -0.25397864 -0.14484887 -0.061208684 0.06192517 0.091660224 -0.056623954 0.029553523 0.023961289 -0.20678155 0.09498263 -0.1315665 0.20255762 0.08796921 -0.03310441 -0.05774454 0.2838549 -0.06128269 -0.06600091 -0.10106572 -0.081857085 -0.11707702 0.023556398 0.07020632 -0.26036334 0.01525892 -0.016329871 0.10106575 0.071243115 -0.024553772 -0.11760456 -0.43587166 0.047130033 -0.023853648 -0.010361291 0.20542973 0.11678993 -0.09044095 0.10037514 0.01709644 0.28317824 -0.23766103 0.07959293 -0.16759703 0.0068008536 -0.10888724 0.1644919 -0.33795527 0.07484848 -0.0971425 -0.047888868 -0.037455294 -0.0362023 0.16710863 -0.028054897 0.16230251 0.2424438 -0.022693492 0.2539071 -0.047749378 -0.367673 0.14724676 -0.12368446 -0.0353486 -0.024028849 0.1306986 -0.15529265 0.22300282 -0.13133702 -0.039756354 -0.13965099 0.16723767 -0.07814457 0.079679124 -0.119205065 0.096520424 0.073660664 -0.16129781 -0.09372366 -0.060817372 0.1405043 0.20007177 0.054120515 -0.02104786 -0.004239222 0.12708378 -0.1161864 -0.1659503 -0.06395804 -0.22457127 -0.15158111 -0.21715456 0.24109194 0.10171779 -0.111256704 0.06899366 0.06814556 0.027519071 0.051152978 0.1424702 -0.017844949 -0.09603525 0.30963668 -0.19622563 -0.05992201 0.19357142 0.10895749 0.05282644 0.020319566 -0.020914787 0.024602162 0.023907542 -0.188838 0.12599051 -0.033263583 -0.0035574564 0.0010546517 0.100269794 -0.11191715 0.27002594 -0.03974349 0.03385487 0.016749583 0.09654366 0.007981415 -0.056778125 -0.021337066 -0.05874216 -0.3584392 0.065984234 0.12415675 -0.14403786 0.18531191 -0.17657994 0.18535396 -0.023164397 -0.29469573 0.11846939 0.0355022 -0.21048751 -0.14995855 -0.12496319 -0.1928828 0.05330842 -0.0037769182 -0.28619626 -0.09977411 -0.004320517 -0.07233991 0.14765261 -0.26688996 -0.13546483 0.08760023 0.00029097506 0.039417278 0.19296491 0.0799893 -0.077398255 -0.06294965 0.18761651 -0.09133016 -0.078381695 0.10295258 0.124747515 -0.14088973 -0.1475985 0.07880686 -0.00017231992 0.07997801 -0.05365377 0.111442596 0.10234894 -0.10511423 -0.06818287 -0.005571582 0.040254384 0.16714168 0.024576975 -0.14208975 0.11669945 0.22139512 0.02983185 0.08705475 -0.06554259 -0.09021974 0.14980921 0.1656942 -0.13867462 0.014260525 0.27270493 -0.07167961 -0.11317907 0.12582792 0.07033828 0.09528029 0.021506712 -0.174404 0.18700927 0.14680642 -0.023286672 0.023221834 -0.08492395 -0.11879145 0.0017107716 0.008263692 0.055083584 -0.032392748 0.19118232 0.112211145 -0.16302066 -0.02367632 -0.096883304 0.08854448 0.37495455 0.025556933 0.109479256 -0.22196141 0.027527325 -0.041541964 0.14550692 0.047640756 0.0033853373 0.098660156 -0.03283072 0.17424467 0.050063908 0.026517645 0.2612997 0.18384667 0.043911103 -0.2457291 -0.114837036 -0.01588244
21 -0.010603827 0.11350983 -0.06850732 0.033333845 -0.24246767 -0.2130023 0.045668133 0.22499202 0.031291258 0.20731056 -0.06401396 -0.20854571 -0.175878 0.14287649 -0.047633264 0.114275366 -0.09461438 -0.19745065 -0.09128882 -0.066343985 -0.21718511 -0.006037311 0.14819367 -0.10726294 0.34959492 -0.044190053 -0.07066471 0.027158631 0.1354981 -0.10933446 -0.042695977 -0.09158261 -0.11948753 0.020790359 -0.120501496 -0.01245763 0.04302956 -0.03942871 -0.08024866 -0.12744287 0.06799888 -0.27124473 0.0044524 -0.3205488 -0.035420243 0.30989963 0.15895978 -0.034695826 -0.122105084 -0.011564594 0.11417812 0.1159877 -0.0050433017 -0.22734733 -0.21690655 0.113808595 -0.057289936 0.040820416 0.098131515 -0.014108654 0.046194587 0.019665461 -0.0212458 -0.12651172 0.12682617 -0.12043961 -0.057945684 -0.12854755 0.03847101 -0.20607169 -0.0441607 0.14670064 0.063737355 0.045454632 -0.033701938 0.067735665 0.14334556 0.3886716 -0.027497912 0.14544898 0.06209618 -0.18933669 0.1332171 0.040394243 0.11612993 -0.15734783 0.09358935 -0.17796274 -0.15264264 -0.11083411 -0.04893482 -0.23784035 0.053213794 0.064393476 0.0644161 0.011132254 0.25715873 -0.38065708 0.19618806 -0.07046731 0.0322142 -0.025644332 0.2779727 0.06371449 0.2635208 -0.07961088 0.017715476 -0.1577607 -0.09550374 0.086137414 -0.26512223 0.010068975 0.12672397 0.033231094 0.20829894 0.12899154 0.112115495 -0.12927678 0.41596326 -0.076278515 0.16764441 0.076860026 0.25493684 0.19606413 -0.1545371 -0.035059042 0.055517945 0.023298549 -0.17866401 0.2465625 0.18014853 0.19549589 -0.14803132 -0.047165368 0.24328525 0.27264738 -0.2091675 -0.21503115 -0.2415311 -0.1808058 0.36685386 -0.18079199 -0.073273644 0.071949035 -0.20227964 -0.28848293 -0.14425677 -0.1347908 -0.16912241 -0.18033855 -0.00935559 -0.001713885 -0.04574031 -0.28716844 0.04911932 0.3400645 -0.2702684 -0.035549823 0.1427748 0.08829848 0.06313853 0.20140424 -0.2114659 0.08112261 -0.27209595 0.39310592 -0.27774227 -0.14089443 0.08460524 -0.024934767 0.0014501818 -0.08739078 0.13428259 -0.3002408 0.062279433 0.012654529 -0.009670459 -0.044922087 0.09988941 -0.2112032 -0.08335489 0.16466966 -0.006910853 -0.018696459 0.06743537 0.019234031 0.12916742 0.14352116 0.35918942 -0.26022756 -0.22928743 -0.14188896 -0.027974557 0.34055364 0.03631014 -0.25133845 0.015190241 -0.0933827 0.2282824 0.21341962 -0.1163465 0.07996043 0.10158698 -0.0303013 -0.19834557 -0.017620761 0.011709244 -0.0025577494 -0.07647875 -0.049019143 -0.03268238 -0.052742943 -0.087038785 -0.038253136 -0.111944154 -0.10405492 -0.03558569 -0.42642507 -0.12106243 -0.14269823 0.18114233 -0.22626948 -0.037247866 0.1070523 -0.067106985 -0.053456455 -0.14970374 0.09078212 0.18712313 -0.022160573 0.23394649 -0.060751066 0.020794397 -0.013312636 0.06577785 -0.114935845 -0.025424382 0.03785698 0.3723363 -0.34022847 -0.053058438 -0.06518177 -0.02429676 0.13575548 0.09512144 -0.025695393 -0.057890203 -0.12218636 -0.036839575 -0.0073101935 -0.11487149 -0.043157093 0.017993245 -0.11666747 -0.05737471 -0.060463067 0.096284434 0.038191233 -0.013132695 -0.15178329 -0.013668078 -0.17125079 -0.19279511 -0.054640803 0.1160946 -0.09086401 -0.026632551 0.25660726 -0.2186964 -0.006122635 -0.21231039 -0.03324628 0.1309005 0.05861123 0.1366744 -0.28322864 0.38086078 -0.08231489 -0.3372866 0.02624692 0.10411904 -0.14898488 0.17093964 0.039929427 0.14951462 0.015798891 -0.36717087 0.21637347 -0.024650285 0.38460204 -0.0041083284 0.2184367 -0.0017910661 0.020547118 0.3354632 0.25937375 0.0030319667 -0.13662265 0.03361052 0.007819047
409 -0.015509092 0.023589617 0.04621764 0.19129777 0.13941292 -0.25399768 0.074298084 0.28924787 -0.006724883 -0.12644848 0.01949679 -0.20698021 -0.032666743 0.06791686 -0.17110045 0.09111778 -0.1348915 0.01829019 -0.016488582 -0.0490948 -0.010776184 -0.076628864 0.075611934 0.018003982 0.020987144 -0.09341584 -0.25092283 0.07226968 -0.10601352 0.086791575 0.06261753 -0.031281322 0.10602217 -0.10060621 -0.1383012 0.03684269 0.056301955 -0.13093933 0.01273526 -0.1843232 -0.03759286 -0.070358485 0.04426073 -0.13523944 -0.06665729 0.13807526 -0.028292552 0.1051724 0.045710556 0.100898646 0.2438112 -0.007948474 -0.117595166 -0.040102344 0.05787847 -0.02238071 -0.029949736 0.15234329 0.053562116 -0.1366879 -0.013905858 -0.041771792 0.035128206 0.086222485 0.18249276 -0.132534 0.112948835 -0.22445641 -0.16157 -0.030595701 0.02433191 0.24355906 -0.1054663 -0.12198954 0.08890766 0.025265334 -0.057011582 -0.04439023 -0.051315047 -0.0066189542 0.0683773 -0.1964493 -0.14209811 0.17153156 -0.058365345 0.043420207 -0.13285203 -0.06975733 0.028821478 -0.0445973 0.12278341 -0.09205351 0.076981075 0.013188858 0.21211576 -0.19085242 -0.069527924 -0.063546866 -0.009123202 0.120782495 0.02358667 -0.15087321 0.17903851 -0.10359928 0.041684948 -0.093574405 -0.08904258 0.06401425 -0.10420469 -0.057892032 -0.065509126 0.005933884 0.10894367 0.070022665 0.13116695 -0.13580759 -0.17293294 -0.100498125 0.16021512 -0.0877566 -0.043713123 0.07909965 0.1525099 0.24807502 -0.23175082 0.1480395 0.09704367 -0.14987968 0.10586151 0.056011062 -0.011502773 0.027924528 0.1180407 -0.009671442 0.18662171 0.18824908 -0.056677744 -0.2365146 -0.12176334 -0.012010261 0.25150174 -0.16317022 -0.12781203 0.03833315 -0.048565764 -0.11786038 -0.2489232 0.1032168 0.06797887 -0.07597067 0.00991537 0.119644254 -0.12796676 -0.15304852 0.027247706 0.050543223 -0.16168891 -0.1341482 0.13799775 0.099353485 -0.19576497 0.15658458 0.03854493 0.12802896 -0.0975072 0.018484212 -0.102237955 0.05766285 0.123311006 -0.072793655 -0.111405134 0.13421325 -0.08953253 -0.08478931 -0.052844614 0.033458922 0.021522671 -0.12048516 -0.08714781 0.08427101 -0.057818756 0.19387768 0.15079467 0.078358196 -0.052722353 0.056090742 0.0681852 0.090042494 0.28032365 -0.040523138 0.27223158 -0.10456275 -0.018390976 0.089870185 -0.20004287 -0.0064942418 -0.05987353 -0.17078139 0.048899196 0.17049302 0.14224438 0.20476922 0.063096456 0.06473541 0.0022588128 0.079750195 0.10162506 -0.15158267 -0.07931574 -0.04956327 0.06255062 -0.12528557 -0.03333747 -0.032169178 0.18780804 -0.0018760028 0.09115724 -0.24207187 -0.25930408 -0.19518253 0.21632288 -0.16531275 0.12003232 -0.06854197 -0.05250732 -0.08404274 -0.017121956 0.16921338 -0.15821052 -0.005806017 0.08542437 -0.07266998 -0.039421905 0.11367087 0.13760413 0.11870229 0.036202103 0.09345184 0.029655783 -0.11867461 -0.123026356 -0.07495685 -0.11824761 0.15725791 0.10715667 0.12293214 -0.04646071 -0.079743534 -0.08434733 0.15291828 -0.053696707 -0.030465962 0.278747 -0.09773054 -0.072690144 -0.07144104 0.2907949 0.20802112 -0.069107935 -0.19101442 0.26276103 0.17776291 -0.14422348 -0.12067735 -0.13117708 -9.790416e-05 0.16896254 0.11262725 0.068439454 0.00027531368 -0.1790224 0.20047759 0.044482775 0.062957734 0.11421138 -0.039132807 0.06808376 -0.22020668 -0.16588654 0.027090503 0.17969254 0.112917766 0.08819885 -0.0068955603 -0.09113281 0.14054142 -0.12208461 -0.045899365 0.20701323 0.4025157 0.10866037 0.10139583 0.22122003 0.29072836 0.27064008 0.07623342 -0.055237625 0.016065154 -0.11092175 0.08454619
180 -0.07073472 -0.011266992 -0.04166502 0.06388641 0.025404174 -0.059582707 0.11488878 0.13837938 0.026189512 -0.0830249 -0.04360671 0.09630282 -0.024617286 -0.08213009 -0.2318489 0.12466641 -0.03304877 -0.08662325 0.13207564 0.17315648 -0.0658442 0.14303601 -0.032465283 -0.12257684 -0.0040839436 0.1234371 -0.21374363 0.03561248 -0.03324335 0.15024617 0.044669896 -0.037359916 0.28503948 -0.11843237 -0.11625422 -0.03388596 -0.0049978457 -0.35059857 0.18225743 -0.14511889 0.12095667 0.16359857 0.115690544 -0.078979775 0.015531367 -0.04523658 0.095299825 0.21113838 -0.217587 0.06624628 0.16395287 -0.167242 -0.13550101 0.13555144 0.23156427 0.10951831 -0.19470197 -0.08346982 0.186343 -0.07664503 -0.0041206433 -0.25000298 -0.13144794 -0.07511927 -0.029448794 -0.07918606 0.19214319 -0.16300829 0.067067444 0.06552803 0.1697256 0.1737146 0.23356725 -0.1947498 -0.10085054 -0.013561867 -0.23300484 -0.24064954 -0.11235443 0.23158336 -0.08153162 -0.05323443 0.04807789 0.2840995 0.12919551 -0.17495938 -0.08002085 -0.031816114 0.10711723 0.22232501 0.044642895 -0.28365368 0.075443245 0.018449178 0.17228368 -0.04401222 0.16136135 0.035133645 -0.03481744 -0.13360709 0.083658434 0.1234723 0.0039295554 -0.07177665 -0.14012602 -0.19705127 -0.0935598 0.11420522 -0.025757434 0.1694316 -0.21983375 -0.12339212 0.09698135 0.2054683 0.29488695 -0.108185254 0.02914949 -0.17062213 0.0002336906 -0.08601551 -0.06565391 -0.06686131 0.004277233 -0.18137047 -0.066296905 0.064058274 0.085500956 -0.22296612 0.024771247 0.084308796 0.17425865 0.01874012 0.13025361 -0.04523193 0.12355301 0.007901524 -0.028474113 -0.11473957 -0.1360952 0.12091921 0.047167715 -0.21789166 0.023141583 0.19817814 -0.12973787 -0.11619552 -0.16238183 -0.13279273 0.24924065 -0.035719335 -0.14217508 0.012251476 -0.23128256 -0.0039171204 -0.12469221 -0.04692978 -0.04450559 -0.07111869 -0.15296347 0.14983258 0.22611864 0.046507947 -0.15562181 0.07701615 0.06988509 0.11366768 0.043816064 -0.12412071 0.108758025 0.017243268 -0.22354428 -0.1609198 0.038379878 0.014568756 -0.025610596 0.19326688 -0.001866392 0.19574991 0.09672392 0.027180308 -0.08404932 -0.16692863 -0.06957705 0.089189686 -0.118274905 0.2249025 0.09263447 0.165369 0.2325552 0.016614659 0.053473182 -0.006238691 -0.13983361 -0.022196457 -0.05875406 -0.23137917 0.05296858 -0.31676623 0.025048222 0.20785047 0.06818466 0.21279638 -0.088746 -0.24229264 0.085019164 -0.017656118 0.022455795 0.03776527 0.15776822 -0.21384397 0.17780301 -0.16509962 0.15524597 -0.08448053 0.03634901 0.054067057 -0.035780385 -0.03947288 -0.25622886 -0.14558442 0.20956583 -0.1944728 0.062235672 -0.3952883 -0.13429455 -0.074684724 0.124902725 0.18330643 0.025222283 -0.05096057 0.026756266 -0.031058758 -0.17861067 0.040102754 0.065338165 -0.073345356 -0.15234338 -0.048187483 0.021659968 0.04183716 0.015857575 0.116460055 -0.12119289 0.08596686 0.034183096 -0.10505812 0.1276478 0.101634234 0.09059662 0.192564 0.08725243 0.1039261 0.3529747 -0.15259181 -0.025028702 -0.16731636 0.099960186 0.13767497 -0.16780694 0.04327774 0.044854034 0.060119923 -0.057031997 -0.06679065 -0.0003985242 -0.014818493 0.19074464 0.116847344 -0.023991497 0.17376237 -0.3460122 -0.09489408 -0.06621732 -0.11722539 0.0495287 0.029671557 0.16008633 -0.068788 -0.15088148 0.038488187 0.20310718 0.17744428 -0.09719551 0.14311439 -0.1669398 -0.103001 0.0039127492 0.14392248 -0.13132337 0.03766802 0.1851588 -0.028924122 0.082182914 -0.0053908485 0.09439566 -0.02975904 -0.1346053 -0.05756163 0.036035653 0.03567886
144 -0.068077974 0.10228402 0.09317128 0.18070056 0.08711896 -0.051978253 -0.09447158 0.1294609 -0.016597763 0.11130276 -0.30744192 -0.48282808 0.16196004 0.06200271 -0.008037315 -0.12542322 0.027207594 -0.024069978 -0.08616423 0.12666939 -0.14532167 0.050309617 -0.06824071 -0.111891985 0.16536473 0.06386834 -0.2096558 0.11719018 0.03477077 -0.28457785 -0.043633606 -0.15257573 0.10958507 0.24283598 -0.2709224 0.18353869 0.105907984 -0.09225875 -0.14950466 -0.1351831 0.020023825 -0.12234367 -0.08200698 -0.18308996 0.08063529 0.08354182 0.105418056 -0.103651196 0.088448234 0.03427547 0.2575152 -0.08791607 0.025964953 -0.022563284 -0.044459898 0.30326104 0.45281956 -0.020558584 0.35052195 -0.10904164 0.052854683 0.10972435 -0.16501004 -0.102263294 -0.18345572 -0.04284584 -0.19467424 0.05322234 0.1223521 0.10217345 0.1336278 0.3939814 0.19508737 0.043109708 -0.05199584 -0.03621836 0.09368146 0.0055777887 -0.08009968 0.19686675 0.0041983393 -0.017037764 -0.010872057 0.14754774 -0.18332331 0.051926687 -0.06781587 0.04127165 0.16763768 0.0028564062 -0.043385338 -0.07824598 0.16323581 -0.14085051 -0.0517344 0.13862324 0.18927707 0.193314 0.16795193 -0.12430784 -0.118194595 -0.13160008 -0.03706795 0.17260526 0.16027535 0.109404035 -0.092522524 -0.099972874 0.0052141645 0.12769754 -0.0813301 -0.17720087 0.15997887 0.10030148 0.30856362 0.19053714 -0.1447987 -0.14716385 0.2163905 -0.3547914 0.17898987 0.10928959 0.006154414 0.15064217 -0.17525843 -0.021310152 0.18231645 0.14028311 0.03735766 0.077611566 0.10534589 0.10335764 0.120235145 -0.009471905 0.308847 0.25589108 0.0067005814 0.020877218 -0.18193546 -0.17668405 0.0057508782 -0.094951674 -0.17795454 -0.059175294 0.3738983 -0.019152805 -0.36954257 0.00585279 -0.12917441 -0.12419772 -0.09172877 -0.03698851 -0.21139342 -0.024070127 -0.25654003 0.22465838 -0.13133608 -0.1714982 -0.029697975 0.0019977347 0.24733305 0.06436539 0.081276596 0.18460737 -0.16149183 0.0007309574 -0.18878219 0.11062018 0.2494908 -0.04800474 -0.072979786 0.086745776 -0.11085387 -0.16168058 0.18717624 0.00026392785 0.15634523 -0.16151561 0.09771663 0.14951278 -0.1145176 -0.095614634 -0.09017441 -0.016742915 -0.2747243 0.31060094 -0.04619914 0.0050273994 -0.17607021 -0.22040914 0.20421934 -0.2210989 0.0221919 0.081789106 -0.07164825 -0.050139893 0.038296912 -0.124534905 0.06269776 0.25157017 0.0123759825 0.19422941 0.23092814 -0.13556808 0.05666298 -0.18500374 0.09525131 -0.06337049 0.008253699 -0.11867375 -0.0031777343 -0.23486614 0.13679114 0.015098345 0.20914614 -0.07211111 0.105330795 -0.15830486 -0.012968764 -0.0689229 0.1886857 -0.26061606 -0.28536248 0.022130383 0.0047170534 -0.17821492 -0.1569733 0.15448275 0.028740432 -0.059247117 -0.05050442 0.07751256 0.032003798 -0.25297418 0.15052815 0.087130286 0.10918107 -0.0002529914 -0.06847251 -0.05308647 0.15006416 -0.22128025 -0.069501035 0.13673685 0.16586338 -0.28200188 -0.05674767 -0.08313323 -0.07299069 0.010361321 0.12733558 0.09627108 0.2986801 0.09713811 -0.023825334 -0.07721384 0.2618793 0.099212006 -0.28455544 -0.053031657 -0.030179959 0.033084556 -0.24831083 0.054521248 0.050649334 0.054593 -0.0414256 0.062194567 -0.12295552 -0.16621773 0.013454421 -0.012755584 0.024184933 0.17519893 -0.004411139 -0.12538685 0.25509074 -0.05522688 0.1379493 0.17432524 -0.17286216 -0.04287992 0.11371165 0.12030081 0.011552418 0.09977784 0.055492956 0.24095999 -0.028354734 0.06487154 -0.069834955 0.09701345 0.17488894 -0.21855976 0.31492856 0.3055836 -0.19653569 0.020287806 0.19941264 0.03937394
372 -0.048550393 -0.23116387 0.018497696 -0.050712977 0.18223432 -0.11495388 -0.08610798 0.26260045 -0.14077577 0.16028553 -0.047099557 -0.12172174 0.07176479 0.21383859 -0.067181304 0.026569547 0.037344247 0.17649911 0.073744506 0.032106135 0.07537052 0.017102111 0.0488782 -0.09831283 0.19105124 0.18746313 -0.21735035 0.073073134 -0.15474361 -0.13987704 0.08926216 -0.058058932 0.022295693 0.02706383 0.022432214 -0.10023633 0.099921346 -0.2646314 0.32858992 0.15485877 -0.16781972 -0.0040334817 0.0014294948 -0.11099438 0.18015546 0.07468024 -0.013479163 0.12531322 0.026498822 0.21484599 -0.029826403 0.12593772 -0.1807467 0.0036862388 -0.06993073 0.36037946 0.036263984 -0.07038667 0.19021235 0.25483993 -0.044140704 0.12506525 -0.03440594 0.18365715 0.2919312 0.09990917 0.09004114 -0.04309816 -0.044835154 -0.03358935 0.11630278 0.30681464 0.19865564 0.12978828 0.09041284 0.03923928 -0.24773283 0.02353305 -0.2874246 0.06567499 -0.025824623 -0.13840964 0.03713074 0.20387961 -0.024876228 0.03310982 -0.046064544 -0.103516005 0.11064616 0.03899088 -0.046457503 -0.021232996 0.15500724 -0.003983324 0.045342814 0.10170436 0.19093946 -0.11453737 -0.08525894 -0.118777275 0.117936626 -0.10931717 0.08480607 -0.03817467 -0.07200665 -0.13912357 -0.02974096 -0.16395384 -0.23050895 0.1006315 -0.032105763 -0.04097601 -0.32736826 -0.045249052 -0.08662163 0.16511348 -0.026801359 -0.13372704 -0.081094794 -0.17080696 -0.038006343 0.13968074 0.17358664 -0.06690237 -0.17494261 0.0099807875 -0.015200271 -0.28332156 0.02691009 -0.040963296 0.072324194 0.15026341 0.092146456 0.021231767 -0.03113329 0.2003061 0.05820783 -0.12762487 0.05023622 -0.050624013 0.15935822 -0.25588283 -0.13814308 0.13875116 0.1317224 0.09980934 -0.16754542 0.092566565 0.069802955 -0.048987027 -0.085331455 -0.13787317 -0.08001812 -0.14047794 -0.18291682 -0.06829528 0.0041168137 -0.098883934 -0.12272458 0.07693502 -0.07741452 0.025938991 -0.033144783 0.03852297 -0.1564218 0.16339538 -0.05198828 0.11504584 -0.08866 0.105509154 -0.09597197 -0.005625946 0.06147075 -0.023487167 -0.15678526 -0.00048422383 0.13502525 -0.10338189 0.016119126 0.10815235 0.047982752 -0.06742032 -0.22686289 0.025178187 0.0016755158 -0.00116353 0.017829081 0.13443999 0.033136945 -0.12853217 0.01389591 0.03259748 -0.082718685 0.0075768554 -0.13093203 -0.14502917 0.0068341726 -0.099249594 0.10458177 0.111368544 0.13624275 0.13835488 0.014278597 -0.09042854 0.09387847 -0.12569414 0.021811634 0.061198477 -0.27567223 -0.08759202 -0.0024818324 -0.16993749 -0.070708536 0.13822818 0.046064775 -0.14236866 0.06683369 -0.08261478 -0.21532656 -0.05370366 -0.023075618 -0.017565534 -0.02166025 0.09302891 -0.09668381 -0.15715742 0.081599824 0.03230054 -0.13667487 0.13292633 0.13706285 -0.14977348 -0.16452235 0.15699261 -0.04124628 0.06459126 0.12069962 -0.009875037 0.03715026 -0.0934153 -0.053393785 0.04133975 -0.17003532 -0.13398986 9.6989505e-05 0.0011920097 -0.04111512 0.11922961 -0.123031065 0.11466518 0.09910982 0.040926322 0.32029548 -0.17551097 -0.06058876 0.14710714 0.19430685 0.0035895715 -0.11702781 -0.107693784 0.106456816 0.22580355 -0.14917715 -0.22520554 -0.25833118 0.13882585 0.039172098 -0.0056455084 0.08069719 -0.11035724 0.17121314 0.03188542 -0.0704166 -0.18373552 -0.13528034 0.11696483 0.11075072 0.05548449 -0.05773365 -0.01133534 0.18039778 0.13651486 0.12229089 -0.034952633 0.02425508 0.05402676 0.02056853 -0.1722857 0.1226188 0.32891494 0.08059177 0.11777865 0.07297964 0.23545048 0.2986776 0.022549532 0.11552215 -0.022548556 0.097402245 0.14053565
77 -0.21521239 0.14762995 0.23895806 0.37778366 -0.053286556 -0.30017635 -0.123396836 -0.014449508 0.08492003 -0.16138332 -0.22705184 0.11646169 0.17382748 0.20425647 0.03719631 -0.057951096 -0.046254236 0.018972956 0.016153818 0.13988394 -0.20671631 -0.011512614 0.11582064 0.07205934 0.0065978244 -0.11245061 -0.03324315 -0.10064817 -0.03595351 0.19206718 0.1493265 -0.13597459 0.10570922 0.27147642 -0.09599485 0.022149567 -0.13460179 -0.1332233 -0.21688285 -0.053983334 -0.09762407 -0.11727153 0.079936646 0.03345355 -0.2739146 -0.111978956 0.17145677 0.124023125 -0.016349195 0.084995896 0.4817418 -0.08387957 -0.22022405 0.041900963 0.0479422 -0.03507426 0.1592872 0.07599987 0.0059913737 -0.22893718 0.028460337 0.367091 0.10091634 0.2482124 0.0502454 -0.10244108 -0.19990383 0.08370144 -0.059800204 0.054942787 0.22462331 0.052077875 -0.14109917 -0.057885922 0.14503643 0.08477134 -0.10870104 0.13221803 -0.052189384 0.2731289 -0.022199567 0.06651264 -0.13578306 0.1680981 -0.0069330535 -0.07373785 0.14332874 0.117014155 -0.06117635 0.122965135 0.3099572 -0.121935874 0.17253554 -0.13634652 -0.052371312 -0.06871173 -0.0020205237 -0.0017429867 -0.35643467 0.16932413 0.07497705 0.114900894 0.10257728 0.041348636 -0.0704997 0.08568945 0.07734989 0.22480261 -0.106314436 0.10159161 -0.21871847 -0.16901888 0.36576238 0.07516168 0.0078529585 0.028485678 -0.23359534 -0.20564835 0.2030435 -0.12903143 0.14166404 0.19778955 0.08180128 0.16338769 -0.17968217 0.1195372 0.11405617 0.09789263 0.098763175 0.15946886 -0.17276143 0.06676957 -0.03537924 0.12504427 0.33442268 0.15299651 0.04569207 -0.076244414 -0.052827116 -0.17588158 0.32215428 -0.037825786 -0.20621137 0.016797422 0.145281 -0.1111283 -0.31039274 -0.024296122 0.15329204 -0.16307884 0.111202985 -0.25076193 -0.21026348 0.04897042 -0.11097986 0.08890048 -0.22757228 -0.03983761 0.1775172 -0.045703504 0.009168959 -0.08735203 -0.0697522 0.24377038 0.2340227 -0.05779048 0.010171174 0.056949355 -0.013536718 0.05832387 -0.12103837 0.09337081 0.013220146 -0.1761737 -0.21607795 0.21682963 0.2172199 -0.014364845 -0.07314841 -0.044071246 -0.12936258 0.06920256 0.07311293 -0.09417406 0.07791214 0.21290953 0.033648692 -0.052998114 0.2317144 0.07742031 0.14557227 0.009910987 -0.10401276 -0.12262305 0.058441367 -0.2308083 -0.20006035 -0.1885064 0.11677641 0.009076551 0.11458955 0.2259438 0.18010627 -0.06765021 -0.030457582 0.098482646 -0.09332398 -0.08469015 0.31801042 0.06626452 0.14342791 -0.12644777 -0.30094227 -0.18663731 0.14083436 0.024941832 0.02093183 -0.1332288 -0.07878393 -0.04340683 0.19685979 0.15655789 0.05177201 0.11536362 -0.07524195 -0.033209924 0.028358657 -0.08089319 -0.0677016 -0.060373213 0.22120745 0.021682257 0.014523326 -0.077848084 0.13415007 0.15343437 -0.081971265 0.29339617 -0.2782282 0.04416443 -0.038050488 -0.18759704 -0.08084118 -0.1254529 -0.01273108 -0.26495403 -0.05855176 0.26451033 -0.14694415 -0.009351208 0.045828395 -0.027342634 0.12969838 0.02114157 0.011006946 0.26208338 0.26824266 0.20210318 -0.044774655 -0.1421635 0.05007472 0.16986929 -0.09005496 0.20028628 -0.030707896 -0.11367263 0.026552588 0.030667461 0.0010631955 -0.04025327 -0.010556379 0.0077718743 -0.11721422 -0.046228424 0.27470678 -0.08215206 0.33633572 -0.042788375 0.11101944 -0.061967935 0.1762152 -0.038032643 0.11146934 0.17590784 -0.16565438 0.09340642 0.018337652 0.3188963 0.01781308 0.39523655 -0.31409362 0.11180866 0.066170044 -0.11728397 0.14972489 0.33061144 0.053163093 -0.24413729 -0.09746006 0.118577525
53 -0.039538357 0.07034788 0.11882151 0.058451127 -0.078712344 -0.20662203 0.039844234 0.46017858 0.01600219 -0.15539272 -0.13458334 0.05485968 -0.03973838 0.14991254 -0.16575134 0.10387619 0.12752159 0.026129182 -0.07755473 -0.14676806 -0.24968013 0.15575603 -0.21525463 -0.05352187 0.07862043 0.103283785 -0.16669758 -0.057921194 -0.16259402 -0.16176976 0.16779655 0.06213663 0.28108394 0.2879028 -0.016301999 -0.20433171 0.16473699 -0.5336665 -0.06701823 -0.07668731 0.022234587 0.10796645 0.13150848 -0.3562764 0.17681098 0.10381677 0.1443522 0.21831273 -0.10477435 0.18938647 -0.049080066 0.09395494 -0.19970264 -0.076079495 -0.053677585 0.29224023 -0.019053545 0.020928256 0.105554186 -0.2243296 0.0050430153 -0.19070344 -0.022732677 -0.061105557 -0.14669715 0.09240849 0.016717372 0.14223215 0.054399744 -0.110218406 -0.021712897 0.10988893 0.09052292 -0.14615786 -0.09880461 0.034944706 0.15389583 0.20287092 0.03939219 0.33348775 0.258739 0.27932975 0.041280948 0.21158952 -0.08956717 -0.037057243 0.10514848 -0.04354694 0.33130535 -0.04456518 -0.09131792 -0.4442275 0.14320457 -0.1158997 0.24411868 -0.11090863 0.22830191 -0.31809282 0.12931758 -0.13763556 -0.11673496 -0.042770185 0.273109 -0.12674652 0.04913698 0.0027477532 -0.09537449 0.20263326 -0.041624337 0.1170843 -0.1740381 -0.017439434 0.0015928134 0.12313323 -0.095813036 0.25982448 -0.102393925 -0.02179271 0.11828343 -0.15553068 -0.16945699 -0.019007675 -0.067823544 -0.0736435 0.13626172 0.23476508 -0.044665214 -0.34225664 0.18285339 0.13204329 -0.09135678 0.15320088 -0.22318949 -0.09584094 -0.03855537 0.13115855 0.09914905 0.07284394 0.007832209 -0.3052697 0.12227427 -0.29124668 0.08820152 -0.21210623 -0.18105641 -0.21734591 -0.2931388 0.0515271 0.14271565 0.091639064 -0.23190208 -0.0041644694 -0.17984481 0.123732485 0.019822454 0.032269325 -0.31651953 0.120039046 0.098442905 0.20733404 0.21718432 0.2744982 -0.11931958 0.22501959 -0.04814669 0.023249373 -0.13410282 -0.17376257 0.034576964 0.15852821 0.061091933 -0.1132387 0.076788895 -0.1192632 -0.17556486 0.035352614 -0.010885384 0.12563434 0.20536034 0.03750436 0.026865868 0.13878801 -0.119641185 0.0020895547 -0.19239011 0.34241906 0.23693545 -0.16616283 0.085716575 -0.07568351 -0.06117119 -0.11821474 -0.112427086 -0.025263246 0.14631511 -0.33486444 -0.22778209 -0.023104614 -0.03462284 0.29026935 -0.018045971 0.18150999 -0.08736771 -0.22536857 -0.13230199 0.16950694 0.012775818 0.039658222 -0.10387367 -0.2389345 0.055849295 0.12548521 -0.14519756 -0.06140541 -0.040435318 0.0059540183 0.23738207 -0.104609 -0.15675305 0.23982488 -0.0014990056 -0.12334022 0.27458996 -0.04413139 0.065542385 -0.028116897 -0.04849912 0.12657738 -0.12868127 -0.05330429 0.20478974 0.17665237 0.0127027 0.26474723 0.16177037 0.101818785 -0.04800324 0.12076972 0.08219486 -0.10670956 -0.0659481 0.06765995 -0.20337257 -0.15785542 -0.02864297 -0.07088342 0.12550692 0.051695373 0.084859766 -0.17640753 0.17633493 0.12291412 0.025588896 -0.09761898 -0.17544329 -0.24869306 0.111448996 -0.026318334 -0.18454176 -0.1789386 0.09328066 0.09750982 0.06722541 -0.048911955 -0.26445833 -0.22763067 0.24092963 -0.30488214 -0.38465145 -0.09841722 -0.121361844 0.020225115 -0.14757101 0.053142913 0.19502865 -0.11735974 0.27813852 -0.2120505 0.15134312 0.022228876 0.14336732 -0.023341449 0.066136286 -0.070848376 0.03008838 -0.0728445 -0.09522041 0.0025574914 0.018917574 0.21546458 0.25275066 -0.12853718 0.19100505 -0.0747919 0.123849146 -0.009901705 0.031513594 -0.19186656 0.12617025 -0.13218436
427 -0.08225996 0.074639164 -0.043143034 0.10299736 0.12520534 -0.072262764 0.05083392 -0.039910126 -0.10079548 -0.039088853 -0.016741132 -0.26764095 0.074576184 -0.0039772694 -0.010799697 -0.29175255 0.05301716 -0.18281251 -0.14235348 0.1587945 -0.28877166 -0.1032164 0.2146288 -0.10173264 0.13081264 -0.09382775 0.21734577 0.021291733 -0.070200436 -0.13559704 -0.23428835 -0.113439426 -0.034504432 0.08298214 -0.12610936 -0.031910323 -0.09465688 -0.18838534 0.019037282 -0.21690463 0.2032729 0.15501139 0.01773153 -0.155407 0.096840784 0.18517843 -0.19528785 0.047082115 0.029174741 0.11891374 0.102322176 -0.15299796 -0.14204367 0.07677365 -0.0032187263 0.047626946 0.12702961 -0.0113117965 0.29019776 -0.19371112 -0.037109856 0.13279834 -0.09607878 0.009468725 0.24425058 -0.053920876 -0.12695706 -0.027555175 -0.04422329 -0.22302064 0.07474896 0.21853693 0.09840284 0.16323139 0.14111146 -0.32860804 -0.2822645 -0.20414229 -0.20222902 0.02614784 -0.21812166 0.061690055 0.13403656 0.27688333 0.25407258 0.05191517 -0.18064016 -0.14878201 0.0708339 0.23290144 0.041562248 -0.18855225 0.06137474 -0.008062858 -0.007144343 0.20560788 0.21076481 0.10915178 -0.028665872 0.18729126 0.05619042 -0.0760489 0.10746804 0.017485028 -0.17412762 0.20776592 0.023085617 -0.029695736 -0.060977377 0.14328495 -0.21522737 -0.2561076 -0.056412928 0.10856199 0.0362053 0.064495936 -0.05466324 -0.09679713 -0.0024996693 0.038642336 0.19989645 -0.33299342 0.15033181 -0.015619203 -0.18039879 -0.18514733 0.1831741 -0.033624742 -0.04784241 -0.3337988 0.22685473 0.11780601 0.07129009 -0.13701199 0.060661726 -0.048531275 -0.09044563 0.035604887 0.08481461 -0.038378805 -0.14145415 0.04414777 0.02213964 0.19980615 0.067491785 0.21448933 -0.17543837 0.06291451 -0.07971685 0.112242796 -0.05159996 -0.083138764 -0.020831242 -0.33318326 -0.03489766 0.09515921 -0.22392537 -0.3635814 -0.075990446 0.16307807 0.07977498 -0.11219339 0.11566059 -0.042292602 -0.23090212 -0.07391779 0.04881295 0.15827042 0.12971653 0.12570907 0.10073384 -0.14702177 0.14704446 -0.0972558 -0.10949632 0.014654478 0.27733567 0.13656637 0.013825503 -0.013598683 -0.19710724 0.034156453 0.012496248 -0.06622658 -0.17633823 -0.12633005 0.14401907 0.33630452 0.13835378 -0.0422506 0.2741295 -0.024362994 -0.12746894 0.020368576 -0.11679644 0.22767565 0.092296325 0.071240604 0.14564115 0.14933224 -0.050383333 0.10519111 0.13546601 -0.08442038 0.27805087 -0.03796181 -0.08312764 -0.029309215 -0.11177399 0.25718036 -0.18013263 -0.17888401 0.034743965 -0.114501275 0.1270188 -0.113059245 0.004259564 -0.2294901 -0.18479434 0.065621704 0.25766656 0.00066613493 0.022443807 -0.14841227 -0.18686357 -0.20383562 -0.11989385 -0.06466597 -0.28253698 0.044644408 0.23186079 0.1414439 -0.06364492 -0.13869463 -0.1276465 0.10126567 -0.058513008 0.07750547 0.23482028 -0.06887254 0.03456249 -0.2195257 -0.0362649 -0.004569923 -0.04623853 -0.007253864 -0.09041765 0.044433597 -0.089122884 0.13429889 -0.007840618 0.1800777 0.21961926 0.13728619 0.031712495 -0.3053726 0.08958122 -0.10893363 -0.051861644 0.041126143 0.13532415 0.0994796 -0.19256504 -0.13146456 -0.23590815 0.03873897 -0.044556104 -0.007556592 -0.054535527 -0.07020493 -0.16592038 0.130694 0.02812442 -0.060626317 0.2760075 -0.19392169 0.03725514 -0.11406762 -0.08823592 -0.026666284 -0.059265397 0.11192102 -0.1709109 0.17725484 -0.13620794 0.15348734 0.0061121187 -0.030731728 0.049723215 0.15290774 0.12025204 0.24032593 0.2261359 0.08060022 -0.012930921 0.19326311 -0.10885757 -0.18577084 -0.11039679 0.031600382
100 0.10998171 0.37762025 -0.0025664116 -0.021361843 0.3221045 0.0059431503 0.20636502 0.22375388 0.29897574 -0.21665432 0.08726999 -0.23011689 0.1973962 0.15098228 -0.33004382 -0.2474761 -0.2130337 -0.24813625 0.3241931 0.04238577 0.20257 0.1328458 -0.017712522 0.12578857 0.23972756 0.13613334 0.042479973 -0.2206834 -0.101807795 -0.08711547 0.17015655 0.12325244 -0.10036311 -0.21331288 -0.13382865 0.011292756 0.10527681 -0.009646014 0.053628925 0.023157142 -0.1618717 -0.18435842 0.05623924 0.006309337 -0.08811884 0.19962624 0.12963982 0.08472858 -0.12242643 0.082247846 -0.069548175 0.07369002 -0.010423337 0.14897232 0.09927638 0.14562567 -0.067637 -0.29804105 -0.081575215 0.07930206 0.015611224 -0.17645694 0.016772198 -0.120853126 -0.054805446 -0.0077666435 0.150476 0.05395766 -0.035724927 -0.0022414569 0.0031715003 0.096134745 0.054116122 -0.14795798 -0.24267085 0.1286302 -0.17165066 -0.14777227 -0.049065884 0.20076436 0.024497539 -0.051743478 -0.2342994 -0.109054856 0.14199309 -0.18223424 -0.14252502 0.13030002 0.0302002 -0.0992409 -0.03094807 -0.122136906 0.15357766 0.122606255 0.20357758 -0.0075712376 -0.091667406 0.008047836 -0.36789268 0.09719412 -0.10078584 0.028567009 0.10711652 -0.13500696 0.24013534 -0.047767527 -0.076618694 0.058511537 -0.011109333 0.07627536 -0.059595335 -0.18382469 0.21666896 0.4161264 0.26226866 -0.13123497 -0.14933327 -0.16562127 0.39370912 0.13336839 -0.04244179 0.080591455 0.07729387 -0.07835751 0.009374346 0.23778246 0.060753223 0.17249 -0.18099579 0.17522977 -0.017822932 0.012392045 -0.112897985 0.036810786 0.04305943 0.009716218 0.27853602 0.008565849 -0.008872609 -0.18401484 0.121421166 -0.36585873 0.14313388 0.16659021 0.21050663 -0.18385917 -0.10681201 0.24588603 -0.04612657 -0.20827217 0.009525817 -0.16495034 -0.25715548 -0.12748131 -0.029888159 -0.027918216 -0.027771287 -0.17367147 -0.020382803 0.17213109 0.031052798 0.30760777 -0.19339354 0.24925005 0.058266986 0.03668378 0.26835555 -0.27123976 0.09898639 0.24773014 0.13991432 0.31425592 -0.17352647 -0.19906405 0.07199903 -0.0051983823 0.059895884 0.008241786 -0.1069795 -0.004204338 -0.15690818 -0.029677892 -0.03220465 -0.022478355 0.08683348 0.31074402 -0.08194375 -0.012862503 0.08310943 0.009765611 -0.0955046 -0.060660046 -0.25498855 -0.18385936 0.20126005 0.067095526 -0.09708993 -0.113476016 0.12112486 -0.16064546 0.07288793 0.012497259 -0.12626593 -0.17280523 -0.2807569 -0.030507844 0.0049726027 0.031144593 0.12020927 0.012399184 0.39780784 -0.07119936 -0.041507848 -0.04661663 -0.15417425 -0.0432877 -0.0010260678 -0.1638718 0.0071496964 -0.3294533 0.09958932 0.14606409 0.07120732 -0.18824218 0.060577326 -0.1866834 0.19418067 0.22581251 -0.19530797 -0.07802667 -0.04441103 -0.063624755 -0.1700715 0.27483547 -0.02978976 -0.21846257 0.059029058 -0.084802896 0.094042614 -0.12523562 0.027724365 0.04198948 -0.127311 -0.09833193 0.37689328 -0.0635278 0.018430045 0.14605527 -0.1482509 0.31400833 -0.063138865 -0.14467655 0.11830785 0.032438505 0.14381255 -0.17346808 0.07153448 0.16324645 -0.17171991 0.016492775 0.024427213 0.07910898 0.019660529 0.04020657 0.05164172 0.00211405 0.06371215 0.03745813 0.18137458 0.13042046 -0.16588195 0.036562435 -0.04043001 -0.2482349 0.12806408 0.0041929823 0.072270915 -0.04635839 0.004487242 0.021976007 0.11311501 -0.08947047 0.010004234 0.21622846 0.21943101 0.015815848 -0.312366 0.09687759 -0.110819615 0.1973033 -0.31429896 0.09660458 0.0539653 0.18465114 -0.08655668 0.21904881 -0.15075931 0.07001836 0.26306185 -0.05203626
247 0.04491066 0.012327332 -0.031244697 0.11125112 0.051977742 -0.11414558 0.1455125 0.53859055 -0.0351631 -0.22914776 -0.012832676 -0.13912818 -0.017911797 0.15311755 0.091356024 -0.044459783 0.06170409 -0.109985955 0.0043067574 -0.17282905 -0.19732442 -0.052645378 0.08194437 0.14964807 0.24341957 -0.07852411 -0.023456512 -0.038946193 -0.11982016 -0.026992697 0.050333988 -0.11044797 -0.12597841 -0.025711576 0.049941964 0.097160384 -0.02384883 -0.16056159 0.11135717 -0.09665754 -0.008852348 -0.044664722 0.07474257 -0.24926749 -0.012695559 0.22651191 -0.017544527 0.29966736 -0.12487991 0.2335132 -0.29518944 0.1096001 -0.13002297 -0.058671173 0.10995863 0.16346858 -0.24617153 0.072523996 -0.124490246 -0.056617398 -0.24294794 -0.1838636 0.07084617 0.17629078 0.09756468 0.10358323 -0.0546939 -0.070271336 -0.036583617 -0.007093543 0.10872718 0.3145581 -0.13538106 -0.122756846 -0.06582725 -0.15645137 -0.37359747 -0.21695979 0.01481482 -0.080898635 0.026053146 -0.21937396 0.07819733 0.23412874 0.2508724 0.11733226 -0.09352802 -0.11654276 0.23719126 -0.002210196 -0.071865715 -0.14757991 0.18192244 -0.096764095 -0.037425004 0.04728634 -0.105979286 -0.012164636 0.052105524 -0.01265629 -0.1067249 -0.27115723 0.025012491 0.1941714 -0.015888056 -0.13247915 -0.14222045 0.20465355 0.074793026 0.19836116 -0.30984196 -0.032183986 -0.16814946 0.22088878 0.0352361 0.030660799 -0.30877644 -0.041814405 0.2688035 -0.08017161 0.14541815 -0.021376505 -0.16227132 -0.08256076 -0.0131049575 0.18272634 0.11201389 -0.42826766 0.32679668 -0.11703963 0.033660915 -0.102955334 -0.055541478 -0.34505686 0.08121573 0.20196824 -0.1024329 -0.11743236 -0.2791422 -0.36790863 0.07160083 -0.014158658 0.043261446 0.06993311 0.13980007 -0.009200494 -0.16701657 0.07351528 0.22343872 0.100312315 -0.058318987 0.043440267 -0.13396241 -0.017715344 -0.06761691 -0.008998799 0.033382606 -0.034908317 -0.18633594 0.10186836 0.13003276 0.26286647 0.0070642 0.10120418 -0.35151508 0.14033276 0.020957518 0.24358355 -0.12637311 0.29141995 0.090860985 0.1591851 0.056985438 -0.18386966 0.09379596 0.16732794 -0.08048337 -0.2519982 -0.099629164 0.35584074 -0.034712583 0.03154059 0.1410928 0.13402058 0.12709565 -0.028337525 -0.08831817 0.08472601 0.16702521 -0.03796092 0.18891843 -0.18019839 -0.05588799 -0.031912345 -0.17821369 0.20135581 -0.0961525 -0.034370176 0.13635153 0.1355847 0.17923518 0.047769133 -0.31804484 -0.22340864 0.09897247 -0.17452948 -0.01581038 -0.09774072 -0.22060573 -0.097521424 0.16560039 0.1773236 0.09331036 -0.07476791 0.24293697 0.00014553202 -0.012089748 -0.052183688 -0.22591762 -0.09427055 0.1594552 0.089479744 0.111741744 -0.24733791 -0.097329944 -0.068576194 0.16187444 0.13102482 -0.3087768 0.10301767 0.22069284 -0.062019516 0.25854334 -0.009145292 -0.0481598 0.0030607635 -0.038057055 0.20550747 0.016119262 -0.13139404 -0.24102177 -0.04338576 -0.22223136 0.09348878 0.08168657 0.08622413 -0.09998339 0.19680053 -0.0048947507 -0.06574854 0.06481325 0.023064386 0.14615051 -0.13627632 0.26668784 -0.18149711 0.0392411 -0.048732627 -0.066651694 0.16715384 0.010720042 0.06620853 -0.12793818 0.08840671 -0.03409802 -0.036771845 0.04122559 -0.29969305 -0.1334974 -0.06467569 -0.20012844 -0.02398457 0.071576245 0.14774999 -0.07159932 -0.15158902 0.043157507 -0.16656782 -0.20218948 0.0657703 0.041300066 0.20449388 -0.3481634 0.18030974 -0.19837083 0.09065707 -0.07889111 -0.20724018 0.2159922 0.2377684 0.16402003 0.19677943 0.38937283 0.21509498 0.017283535 -0.008993695 0.107963815 -0.008212398 0.32405782 0.0056320177
296 -0.01412621 0.2792209 0.14273909 -0.03994444 -0.036150407 -0.10603357 -0.12850973 0.07182031 0.17332041 0.104017265 0.0007038406 -0.14573306 0.018815182 -0.07500592 0.092085615 0.13149267 0.07933957 -0.044289075 -0.056948178 0.08452599 0.011585377 -0.112420075 0.017541545 -0.10746203 0.19727105 -0.037486184 -0.015541313 0.07484982 -0.118618004 -0.10992572 -0.1867355 -0.14429675 -0.23125014 0.010454672 -0.2315648 0.23152617 -0.04299399 -0.10852614 -0.106751315 -0.0121292025 0.045018826 -0.05950227 0.085226215 -0.3246103 0.22156091 0.093835525 -0.027403869 0.1491471 -0.09474706 0.18022613 0.23037757 -0.12011825 -0.1472757 -0.044721913 -0.04394033 0.07523414 0.046916746 -0.079787314 0.23570952 -0.35930833 -0.01493925 -0.2207291 -0.14594781 -0.028600493 -0.20577739 -0.12267635 -0.039844166 0.1480638 0.08568548 0.01121617 0.06915661 0.09637227 0.14626928 -0.10266385 0.018190244 0.087225415 0.02119916 -0.11335684 0.19510855 -0.0034372066 -0.11942489 0.11832944 -0.031972196 0.15216018 0.27528912 0.15219395 0.09180543 -0.040005274 -0.047962617 0.19377822 0.31279433 -0.04347841 0.30372977 0.08961189 0.2621453 -0.059175897 0.23084469 0.0023997684 0.1669331 -0.20685725 0.16515599 0.041208137 0.06137281 0.06150678 0.0269828 -0.17979114 0.10746242 -0.27225333 0.10341188 0.07327145 -0.15146013 -0.07614029 0.048016235 0.030163033 0.16014984 -0.06909842 -0.18085872 -0.06559565 0.34662715 -0.06850004 0.20654088 0.06775168 0.16006178 0.034670006 -0.054758113 0.062527284 -0.0448752 0.061594933 -0.02777249 0.21965837 -0.23871917 0.016095825 -0.062616356 0.038091235 0.35948473 0.06380972 -0.1351121 0.069410115 -0.0041167717 -0.19529547 0.007319884 -0.18619725 0.020213416 0.2812797 0.10494278 -0.07754777 -0.41663325 0.15738498 -0.11222381 -0.101713724 0.0029025786 -0.07757709 -0.22675036 -0.26359877 0.071001805 0.075645596 -0.21815294 -0.06357815 -0.18462576 0.18793987 0.28883317 0.35318205 -0.26177838 -0.020003129 -0.13998462 0.21282433 0.052968048 -0.022209892 0.019464957 0.1838518 -0.0005485997 0.044467706 -0.04399664 -0.058870174 -0.18388698 0.18472944 -0.1304503 -0.25420916 -0.18144117 0.097581536 0.090910815 0.1645981 -0.09447294 -0.013079972 -0.1438465 0.4216678 0.25567642 0.08007294 -0.0069429637 -0.21292718 0.07550507 -0.09467451 0.006562732 -0.08903388 0.02375009 -0.2853142 0.03394341 -0.20345853 -0.0394842 0.045368165 -0.12639345 0.12353037 -0.005927302 -0.059543513 -0.03520643 0.007980115 0.07266637 0.11456739 0.08496705 0.02272553 0.29332578 -0.2059766 -0.114454515 -0.020925337 -0.047134187 -0.033834413 -0.12632608 0.008121769 -0.0032136755 -0.09598494 0.1239015 0.025008716 0.23397958 0.2029661 0.12143356 -0.32631359 -0.27957627 -0.07228194 0.22643955 0.039931852 0.034502346 0.22640294 0.08296582 -0.062852435 -0.22857109 -0.07983944 -0.14979646 0.116911866 0.18343367 -0.11691729 -0.065212086 -0.03897352 0.068416774 0.026586061 -0.0018042584 -0.20580474 -0.25099966 0.00096641126 -0.09034801 0.21076493 -0.03642224 -0.014624389 0.24899323 0.06824388 0.16255532 0.10634531 0.052102126 0.10235726 0.015410599 -0.099831186 0.060097147 0.15591827 -0.21037953 -0.14447019 -0.08012049 0.11853342 -0.21678756 -0.025111021 -0.09145328 -0.06600479 -0.21355255 0.024240896 -0.1662454 -0.10725233 -0.025653252 -0.20167519 0.24142249 0.1272934 -0.09439451 0.035429772 0.0419179 -0.2585568 0.11333931 0.12962045 -0.00902043 0.06947528 -0.14400454 0.011807784 -0.1343966 0.07635423 -0.24598144 -0.18577756 0.03424463 0.08201319 0.03424372 0.10139357 -0.17239179 -0.22385857 0.15442944 -0.024083931
140 -0.2448941 0.26810342 -0.1297242 -0.066449545 -0.27109024 0.0403564 -0.0625051 -0.13025229 0.0012234137 0.20239681 -0.100056075 -0.1498041 0.16072805 0.04394579 -0.18764615 -0.12839219 0.035618536 -0.036888145 0.14917438 0.06361673 -0.24058673 -0.009837146 0.49619573 0.056452494 0.04302558 0.28712636 -0.27578315 -0.09671256 0.05802722 -0.34646818 0.038841456 -0.033318162 -0.005305876 -0.020377817 -0.24601333 -0.14456639 0.00025525794 -0.10495762 0.21991967 -0.1387031 0.07208656 -0.13196895 -0.14249021 -0.07443363 -0.08458914 -0.09077751 0.08149109 0.01355915 -0.23114835 0.021581339 0.07226837 0.1181726 0.12137016 0.052690838 0.04594993 0.08666517 0.25549817 -0.1656862 0.012452768 -0.20286255 -0.07440816 0.18672034 -0.12811653 0.08472056 -0.053384483 0.12317323 -0.2097918 -0.040588513 0.44269583 0.21045184 0.048003804 0.083212025 -0.09167434 0.09574945 0.0124711245 0.16474994 -0.064849965 -0.12841074 -0.21461673 0.28982946 0.08294302 0.14524117 -0.14315715 0.1903414 0.15318248 0.014665323 -0.07201061 -0.013800647 0.11698999 0.06468927 0.1148457 -0.14764675 0.14523737 -0.02869376 0.14191982 0.13093078 0.03126144 -0.06527534 0.13561408 -0.072109655 -0.15514298 0.12989025 -0.07125682 -0.09997094 0.027259875 -0.16333476 0.24949808 -0.22055912 0.19630106 0.075578734 -0.25140974 -0.16154356 0.101841204 -0.0025845226 0.16975497 -0.07223487 0.01029821 -0.02884798 0.25173476 -0.10609999 0.28065768 -0.15105994 0.2114396 0.09961668 -0.060791075 -0.18457726 0.24987236 0.11043525 -0.30881292 -0.14914466 -0.0019007713 0.27283168 -0.0399939 -0.054740824 0.15733281 0.042150356 0.011558719 0.2192951 0.10983237 0.091595426 0.07589015 -0.32648498 -0.44858062 -0.06734165 0.18884745 -0.10337537 -0.280812 -0.0067890966 0.14867583 -0.020939967 0.08765567 -0.010737709 -0.1734988 -0.050429057 0.21144944 -0.0012660528 -0.21994926 -0.055367194 -0.05167962 0.09708715 -0.13901056 0.13381188 -0.34400448 0.08607216 -0.06646326 0.17018567 -0.07316085 0.01602236 0.023261003 -0.20863351 -0.0390955 -0.08476821 0.03716687 0.088816024 0.06683754 0.012539313 0.30427438 0.09473224 0.01292174 -0.1047832 -0.35996097 -0.040347084 -0.15675141 0.08232496 0.09489659 0.29049656 0.17690364 0.083117574 0.11668982 -0.01673169 -0.083550654 0.124528274 -0.113813944 -0.037274256 0.33559883 -0.18193823 0.05042897 -0.048128653 0.09404812 -0.07040669 0.14609487 0.10247797 0.04480097 -0.15516043 0.07542331 -0.104506105 0.022206863 0.12906198 0.077430665 0.24428631 0.33800697 -0.3245294 -0.080154665 -0.10618948 0.047825884 -0.026712801 -0.18771082 -0.22424312 -0.015984943 0.1305185 0.07891692 0.14247878 -0.016610052 0.049263682 0.0426441 -0.078891076 0.13356082 0.1572855 -0.24435028 0.081705384 0.26524425 0.2834695 -0.14990334 -0.0700901 -0.08692018 0.032549802 -0.0151419835 -0.18303645 0.15236285 -0.053938784 0.1278563 -0.22029664 -0.0872107 -0.09245557 0.037597038 -0.24784641 -0.059797686 0.20386733 1.8484934e-06 0.13589495 0.023165481 -0.055050775 0.15499605 0.124325246 -0.08857216 -0.16471383 0.055521414 0.045506243 -0.2350505 0.056809697 0.13403344 0.23899896 -0.2485948 -0.39228323 -0.059269093 0.04391175 -0.17627822 -0.016818631 0.048905686 0.03855367 0.10867465 -0.08820363 -0.15301076 -0.12565541 0.006277092 -0.017535267 0.26919204 0.032104127 0.04977067 0.14022008 0.14286633 -0.016317254 0.12124739 0.1320511 -0.09397528 -0.07026097 -0.1762789 0.3852381 -0.04592503 0.084675565 -0.010459789 0.09978049 0.13907869 -0.04185605 0.08299687 0.33091944 0.041033283 -0.2812211 -0.08150777 -0.1150636
618 0.031829156 0.11613925 -0.026261685 -0.08794244 0.063618965 -0.29794195 0.017354937 0.26150113 -0.09495528 -0.05470201 -0.11043976 0.022186017 0.0032911894 0.059476797 -0.117054425 -0.014805008 0.06905365 0.0058053373 0.04056351 -0.24060962 -0.21083464 -0.013235293 -0.013587387 -0.074894875 0.15725462 0.014821059 0.07194509 0.14440511 -0.068859614 -0.046517327 0.18763497 -0.11216441 0.130934 0.036045812 -0.08578943 0.05611086 0.04752074 -0.23100527 0.037081726 -0.1609227 -0.08562926 0.17268956 0.12884037 -0.16611761 0.09924017 0.09031454 0.07300262 0.19146259 -0.14963219 0.03675097 -0.020244047 0.17605673 -0.17159502 0.0016711688 -0.07374232 0.25407156 -0.07297418 0.100448914 -0.05186491 -0.037047774 0.0812023 -0.08656428 -0.08224236 -0.01811274 0.04775395 0.14040871 -0.106999286 0.010048549 -0.13443916 -0.100450814 -0.16437984 0.08852516 0.030729664 -0.03885695 0.12063082 0.08498724 0.0310495 0.16111554 -0.044327065 0.14686748 -0.04437444 0.06142507 0.18278645 0.18024251 -0.10765851 -0.0038630269 -0.043698054 -0.02701464 -0.12064276 0.08982093 0.01105772 -0.12876041 -0.011421541 0.09259597 0.30121174 -0.0636256 0.19549857 -0.13747635 -0.0823556 0.1178863 0.043521013 -0.05702753 0.12963764 0.20749472 -0.07822611 0.09840125 -0.23924899 -0.13607664 -0.19542162 -0.1293637 -0.011770649 -0.14284009 0.11030939 -0.14986783 0.092695564 0.01542116 -0.010946159 0.058491144 0.07347292 -0.105440214 -0.084476866 -0.067314655 -0.002443634 0.15059738 -0.077979654 -0.057344522 0.077881895 -0.0642074 0.09286901 -0.25557727 0.1617615 0.26104763 -0.05906603 -0.10726777 0.043345552 -0.05704251 -0.012430084 0.023122769 0.08219899 0.12343547 -0.06886682 -0.030468436 0.09397137 0.27550393 0.02741024 -0.03282701 -0.21698311 0.11427266 -0.021220995 0.05751073 -0.042609036 -0.18295419 -0.103817835 -0.06881473 0.15739076 0.11100912 -0.122609645 -0.15935145 -0.0075029326 0.009704535 -0.22942887 -0.013473411 0.007492464 -0.005236927 -0.15797071 -0.12352382 0.006342275 -0.033962894 0.14435165 0.14417021 0.12889709 0.03778797 -0.100452706 0.10828462 -0.12774237 -0.042571343 0.0941707 -0.107731536 -0.028222851 -0.034986883 -0.18636228 0.123279005 0.004843317 -0.072069354 0.07547262 0.11927486 0.14598316 0.08441475 0.061818354 -0.007893697 0.098592564 0.02279978 -0.05623167 0.030299714 0.09459604 -0.08063629 0.034900755 -0.10103595 -0.08962644 0.0071554356 -0.023797937 0.2952453 0.15227841 -0.1711773 0.082792535 0.06909207 -0.02111599 0.1981249 0.08381655 -0.0538628 0.03261783 -0.12493104 -0.08262575 -0.11235524 0.04269167 -0.012396127 -0.052832946 -0.19286563 -0.14186335 -0.083345786 -0.015388289 0.085145496 -0.019187858 -0.02742898 0.017881079 -0.019090578 -0.027980844 -0.09660126 -0.030080818 -0.07783966 0.083304375 0.09807266 -0.17879264 0.13010314 0.10842732 -0.049716916 0.1590736 0.14588784 0.10777939 -0.13763243 -0.07302305 0.051369183 -0.19510816 0.034613483 0.1747879 0.003135521 0.13963014 -0.0566932 -0.19223475 0.18323448 -0.18797544 -0.15954407 0.18722871 0.042994577 -0.12529273 -0.14304043 0.18871097 0.061152592 0.06228316 -0.034158867 -0.02670017 -0.032195646 -0.07350224 -0.32906365 -0.24814408 -0.031563222 -0.052692983 0.004714205 0.06360159 0.029571176 -0.058914587 -0.06107619 -0.09760892 0.07088817 0.28046346 0.09608955 0.1118988 -0.0018080057 0.034970585 -0.058086224 0.12911905 -0.0120688565 -0.11754058 -0.0021732848 0.1341186 -0.025068711 -0.05909197 -0.1427903 -0.12587032 0.07603038 -0.017427363 0.17189524 0.27012548 0.099566 0.15782529 0.120778255 -0.053557515 -0.07488887 -0.019561756 0.15732601
627 0.08924083 0.26858684 0.15264705 0.24533151 0.1665888 -0.22987592 -0.07181119 0.2542627 0.094246365 -0.02968643 -0.17511342 -0.1784364 0.2410719 0.19571458 0.11128192 0.03780991 -0.046247933 0.11950711 -0.032134783 0.110384785 -0.013349297 0.036906336 0.13292833 -0.009312066 0.21346335 0.06866699 -0.09662929 0.22568212 -0.10060808 0.10231774 -0.11691687 0.0010105373 0.15274155 0.16801038 -0.049979657 -0.01618645 -0.04839729 -0.12133899 -0.33951488 0.054183464 0.05423016 0.0579145 0.0058241626 -0.018128794 0.058267396 0.13064487 -0.059596 0.005834706 -0.25307596 0.103138566 0.19364475 -0.11626494 -0.084689915 -0.21860225 -0.047327567 -0.06676365 0.20184416 0.090040565 0.15642756 -0.10071111 0.012020573 -0.04146957 0.16658604 -0.05793111 -0.069422625 0.19383465 -0.07241627 -0.014513921 -0.17851487 -0.20850784 -0.06950045 0.16153179 0.08984051 0.041107006 0.053097647 -0.052778084 -0.024449795 0.031142252 0.022856751 -0.052309137 -0.022429328 -0.16332024 -0.16024785 0.12328406 -0.02525835 0.23916939 0.051050235 0.008498104 0.08089741 -0.052057557 0.3242279 -0.21359514 -0.118963405 0.023431018 0.07947699 -0.0730315 0.24046771 -0.016681854 -0.26713037 0.035345275 -0.20660572 -0.044936314 -0.124792546 0.30674475 0.16110268 0.21444014 -0.061950367 0.032752655 -0.0862241 0.15439175 -0.17466587 0.050919868 0.14821497 -0.0035919552 0.108930245 -0.03911799 -0.098041765 -0.13989967 0.1241287 -0.06278403 0.08114273 0.099640325 0.19853254 0.1280592 -0.16308478 0.05689993 -0.054403022 -0.08438082 0.11532364 0.12224613 0.10902348 0.07833296 0.133273 -0.09640565 0.23555043 -0.004341934 0.021950291 -0.14159662 0.18609637 -0.19850567 -0.0962409 -0.15188816 0.04785647 -0.04755269 0.20597407 -0.07769341 -0.22773637 0.060397442 0.07507029 0.079253934 0.07533141 -0.09561924 0.0026119647 0.009673116 0.10138225 0.038749445 -0.20067626 -0.0760338 0.0061912388 0.18522513 0.14373828 0.15569796 0.042590864 0.16078407 -0.043171126 -0.08146806 0.11173124 0.15285453 0.18941809 0.0072499784 0.011615229 0.18921818 0.22574197 0.13013582 -0.113691434 0.0057501234 -0.010604342 -0.24029173 -0.004938591 -0.08241974 0.085067794 0.25759986 -0.07079368 -0.12737148 -0.11493701 -0.07479035 0.01865892 0.18493573 0.01663168 -0.09905591 0.2357778 -0.01836869 -0.1412682 -0.04653866 -0.04030564 -0.12424357 0.16975321 -0.2600498 -0.05355323 0.14408831 0.0013200007 0.084756754 0.14607 -0.11400009 -0.086871065 0.25267375 0.08702486 -0.0040420876 -0.009528187 -0.0078102043 1.1990225e-05 -0.18822095 -0.0031755222 0.12241898 -0.048032735 0.082933426 -0.103171185 -0.18433984 0.09627636 -0.013960578 0.10472946 -0.11877004 -0.13515128 -0.029699087 0.15508986 -0.057420082 -0.06310825 -0.032984506 -0.11024653 -0.02698901 -0.1471497 0.20173378 0.111578695 -0.10347083 0.29505756 0.047780864 0.012544708 0.17028673 -0.08517533 -0.12522987 -0.0013933611 -0.22843376 -0.022685567 0.2893714 0.03669347 -0.07154953 0.1698963 0.0059846207 0.0025104159 0.22252703 0.04385641 0.07819129 0.22342193 0.11472697 -0.14520621 -0.1776666 0.15283647 0.2243928 -0.057265628 -0.077545695 0.13777828 0.1650576 -0.17134143 -0.17215447 0.022173213 0.150948 0.12711932 0.15829545 -0.013338877 -0.17698406 -0.02639672 0.14827028 0.025762241 -0.18657944 0.19253956 -0.075786844 -0.070640065 -0.077597894 0.12874997 0.06256914 0.16040537 -0.070227385 -0.083212286 -0.19433832 0.11998584 0.2594263 0.1313962 -0.029474834 -0.1243435 0.1976627 -0.135185 0.17582847 0.0666921 0.12352873 0.24417369 0.08145951 -0.00748305 -0.15003821 0.08854264 0.06412801
722 -0.09464918 0.13063186 -0.053678352 -0.06695267 0.039107297 0.007271279 0.029358657 0.16894121 -0.1723528 -0.059809767 0.049075503 -0.114862055 0.24508965 -0.003953603 -0.045015596 0.059349984 -0.05390653 -0.115719885 -0.15162623 0.13231795 -0.07858508 0.1461742 0.06463861 -0.073492 0.16454887 0.062318794 -0.14992703 0.22273508 -0.31191102 -0.16945677 0.12423632 -0.23019335 0.045211703 0.046505332 -0.15103655 -0.09972181 0.026861476 -0.16620694 0.17343453 -0.13236982 -0.08920554 0.14634472 -0.072039485 -0.033501733 0.010713196 -0.055467978 0.050171956 0.037192635 -0.06325974 0.19262055 -0.0023720865 0.05456191 -0.10517109 -0.096309334 -0.031506367 0.2251085 0.0562794 -0.1176405 0.09530057 -0.012366609 0.1509482 0.029449917 -0.06205395 0.07301271 0.2167737 0.05451303 0.0020834329 -0.16416244 -0.015572283 0.018854914 0.10786993 0.11728812 0.147622 -0.04750018 0.12156144 -0.009528448 -0.22494538 0.07516506 -0.091659896 -0.006954759 0.20174351 -0.18247637 0.020915132 0.15234362 0.16513938 0.025838077 -0.105482906 0.06613672 0.12760128 0.0752018 0.13462858 -0.006042955 -0.023394309 -0.011583586 0.121344864 0.087913394 0.14137883 -0.0673662 -0.13533527 -0.08133741 0.0854249 0.025568012 -0.06800128 0.02149947 0.01230489 -0.1033008 0.061410338 0.09728848 -0.104507625 0.040229257 -0.008570555 -0.19538341 -0.05822112 -0.043493405 -0.001491185 -0.09013523 0.1438427 -0.24635148 -0.07212504 -0.15554598 0.26566386 0.11467893 0.19759512 0.0600609 -0.10600878 0.06381966 0.15148737 -0.16003545 0.054972712 -0.11574481 0.13680668 0.046172403 0.24162503 0.050508782 0.029660845 -0.030398345 -0.051595416 -0.16623363 -0.13717161 -0.09817205 0.095548496 -0.02480508 -0.034222074 0.21290323 0.071018726 -0.051156092 -0.0871217 0.17070694 0.04131228 -0.19760571 0.14771463 -0.15069577 -0.04811396 -0.08345156 -0.03315834 0.155446 0.05272112 -0.13906303 0.092234574 -0.03421201 0.18780732 0.032386284 -0.07385309 0.098515846 0.013231823 0.16211875 0.048447564 0.11364212 0.01110898 -0.023683494 -0.1692486 -0.08799447 0.20876858 -0.16451822 -0.17982191 0.038966373 0.10894394 -0.09534619 -0.022930624 0.09238018 -0.0032766825 0.026416698 0.009089461 -0.11319189 0.06797417 -0.016492639 0.082507335 0.23606181 0.111734286 -0.008738085 0.037422996 -0.14539738 -0.18331477 0.0183147 0.08831464 0.00069900847 0.058446713 -0.019738438 0.059102893 -0.004436777 0.033909246 0.09467603 -0.020931877 0.07791487 0.15901808 -0.024341874 0.10237542 -0.019787146 -0.22871917 -0.047766697 0.093937464 -0.08999828 0.044641607 0.06512732 -0.08057906 -0.16880728 -0.047711585 -0.16785714 -0.103417814 -0.052503057 0.09011801 -0.21682431 -0.1063728 -0.16332409 -0.3180025 -0.18341604 0.10117498 0.06290802 -0.10637923 -0.047052138 0.32472166 0.04712771 -0.16312641 0.036964532 0.07355466 0.11029865 0.08491833 0.04096026 0.14895852 -0.0038610771 0.094344415 0.0006929621 -0.104259335 0.1562371 -0.14252467 0.018797057 0.044283092 0.16806239 0.050014324 0.071431614 0.033365898 -0.09555691 0.18589264 -0.1265435 0.0037563546 -0.16176583 0.15616752 0.089129195 -0.031657174 0.06802432 0.18136092 0.05500038 0.12059195 -0.03914636 -0.047099855 -0.031777382 0.003055138 0.1440322 -0.09873321 -0.057452187 -0.20883498 -0.039290406 -0.070078105 -0.053606275 0.088909715 0.02058895 0.09482207 0.08183385 -0.06325396 0.0051458445 0.21927465 0.2771987 -0.18441899 0.12382642 -0.13622354 -0.11395008 -0.041665435 0.20002949 0.17125103 0.2616807 -0.16038434 0.1346773 0.112143874 0.24106427 0.29448822 0.003974524 0.02361325 -0.030818988 0.091968074 -0.18016633
245 0.10153471 0.11835706 -0.012942926 0.25160265 0.032978162 0.089999884 -0.06555198 0.40369362 -0.03250265 0.029746465 -0.16990085 -0.06963772 0.057153538 -0.022376277 0.082863994 -0.11445471 0.035941526 -0.061555505 0.026936641 -0.2517302 -0.19641876 0.004364401 0.466119 0.14218107 0.060012497 -0.18383992 -0.21379809 0.059004936 0.02191892 0.043582458 -0.19601758 0.07231795 0.16932128 0.039217878 -0.07172446 0.14820845 -0.10012394 0.02151255 -0.073536 -0.12576763 0.026195165 0.13902538 0.25039488 0.10037521 0.20796342 -0.2493273 -0.0028399911 -0.043948613 0.03199751 0.027577927 0.16068627 -0.05731171 -0.16202734 -0.03175606 0.052081216 -0.037864197 0.047243472 0.050255734 0.10195958 -0.09205938 -0.07211675 0.28566727 -0.009747258 0.2549127 0.067059025 -0.12485637 -0.10318157 -0.040989857 0.058435548 0.05373743 0.02386079 0.16274785 -0.23935589 0.08072554 -0.03954789 0.2023808 -0.06148001 0.17995593 0.022471206 -0.014727492 -0.24462903 -0.1536664 0.16480282 0.51130456 0.07735006 0.03805727 -0.19693965 0.089550704 0.07727043 0.07425557 0.21052776 -0.19540742 0.22342764 -0.09302304 0.04457089 0.2779757 0.10970596 -0.057252638 -0.32294703 4.498558e-05 -0.10275009 -0.0028380416 0.0967846 0.40783247 -0.0056718807 0.24561127 0.034883805 0.21723974 -0.05648403 0.15822409 -0.17954013 -0.28673893 0.064093344 -0.1085596 -0.1442568 0.026288902 0.17587857 0.11246041 0.11893791 -0.17210716 0.29444754 0.038825806 0.11921646 0.20988232 -0.115221664 -0.0643866 0.07585198 -0.16737185 0.028614642 -0.008794827 -0.0016163939 -0.043118633 0.0977937 -0.30628675 0.18056495 0.17408705 -0.16532622 -0.12876381 -0.23707178 0.04957149 -0.08920193 -0.11926277 0.01086685 0.05750121 0.0113169225 0.2432245 -0.19370562 -0.19237235 0.02474151 0.122910395 -0.07556531 -0.21445398 -0.010663507 0.014321505 0.108386114 0.016053697 -0.07626708 -0.41362223 -0.3291212 0.07761509 -0.14949341 0.15533078 -0.056860685 0.27192515 -0.122022234 0.19067895 -0.013325742 0.09446453 -0.07811354 0.23119332 -0.004652262 -0.20920634 0.2339119 0.484433 -0.0016470896 0.0036359443 0.18466225 -0.15080076 -0.02212999 0.030687142 -0.043626804 0.23686808 -0.18734692 -0.06441858 0.2182207 0.06118055 0.12428958 0.20820743 -0.020179948 -0.122171275 0.114669904 -0.06343501 -0.024227379 -0.012512803 0.00015338452 -0.14635605 0.2645441 -0.00806156 0.035402484 -0.011044012 0.099411264 0.23117056 0.104858235 0.016188236 0.19776139 0.074297145 0.022949725 0.097550415 0.13081047 0.13113853 0.40524888 -0.364676 -0.040957917 -0.02838673 0.014304121 0.106210575 -0.49736565 -0.34830987 -0.2684108 -0.14267132 0.06526784 0.18292433 0.020126686 -0.12854472 -0.017708207 0.0055545247 -0.06786725 -0.027607331 0.193095 0.18668093 0.27464774 -0.16866732 0.03455565 -0.07195233 -0.22051896 -0.03723515 -0.09248115 0.13548392 0.21439983 -0.28918672 0.042843115 -0.13229689 -0.18639515 0.113661796 0.16082174 -0.3931825 -0.25237373 0.31809747 0.058501102 0.37654853 -0.055366054 -0.055590723 0.3547462 -0.014529342 0.08445484 0.16352996 0.008730255 -0.110201284 0.10757936 0.20414126 0.2025742 0.25132695 0.049174182 -0.33832955 0.1390419 0.113755845 -0.027544834 -0.29298666 -0.113161996 -0.1664109 0.3009833 -0.0018232724 0.020111026 -0.19356398 0.28996652 -0.17310798 -0.12340394 -0.3987429 0.16960038 -0.028478794 0.14359625 -0.09078885 -0.13570045 0.10293185 0.07855252 0.11651336 -0.017179064 0.20111434 -0.2775712 0.025696058 -0.14630052 0.17457868 0.32888967 -0.015991943 0.11710534 0.33242193 0.01275866 -0.2095323 0.18519865 0.06346818
99 -0.16753075 0.039039977 -0.013287074 0.15749589 0.026613105 -0.20419994 -0.005927047 0.25389218 0.0104037 -0.009269194 -0.010789798 0.19955158 0.05363549 0.029884432 -0.0552585 0.16151297 -0.13263059 -0.057178788 -0.15208122 0.15395403 -0.12181615 0.118732184 0.08058065 -0.04687393 0.01782924 -0.05105976 0.05752663 -0.060420092 0.043598153 -0.106939144 -0.07464267 -0.018803164 0.009131428 0.02889236 0.010461013 -0.03692764 -0.033852022 -0.06301609 -0.015967676 0.053337205 0.18093672 0.06331989 0.1379258 0.12653112 -0.05220417 0.008550165 0.12149156 0.22844331 0.023572385 0.04549408 0.26103735 -0.095236085 -0.11233826 -0.09727768 -0.13592096 -0.005662193 0.047324225 -0.013595547 0.1436186 -0.05287586 -0.058123235 0.057067018 0.0647697 0.118350565 0.1704674 0.079176225 0.005601491 -0.009555542 0.10487974 -0.11884225 0.040647592 -0.073658556 0.028362997 -0.1210796 -0.008000631 0.01749951 -0.07003485 -0.039782528 -0.20993152 -0.029913418 -0.05291563 -0.013221112 0.095263556 0.16278246 0.1557324 0.023326587 -0.14924966 0.26841503 0.16789728 0.07654305 0.11025912 -0.1960492 0.079616845 0.13247181 0.13134328 0.0035408214 0.21044883 -0.0786948 -0.17626567 0.070775464 -0.15229186 0.16908282 0.040782716 -0.13847798 0.2817549 -0.09730458 0.16025062 0.1635815 0.010524323 0.050763544 -0.048963927 -0.090173066 0.052301783 0.12901781 0.0038183338 0.09420873 -0.045625757 -0.06649401 0.27994597 -0.035964005 0.2126297 0.0944119 0.033530455 -0.006273901 -0.10615287 0.036837365 0.063895024 -0.26240522 0.06222013 0.06355033 -0.03761136 0.07243149 0.017765194 0.05782989 0.089960374 0.13493648 -0.0060135936 -0.016984936 -0.07494116 -0.34298462 0.09595004 -0.004580105 -0.07621939 0.23903626 -0.08584839 -0.19729483 -0.18712807 -0.033603333 0.195296 0.0031106246 0.02957298 -0.088543676 0.054000936 -0.120512635 0.038816754 0.10247942 -0.08772983 0.037403457 0.0852115 -0.014080951 0.2341433 0.12600966 -0.059298746 0.22038531 0.14642054 0.07841287 0.08881671 -0.03036344 0.1413274 0.14613728 -0.1804874 -0.1120705 0.0830215 0.062426813 -0.021865994 0.019901859 0.03987608 0.10946 -0.017182358 -0.014718318 -0.12922522 0.077211924 -0.1903243 -0.16084081 0.08324108 -0.006404058 0.0019180278 0.19803429 0.20368294 -0.023282003 -0.072853535 -0.0023427068 -0.16108473 -0.17424284 0.2122973 -0.04632215 0.04008156 -0.108991876 0.13472295 0.0902242 -0.005062843 0.06155741 -0.06960792 -0.23735888 0.11188767 0.07240684 0.015858624 0.11678912 0.03799308 -0.09881952 0.13277996 -0.109119974 -0.003720121 -0.04467375 -0.047574647 0.06651733 0.0012559661 -0.12646006 -0.083430454 -0.049350627 0.28990287 0.098928474 0.036478773 -0.12838264 -0.1518008 -0.091399424 -0.07405322 0.056532785 0.020114992 0.041517507 -0.022814447 -0.15744016 -0.08653987 0.007456286 0.010523677 -0.14472905 -0.03469823 0.100238055 0.017321099 -0.014061279 -0.066771 -0.03181012 -0.11450807 -0.016537651 -0.059823956 -0.19253896 -0.09928672 -0.015875563 -0.048638143 0.061255768 -0.13514486 0.15714717 0.18415046 -0.13066886 -0.026931386 0.0039764745 0.14726323 0.014462674 -0.03342823 -0.11791558 0.032073826 0.07221704 -0.16576783 -0.06887882 -0.098209105 0.018187234 0.03975752 0.24531735 -0.119785585 -0.2601165 -0.15238917 -0.14404653 -0.074626066 -0.12031509 0.1146436 -0.17348091 -0.050316643 0.13512725 -0.17852704 0.031152835 0.0758858 0.10708298 0.18630585 0.10430828 -0.18793835 -0.010939668 -0.3286898 -0.017433623 -0.06386379 0.080522336 0.11182582 -0.0041951556 0.012452783 0.043290175 0.13999009 0.06977891 0.018415615 -0.1676602 0.06065495 0.082992576
275 -0.42364782 0.33039823 0.14258923 0.13322839 0.1733204 -0.25670382 0.21993725 0.24785346 0.058442958 0.02332415 0.02214912 0.012022626 0.058935504 0.021327075 -0.19633302 -0.05756515 0.22120026 -0.06751566 -0.21293308 0.18202595 -0.2676069 -0.12437524 0.1831667 -0.050421476 0.13069676 -0.0070754825 0.12916897 0.028040139 -0.17518929 -0.20402023 -0.2858376 0.054934252 -0.34615877 -0.2267872 -0.0602541 -0.32519832 0.030470356 -0.14027211 0.22656474 -0.06844305 0.022932542 -0.123610534 0.08153914 0.15535672 -0.08179614 -0.122706436 -0.20601375 -0.050615735 -0.15237187 0.13237596 0.06184128 0.055451747 -0.04674734 -0.009788627 0.08728304 0.0075138705 0.046824943 -0.027750198 0.09480692 -0.26553482 -0.07847778 -0.015804347 -0.029203912 0.03773542 0.124885395 0.05777197 0.052199706 0.24748738 0.094356656 -0.14152803 -0.15436761 0.15042192 0.03160395 -0.081715055 0.1261729 0.23057562 -0.091754965 -0.20707783 -0.17919646 0.06333262 0.065320484 0.07940869 0.006332674 0.1675148 0.06458397 0.122595936 -0.42347282 -0.016279178 -0.07254048 0.17219962 0.29735044 -0.20017448 0.09090597 -0.103124775 0.1434821 0.23723993 0.116597734 -0.06473622 0.07835143 0.16740166 0.058921922 -0.00066356047 -0.027429515 -0.13111195 0.052005883 0.10679016 0.35041273 0.04638576 -0.13470182 -0.026304042 -0.005066996 -0.32213604 -0.014396135 0.1380192 0.10163695 -0.18873598 -0.10997596 0.05560252 0.033782914 -0.12332115 0.15028927 -0.26164967 0.049160972 0.117337815 -0.32932666 -0.13054043 -0.124359205 -0.2514538 0.04290655 -0.058892775 -0.1082706 0.0017403964 -0.049725 0.11561539 0.17977457 0.013838552 -0.06868533 -0.11662074 0.16221951 -0.033153024 0.17484573 0.2674462 -0.11712179 0.011385759 -0.08742094 -0.13683008 -0.17299496 0.0024642386 0.16785316 -0.14758828 0.017164435 -0.0078697605 -0.01044697 0.011998675 -0.09035497 0.1783243 -0.0976408 0.019456124 -0.16335078 0.017883042 0.0519611 0.18363914 -0.08842265 0.013967505 0.17137007 0.074898325 -0.0023645319 0.0015858083 0.12392289 -0.1377594 -0.12430167 0.15853609 0.011035254 -0.026580613 0.04278576 0.16320531 0.30253577 0.17610334 -0.218546 -0.058344726 -0.062721536 0.042180963 -0.09079352 0.013106127 -0.04167826 0.18613462 0.061291855 0.27692384 0.27514496 0.10959556 0.123812 0.13123897 0.01772871 0.12811224 0.015204358 -0.0835837 0.0919909 0.10240799 -0.010554924 -0.12663603 0.081608385 -0.014632439 0.066747025 -0.12759246 0.25773972 0.1624023 0.14652365 0.08346187 0.11754005 -0.048532356 -0.024769185 -0.26798445 0.016277969 -0.3337265 0.075538374 -0.0023248116 -0.25262898 -0.17600702 -0.114114575 0.044662394 0.4220121 0.053803306 -0.069671795 0.025682002 -0.18015677 -0.2854093 0.024771582 0.19366185 -0.4386642 -0.16552566 -0.028398395 0.035211753 0.07311809 -0.09205073 0.100328185 0.17021711 -0.10175011 0.16680542 -0.035887394 -0.10149599 0.15705748 -0.008434541 -0.16088203 0.031157505 0.012881895 -0.041713793 -0.08576395 -0.04250326 -0.015657766 0.33384314 -0.16030845 0.07468006 0.24370597 0.33680603 0.102162935 -0.06303793 -0.06748538 0.09576871 -0.1445045 0.13674524 0.0061032306 0.18115155 -0.20570488 -0.16237596 -0.017447686 -0.11471443 0.095730595 0.12843032 0.055729117 0.0128412 -0.012755333 0.1615485 0.26081258 -0.20653924 0.2571451 0.061478894 0.01191929 -0.121987514 0.08884971 0.10277485 0.20667113 0.13651207 -0.09940346 0.1205257 -0.060429335 0.034512766 -0.08583806 0.27842227 0.028745351 0.042263445 0.036537766 -0.043461643 0.13035429 0.2668899 0.12959485 0.0041869837 -0.12778835 -0.22716118 -0.041825388 -0.036469333
56 -0.0829998 0.14905508 0.02803385 0.0130015705 0.1084374 -0.20703259 -0.18037647 0.1660416 -0.040476795 0.058237422 0.01897272 -0.10959938 0.13462372 0.1473593 -0.18709327 0.1178378 -0.26366282 -0.107125014 0.15880688 0.15010646 0.15118273 -0.005890936 -0.121591784 0.009400367 0.13577852 0.04141416 -0.042877026 0.06223152 -0.17356947 -0.08055048 0.088474266 -0.3261 0.08101247 0.04133791 -0.18406104 0.30942354 0.10018333 -0.0788753 -0.096131414 -0.32116503 -0.033637386 0.012325329 0.014403441 0.097059526 0.025905743 0.065483674 -0.06912597 0.36947677 -0.14760615 0.0002466013 0.27297035 0.11995734 -0.016067138 -0.22154304 0.07271835 0.18912159 0.1847718 -0.20800872 0.093582995 -0.11428858 -0.1119079 -0.07316911 -0.13391896 -0.10285586 -0.11281289 0.2384515 -0.16749118 -0.045351546 0.049302403 0.12066502 0.081162825 0.08429183 -0.04031704 -0.4337316 0.048035648 0.034403834 -0.0056145582 0.090558514 0.017157318 0.014760067 0.034259986 -0.18010986 0.11747511 0.15339337 0.18224108 0.41306007 0.06987703 0.29291683 0.24963969 -0.03448529 0.31352618 -0.007180427 -0.084434845 0.35579824 0.31877947 -0.09244638 0.2984109 -0.026395272 0.08837026 -0.013755127 0.013344157 0.05441994 -0.10920096 0.035999317 0.0026332054 -0.022727292 -0.019312467 -0.242848 0.13735439 0.005565954 0.19583306 -0.024308229 0.16442664 -0.022291832 0.10753147 -0.08328204 -0.27932283 -0.017300172 0.20098348 -0.28740555 0.1493156 0.24831523 0.16349734 -0.14638911 -0.06948531 0.14621565 0.22655936 -0.0656044 0.113260485 0.1364303 -0.042621583 0.13948664 -0.02489034 0.111242585 0.35852224 0.03778849 0.07655609 0.21352334 -0.09516559 -0.090445705 -0.018283295 -0.051321745 -0.009543489 0.6019415 0.22042987 -0.05337961 -0.26618567 0.3687602 0.19928992 -0.12461086 0.011536071 -0.17321795 0.036652066 -0.095428534 0.08999407 0.07717396 0.008843547 -0.17301725 -0.24666865 0.14389397 0.24866581 0.28649786 -0.032916084 0.04687591 -0.0790429 0.020215023 0.30770153 0.06931602 -0.0004768078 0.15214472 -0.16661909 0.018341461 0.032295734 0.016106289 -0.22907045 -0.0026510174 -0.20235343 -0.31027156 -0.326269 -0.12182579 0.025487289 0.0010332052 0.08159301 -0.29661882 0.099646576 -0.033577226 0.07448476 0.26111653 -0.045544792 0.21143165 0.10198511 0.15039752 -0.077391215 -0.2983077 0.14302672 -0.08541625 -0.19407412 -0.24569736 -0.052255753 -0.0038473934 -0.0797442 0.25309542 -0.062939666 -0.023797544 -0.082063645 -0.3219503 -0.03102116 -0.009048686 -0.12586865 -0.01983232 0.28195316 -0.03812677 -0.11984875 -0.019411288 0.0027072623 -0.10182983 -0.28917912 0.10000424 -0.012086564 -0.2814418 0.18541351 0.048822 -0.06376475 -0.2427668 -0.22025977 -0.21304758 -0.07425898 0.0023037088 0.34162575 -0.032341707 0.21900396 0.2782633 -0.146348 0.029257841 -0.11005452 -0.15068686 0.16915815 0.22262587 0.19102599 0.07603014 0.102482505 0.1034493 -0.35570312 0.19217004 0.06669924 -0.15644175 0.111291595 0.1252285 -0.2915883 0.061050836 -0.051972654 -0.16872244 -0.038993694 -0.08302563 -0.09478893 -0.09605777 0.061031006 0.02150373 -0.25369826 -0.06533011 0.12866858 0.06822051 -0.22684114 -0.28542113 -0.12771903 -0.27783158 -0.1416081 0.14732829 0.07634567 -0.14419717 -0.13772634 -0.033213343 -0.40804875 0.11029564 0.11624145 0.019888012 0.42044544 -0.20047365 -0.14050105 -0.096232094 0.23530036 -0.22320463 0.05500432 -0.10600464 -0.070836894 -0.11145976 -0.3263858 0.070879 -0.03337899 0.069763355 -0.23996535 0.054446146 0.14462517 0.15316969 0.08591241 0.40254968 0.01206353 -0.0094598755 0.30191106 -0.04048083
758 -0.0769411 -0.068597354 0.04052281 0.29091462 0.10340709 -0.18067348 0.057494856 0.3429441 0.021007426 -0.124910004 -0.10352365 -0.0014101352 -0.025206052 0.058430225 -0.13919608 -0.14167579 -0.042711888 0.054427657 0.08096808 -0.013934749 -0.014985412 0.07461617 0.11532134 -0.065349214 -0.007982087 0.0062591857 -0.13322003 -0.05632122 -0.13873185 0.050634116 0.019388877 -0.076462075 0.22690496 -0.01990665 0.08853472 -0.08458767 0.030326493 -0.1827186 0.039769143 0.06960245 0.047794223 0.06680224 -0.004474374 0.11197404 -0.11970536 0.12316697 0.1527013 0.1143121 0.07873102 0.19200869 0.13396323 -0.057375044 -0.16723002 0.15348858 0.0324892 0.12325877 -0.2028495 -0.0023341703 0.15095018 -0.0077083022 0.06296391 -0.08659633 -0.12756696 0.08745853 -0.041327935 -0.067778625 0.041682284 0.037111368 0.008503238 -0.06300067 0.029848078 0.2027744 0.17432931 -0.04532054 0.0052142763 0.10445828 -0.079223074 -0.038229536 -0.14803028 0.16062723 -0.0756771 -0.04664592 0.12045216 0.20795494 -0.046530697 -0.1588012 -0.11662056 -0.041768074 -0.12955903 -0.010993741 -0.07307361 -0.23334965 -0.02599365 0.072705016 0.018612359 0.11661786 0.095352374 -0.14313024 -0.28919706 0.11126689 -0.21829747 -0.13845186 -0.085636996 0.012709102 0.02880197 -0.08731692 -0.120897084 0.119173504 -0.17150377 -0.0033489857 -0.0027955654 -0.21030168 0.062032577 -0.03434264 0.13605048 0.055590197 -0.083271384 -0.06960637 -0.07838866 -0.17067394 -0.12317701 -0.09817983 -0.13315053 0.086842135 -0.08937055 0.11451614 0.04300941 -0.26229167 -0.0037774823 0.07327892 0.055568863 0.07713469 -0.06513635 -0.21519619 0.01772843 0.0048075747 0.081308246 -0.16284913 -0.19855681 -0.08860867 0.09995033 -0.22724782 -0.042512685 0.038687542 -0.022926526 -0.11299627 -0.15515888 -0.06982449 0.1495769 -0.08930572 -0.0846999 0.004253042 0.060022686 0.05612776 -0.21204996 -0.08114536 -0.07821352 -0.07722 -0.17160812 0.18739997 0.12791985 0.008777959 -0.068465054 0.16661775 -0.020624647 0.05500781 -0.06815187 -0.08113104 0.07099437 0.10457359 -0.10923878 0.048415616 0.008946363 0.10710953 -0.12139905 0.081384815 0.012382377 -0.019814929 0.053055122 -0.0063383244 -0.025404152 -0.036221292 -0.19209598 -0.07329284 0.036853 0.16861527 -0.061145857 0.08814327 0.041216712 -0.16131313 -0.052188557 -0.06615511 -0.04201469 -0.030373443 0.029379694 -0.18802962 -0.015077658 -0.16166317 0.027935615 0.09282311 -0.0033399654 0.13379523 -0.074668154 -0.21566032 0.09199439 0.011212367 -0.07787142 -0.15371884 0.060763717 -0.24934359 0.104326256 -0.12333104 -0.04362019 -0.04536968 -0.00993652 -0.0147207845 0.16233042 -0.18304455 -0.27652314 -0.019217579 0.13291153 0.006259105 0.025446814 0.123394854 -0.08013298 -0.032702833 0.06991612 0.1333193 -0.050047252 0.0405042 -0.11322617 -0.06487181 -0.11286821 0.034404915 0.15822573 0.050369587 0.0040075616 -0.0036174469 -0.0019286925 -0.15076792 -0.11396867 0.082477964 -0.1778843 0.01665552 0.073654994 -0.11315936 0.07453657 0.087855525 0.110292904 0.10465386 0.19014862 0.17946209 0.24790473 -0.15774792 -0.14782259 -0.11498822 0.20762433 0.027818084 -0.19735976 0.021179626 0.0070137572 0.049786095 -0.07824444 -0.104137965 0.04988641 0.08066353 -0.050839722 0.13960668 -0.021314975 0.064687304 -0.02231816 -0.019332921 0.036486544 -0.01922755 0.016531441 0.069880955 0.050137483 -0.10785343 -0.11945112 0.03541566 0.18191741 0.23332934 0.12133902 0.05642892 -0.06710206 -0.035070106 -0.0352627 0.04795357 -0.00969267 0.067931764 0.18397386 0.08590058 0.24412616 -0.07536419 0.15558949 0.079502195 -0.07067612 -0.0057211546 -0.01979513 0.10570733
719 0.041841924 -0.005411547 0.10925441 0.25954834 0.08073409 -0.15920609 0.14907925 0.1289033 -0.03477657 -0.09328672 -0.051946275 -0.19837163 0.05403466 0.1266596 -0.085242845 0.016721666 -0.028589271 0.08622964 0.0109318225 -0.05088039 -0.096099585 -0.06515924 0.0651215 0.14750287 -0.06824386 -0.12756622 -0.10872088 -0.079777926 -0.018171713 -0.16944051 0.1187794 0.02540666 0.010729613 -0.13466509 -0.055309847 -0.10890833 -0.088884585 -0.14119379 -0.04867684 -0.019761493 0.039618608 0.040485013 0.10289739 -0.10855746 0.14192492 0.10095175 -0.04954771 0.12830342 -0.048973683 0.040288035 0.15930267 -0.020873921 -0.21277216 0.0834183 0.099477425 0.107964374 -0.10671552 -0.019511811 -0.014388977 -0.04337692 0.033561103 0.040205456 -0.028653733 -0.009583404 -0.16564587 -0.07343571 -0.061486274 -0.05538234 -0.051107317 0.04062612 0.060959008 0.31480166 -0.14274123 -0.17337278 -0.09941655 -0.023831792 -0.20506991 -0.006248056 0.043462023 -0.031774618 -0.16284625 0.12133902 -0.118075706 0.020156555 0.11705689 0.017040443 -0.20754525 0.0023122334 0.0005485171 0.1426522 0.0054316446 -0.21994643 0.123538025 0.12354442 0.1100375 0.16968942 0.021311367 0.13225657 -0.04548826 0.12147174 -0.0014964283 -0.119269855 0.13975573 0.06713286 -0.046846103 -0.014817633 -0.030190641 -0.080302574 -0.092485525 0.103178635 0.17978951 0.028750075 0.14624035 0.31634438 0.14498629 0.041636623 0.050373968 -0.11113831 0.027097294 -0.0981413 -0.068762735 -0.047771543 0.039977644 0.015185363 -0.19852486 -0.044831704 0.05707211 -0.018208483 0.11297583 0.0055172187 0.16947038 0.15564623 -0.04323894 -0.043019164 0.24427672 0.17150038 -0.0036170143 -0.18864566 0.11889674 -0.06965529 0.007713431 -0.08746282 -0.014488635 0.18534921 -0.1790213 -0.120972715 -0.28307077 0.29366076 -0.22189227 -0.048081942 0.08017007 -0.1437897 -0.19701026 -0.13328022 -0.12769446 0.2297802 -0.0953723 -0.2511015 -0.25442776 0.16072114 -0.26159388 0.25731173 0.22090028 0.053079948 -0.083233856 -0.13341327 0.22223544 0.111355916 0.06717045 0.18275148 0.03764325 0.060275033 -0.09341324 0.116893314 0.05241407 -0.007914681 0.1797488 -0.284442 -0.051376052 0.11529121 -0.17188212 0.19139445 -0.009029862 -0.03630425 0.13807039 0.1712144 0.024775734 0.15214717 -0.04076091 -0.09637452 0.096620545 0.065025516 -0.14760289 -0.062751405 -0.12539011 0.051722005 0.10700973 -0.03512993 0.00090427545 0.10721283 -0.049561564 0.13871431 -0.16069031 0.006024417 0.1926213 0.0646025 -0.08266064 0.06526825 0.29000354 0.20591487 0.18695493 -0.21679685 0.047649518 -0.002058001 0.15778835 -0.0188798 -0.049431022 -0.21108265 -0.161979 -0.09974459 0.073466145 0.02475898 -0.02875315 -0.10650529 0.01687727 -0.13935809 -0.03252602 -0.0032407746 -0.14570855 -0.14538465 0.2706109 0.0812718 -0.0022393656 -0.019860016 -0.009055376 -0.1520605 0.058177978 -0.019627381 0.0008271583 -0.28753346 0.09205706 -0.17207761 -0.13968955 0.12989984 0.28067002 -0.27052802 -0.1764373 0.043070205 -0.112515874 0.1859191 0.01605836 -0.02968853 0.27640927 -0.100166716 -0.24305326 -0.12389515 0.20405102 -0.086541384 -0.2202354 -0.17079748 0.022852065 0.30684566 -0.14187525 -0.08242641 0.04679612 0.043511353 0.03987716 -0.026082236 -0.12558506 0.045349453 0.10300686 -0.053111963 -0.0612415 -0.046443433 0.27902728 0.24551547 0.108995594 -0.13679439 0.062226873 0.030810291 0.022445397 -0.050184026 -0.06689635 0.16332401 0.039267894 -0.013222803 -0.14735988 -0.054599114 -0.1895038 0.18158382 -0.016378293 -0.0630112 0.27356544 0.094902754 -0.11765254 0.022838226 0.04984534 -0.0528989 0.078966044 0.14470983
267 0.02175443 0.30174217 0.016968966 0.2281853 -0.10420132 -0.040566538 0.05397961 0.25816768 0.120643295 -0.002712927 -0.09291182 0.008956941 -0.06111757 -0.007863791 -0.16627973 8.329279e-05 -0.11304848 -0.29472822 -0.013846005 -0.057868183 -0.11132685 0.12320021 0.22739057 0.23303139 0.31957823 -0.006236642 -0.079273194 -0.018007543 0.053436596 -0.053980168 -0.26223502 -0.02068835 -0.019876547 -0.029145688 -0.032858513 -0.022519058 0.095808074 -0.026077839 -0.3053857 -0.03252562 0.12801959 -0.026013134 -0.039887123 -0.05032234 -0.021986036 0.20325615 -0.0021688205 0.031937152 0.03302392 0.11710081 0.19792208 0.13403802 -0.14536291 -0.2016978 0.1022426 0.03885605 0.08487623 0.108451866 0.027696138 -0.12606138 -0.18232942 0.23033278 0.1935775 -0.09862477 0.037457034 0.08623474 0.09672 0.18987906 0.12201443 0.050234836 -0.012982124 0.09226832 0.13762163 -0.11288314 -0.303813 0.3234358 -0.12826532 0.23432024 -0.059985723 0.115790755 0.035959456 -0.24561697 0.2125941 0.017873151 0.17274256 0.14601275 0.0473985 0.07940887 0.047222227 -0.13053207 0.15729327 -0.10631462 -0.06645162 0.08802003 0.07322359 0.03565857 0.21122043 -0.11965535 -0.12090235 0.027048644 -0.18967439 -0.034205515 0.26080498 0.088108614 0.31708953 -0.017211964 0.032579403 0.2440233 0.17095484 -0.075012624 -0.2602908 0.23368068 -0.28100008 0.37322146 0.02933553 0.25726178 0.041800343 0.053303372 0.35376948 0.07443032 0.11901543 0.11721364 0.20158 0.12393309 -0.034361277 -0.11780338 0.059215635 -0.2986469 0.0859018 0.025639022 -0.002289932 0.12800144 0.048510853 -0.057538055 0.39746666 0.08178505 0.06050266 -0.22016674 0.11085333 -0.28565776 0.0121680675 -0.19460686 -0.046469346 0.0033815322 -0.11046281 -0.20530106 -0.20573585 0.03243907 -0.21387117 -0.025297727 0.020926911 -0.041572433 0.020917013 -0.01432413 0.12094212 0.07621993 -0.030369215 0.13913988 0.22229223 -0.055494003 0.11696256 0.17828459 0.031626176 0.012293992 -0.23360834 0.15754627 0.015115388 0.110164076 -0.014062951 0.19924335 -0.15516905 -0.059135176 0.04334208 0.17108905 0.12367889 -0.021926787 -0.2893777 0.17735022 -0.3226656 -0.39226124 -0.12930225 0.23300298 -0.08897781 -0.19970056 0.11535977 0.0023197862 0.11702052 0.14609605 0.31181502 0.09072629 -0.10031001 0.0016472018 -0.12061913 0.07799 -0.098405875 -0.15722856 0.29965228 0.11681912 0.052071653 0.2646086 -0.16960695 -0.009091144 0.05091635 -0.2585131 -0.12605393 0.0153498575 0.08561926 0.15315202 -0.09943376 -0.19383743 0.27947032 -0.17617796 -0.050997023 -0.002699399 -0.05652263 0.101054855 0.04217765 -0.13111861 -0.037429716 0.119927794 0.22036155 0.07518007 0.10429525 -0.09335941 -0.10094624 0.056014895 0.017070163 0.06280477 -0.028789006 0.02566095 0.16329598 -0.118511975 0.2636071 -0.01625637 -0.040638424 0.0767361 -0.0646771 -0.007630079 0.13409534 -0.23247874 -0.032041676 -0.21058138 -0.21073255 0.27062556 0.0916798 -0.11599109 -0.05004258 0.023802858 0.053100828 0.027829226 0.014407313 0.05197321 0.090001166 -0.0052515445 -0.01605972 0.10324406 0.28386968 -0.05995083 -0.15377025 0.0050069755 0.030184431 -0.033948213 0.035872538 -0.011959271 0.13696098 0.044597667 0.10330209 0.021166475 -0.20492443 -0.23231232 0.003961934 -0.08920854 0.18768527 0.038557116 0.1298502 -0.033005226 0.08614321 -0.24905314 -0.14374444 0.17686842 0.27574146 -0.01777788 -0.04150929 -0.036519412 0.02999219 0.124660395 -0.15470512 0.36524907 0.06256678 0.16842659 0.27320027 0.07669769 -0.07723955 -0.20949236 0.35861605 0.069220915 -0.025283022 -0.22258757 0.22929469 -0.0018721543
62 -0.2125949 0.4265439 0.08027632 0.1821196 -0.0033502388 0.078845255 0.28003055 0.0019855022 0.38883096 -0.022446226 0.015468106 0.16995546 0.1414272 0.030117542 -0.19095273 -0.20604812 0.2864084 -0.10010118 -0.1339113 0.02854747 -0.07606166 0.06308071 0.32468578 0.10467152 0.2500191 0.1417674 -0.15880948 -0.15352081 -0.11116779 -0.11787693 -0.17433254 0.11186598 -0.39996773 -0.120938815 0.07627215 -0.06689655 -0.044878237 -0.4858224 0.16658923 0.09934203 0.1075785 0.16871905 -0.07924965 -0.041991234 0.12724862 0.12985006 -0.06816601 0.10197479 0.06388695 0.19360663 0.050774362 0.031002548 -0.12085367 0.15935794 0.047949195 0.07563526 0.29474494 0.04617702 0.13073246 -0.3679519 0.014887246 0.10924122 -0.06670562 -0.22882557 0.056942645 0.0023886533 -0.119845435 0.022936944 0.12492128 0.12268261 -0.13658285 0.31001753 0.21517141 0.023986781 0.009456685 0.25088984 -0.2737904 -0.17962009 -0.13821074 0.1104705 -0.17648162 -0.111788884 -0.16409844 0.23387426 0.2482496 0.04911414 -0.08197286 -0.13230634 -0.15053573 0.36290428 0.34934217 -0.20484479 0.080353804 0.12522508 0.18254773 0.11459772 -0.018624473 -0.03743808 -0.08210511 -0.0656356 -0.023055684 0.104621716 0.12945087 -0.16810238 -0.003562739 -0.18911818 0.22666344 -0.13166083 -0.117664464 0.052104697 -0.24305032 -0.25793245 -0.1279953 0.26967695 0.29761264 -0.18677461 0.011773055 0.035450056 0.14185391 0.15019812 0.2917742 -0.10776644 -0.15561873 0.16516685 -0.12936401 -0.15523633 0.12763949 -0.20024058 -0.009177046 -0.19296058 -0.02667962 0.1309875 0.032896705 -0.23180647 0.06925425 -0.1865752 -0.09136782 -0.039352726 0.14038341 -0.16866983 0.10847737 0.03832565 0.17203404 0.06426693 -0.050766367 -0.030887906 -0.36242464 0.101295166 -0.21675967 -0.21521677 -0.0023217157 -0.10270069 -0.23566985 0.08109218 -0.08411187 0.090150215 -0.06803785 -0.16173498 0.018109564 -0.11156868 0.15093225 0.077527195 -0.20681687 0.026679082 0.018789968 0.19746599 0.26789135 -0.06737842 0.042855375 0.09454099 -0.13238122 0.026801012 -0.19078748 0.065044075 0.026295127 0.21267194 0.059503198 0.26869926 -0.059352834 -0.28700122 0.009837352 -0.025851125 -0.17969863 0.06734622 -0.14554499 0.46475297 0.1817889 0.06951998 0.13255224 -0.03722402 -0.08685339 -0.0069105015 -0.0021398838 0.01417907 0.0018342324 -0.12074697 0.3665143 0.08010242 -0.24701539 -0.13677764 -0.023903346 0.017426442 0.029246343 -0.25604022 0.002446813 -0.048435688 0.05605411 0.045672525 0.117822535 0.10431206 0.13327198 -0.2535712 -0.1520749 0.030316308 -0.061938234 -0.16717103 0.031252407 -0.21686266 -0.068314314 0.119222306 0.2866874 0.18425903 0.22192273 0.02936851 -0.28340596 -0.23877102 0.20969474 0.21298945 -0.12827162 -0.0596206 0.005797383 0.13539587 -0.23220313 -0.040221155 -0.13919243 0.18736705 -0.14371414 0.021153798 0.1602974 0.1524799 -0.14037682 -0.12517957 -0.12983069 -0.015161391 -0.06036817 -0.12630692 0.07317902 0.26999906 0.16966629 0.252001 -0.11870804 -0.09014777 0.24150313 0.26998502 -0.09736708 0.026611708 0.19153942 0.006149945 -0.093626074 0.16896437 -0.09104476 0.058472857 0.01056947 -0.14445668 0.12550372 0.16526802 0.00817964 -0.11616595 0.16275182 0.23860747 -0.24331567 -0.07833569 -0.006667221 -0.09796666 0.10631418 0.09168968 0.14589547 -0.14531484 -0.157272 -0.036514953 0.20912123 0.17912418 -0.07621281 0.07582434 -0.25513154 -0.18052325 -0.10542687 0.24623638 0.12393626 0.06835932 -0.118632786 0.028246785 -0.037984278 -0.22125344 0.028838856 0.11533147 -0.27732563 0.05661002 -0.09590579 0.09011829
472 -0.078354076 0.07118903 0.033827685 0.2018449 0.20928724 -0.08241056 -0.04277452 0.44281682 0.080186434 -0.10098712 -0.02232838 -0.16396576 -0.14208136 -0.0057023102 -0.117135145 -0.01984008 -0.01885921 -0.18709247 0.009614179 -0.03209948 -0.052009653 -0.010372066 -0.060961604 0.16488907 0.23896313 -0.09266548 -0.082874045 0.16132748 -0.10677427 0.015239903 -0.101917684 -0.24455339 -0.009324305 -0.008410422 -0.1605023 0.09566304 0.0974638 -0.19708773 -0.011108134 -0.28579336 0.09207288 0.02840965 -0.008468909 -0.079685025 -0.08791307 0.16897441 0.14107116 -0.011427305 0.014412902 0.08952925 0.010593202 0.00044850996 -0.01453227 -0.033418216 0.07763847 0.07092729 -0.092221685 -0.058249485 0.015589918 -0.14250118 -0.087211005 -0.12935835 0.02873349 -0.013296582 0.07049577 0.07422552 -0.032264978 0.05101434 0.024511907 -0.0025013404 -0.043333307 -0.050413698 -0.06189581 0.08910688 -0.05135515 0.078693986 -0.056947026 -0.0051189563 0.021901779 0.13214892 0.17355189 -0.08000489 -0.034225315 0.14210652 0.012098728 0.03038043 -0.02760247 -0.039600685 0.02468437 -0.1290881 0.09308693 -0.22979152 0.07236573 -0.0045851176 0.06971535 0.006553954 0.10473973 -0.020570157 -0.160248 -0.004570205 0.0666184 -0.13272755 0.16293494 -0.0076468424 0.15809637 0.046139427 -0.010878863 0.056491803 -0.04741473 0.025733957 -0.17714313 -0.033431992 -0.09095413 0.10040639 0.0513974 -0.037922684 -0.018410167 -0.13505583 0.05121136 -0.019267574 -0.003930246 0.09697355 0.32136765 0.16707076 -0.12838766 0.12378518 0.11524058 -0.110167675 0.021193674 -0.018117785 0.045115266 -0.019045662 -0.08903535 -0.01454134 0.18229403 0.051250655 -0.015538488 -0.079491034 -0.14367023 -0.15629873 -0.020348769 -0.10420308 -0.033044398 0.23082101 -0.099462286 0.052946467 -0.09166276 -0.0067554764 0.088994704 0.02204947 -0.10752052 -0.20126441 -0.08020222 -0.20940112 0.045364782 0.1593435 -0.030768957 -0.15929617 0.16438189 0.07667732 0.08276948 0.14701293 0.0017036179 0.2227965 -0.06272701 0.0073986514 -0.14536387 -0.09478708 0.07184939 0.041495737 -0.016558101 -0.0031430116 0.033841144 -0.052072305 -0.038978532 -0.11688871 -0.047967136 0.009570665 -0.15863149 -0.066005744 -0.041407432 0.17911786 0.14997359 0.03569258 -0.05919915 -0.06293544 0.18670982 0.25161257 0.117090814 -0.0038710057 -0.20742352 -0.09027713 -0.08459884 0.24254134 0.034915823 0.024101976 -0.01619696 -0.0050260676 0.092581175 0.20364556 -0.072576344 0.3065414 0.047683574 -0.07566477 0.0036598688 -0.004861898 0.039435606 0.002904505 0.062543035 -0.035090063 0.21763155 0.116904974 0.11542675 -0.107850656 -0.13093832 0.0070736995 -0.06586272 -0.22111125 -0.081464596 -0.14475739 -0.007379283 -0.07338143 0.043864466 -0.0041422904 -0.17376149 0.0131579125 0.10023482 0.11483103 -0.046842515 -0.05740797 0.19403036 0.0066134706 -0.078193374 0.10535104 -0.0108357845 0.041558884 -0.043221172 0.12293505 0.14303757 -0.054280914 0.08746362 -0.13459894 -0.113579735 0.2713278 0.13109478 0.12204475 0.022904925 0.011580249 -0.1557781 0.068429075 -0.062171534 -0.05241376 -0.012293173 0.056041777 -0.011293453 -0.06631756 0.121147044 -0.06890685 -0.1233806 0.1173103 0.19564521 -0.057768974 -0.028200861 -0.117333256 0.1222026 -0.1744245 0.018549183 0.0367997 -0.04574774 -0.071272805 -0.3045241 -0.03449566 0.057762314 0.012482166 0.13793065 0.12040424 0.091671586 -0.2230998 -0.034349058 -0.060252 0.029356636 -0.08229645 -0.12134893 -0.13300657 0.08000033 0.06337541 -0.07346904 0.21473159 0.024522087 0.15340452 0.124601915 0.18292187 0.16128024 -0.05622418 0.1901347 0.2448993 -0.026931742 -0.202211 0.07262078 -0.11328925
204 -0.029598773 0.24398883 0.4411518 -0.48019636 0.16183254 -0.24705844 -0.11985122 0.2901751 -0.05880497 0.07258493 -0.1928117 0.059982996 -0.005929505 0.14629875 -0.30462167 0.18714537 0.017297572 -0.10489139 0.10092045 0.25193512 -0.24560355 0.20038518 -0.12497483 -0.34120306 0.39223474 0.2325298 0.33615547 -0.08197347 -0.10830141 -0.21678554 -0.08783711 -0.118105166 -0.0032947727 -0.06645736 -0.006261354 0.011096962 0.069587454 -0.24838483 0.17028208 0.16203271 -0.18567224 0.10245845 -0.0069997483 -0.06911893 0.062279973 -0.045814198 0.18595795 0.14860812 -0.06721518 -0.14134149 0.06924389 -0.03762762 -0.2986762 0.043520458 -0.16960792 0.18359229 -0.080100656 -0.040203154 0.09323763 0.041973107 -0.00347163 -0.23545326 0.0053797844 0.20996326 -0.06703289 0.08696422 0.14627662 0.091354795 -0.05692759 -0.11369816 -0.07663378 0.12809107 0.42325088 -0.043810338 -0.17518322 0.30647182 -0.16849066 -0.008471105 -0.40432894 0.20494367 -0.008747127 0.113004 0.34298414 0.24918418 0.021498933 -0.06871334 -0.1828515 0.016558086 0.24737507 0.16201968 0.0029599736 -0.19208673 0.27174407 0.08485636 0.15821595 -0.064194836 0.2793038 -0.37881047 -0.142045 -0.36810848 -0.13230763 0.36951235 -0.024147445 0.2102866 0.23076631 0.014220348 0.16156495 -0.13304017 -0.16653453 0.085912004 -0.0820864 -0.2429946 0.10917581 -0.17696463 0.046278197 -0.016765514 -0.4707508 -0.14202058 0.27541924 -0.111755 -0.07168906 0.08459089 0.107465155 -0.035154365 -0.27284315 0.054820895 -0.06973172 -0.22981845 0.039327152 0.00089554477 0.23761463 0.14220792 0.22522876 0.12472378 0.05350688 0.05528336 -0.08652288 0.07236003 0.13135684 -0.08106834 -0.13688347 -0.03955876 0.015470033 0.10379065 -0.032084707 -0.04002097 -0.038283184 0.30620167 0.0223063 -0.10023565 -0.19282605 -0.24418193 0.19148523 0.056066163 0.091967575 0.19419627 -0.10703197 0.04938854 -0.017120479 0.040035665 0.14053707 0.10908794 -0.21449572 0.31018245 0.16026595 -0.17067324 -0.060712166 -0.031294838 -0.091879115 0.26505864 -0.2814019 0.010662576 -0.12719356 -0.041328765 0.010281026 0.3365302 -0.06897033 -0.01977045 -0.014131992 0.06619748 -0.08259627 -0.23274915 -0.1328675 0.08651381 -0.016515449 0.020446945 -0.08694309 0.11337466 0.20135678 0.059706513 -0.20401466 0.33787382 0.039723277 -0.05882981 0.22603777 -0.27056122 0.024415778 -0.06485226 0.18546851 0.07358882 0.0256174 0.09657947 0.009616421 -0.06245738 0.3190816 -0.041083734 0.039718557 0.12763995 0.105795145 -0.052539274 0.24986008 -0.40163356 -0.23413081 -0.23689811 0.23637477 -0.1240822 -0.16478978 -0.03695756 0.06186079 0.2974296 0.045855716 0.006157564 0.04287635 0.208563 0.014591219 -0.21695507 0.13905486 -0.046757318 -0.051664848 0.21447532 0.10489544 -0.1808284 -0.1050343 0.10436105 0.16108496 -0.06313251 0.29689008 0.1834674 -0.15562545 0.20877631 -0.022892857 0.48801753 -0.24222094 -0.038453225 -0.01027373 -0.2514676 0.031616658 0.059494674 -0.20070417 0.20753549 -0.17282797 0.08221192 0.261009 -0.08265083 -0.0147779295 0.16219147 0.26629347 0.17228441 0.09510324 -0.30378824 -0.071531504 0.15801288 -0.25905567 -0.23026928 -0.28695288 0.019803267 -0.14620838 0.016592195 -0.19560124 0.12237604 0.018671768 -0.16869944 0.034316298 -0.11269795 -0.0011110472 -0.19699548 0.29794487 0.2878368 -0.075122364 0.0031345703 0.31090698 -0.12706149 0.106373094 -0.13621327 -0.075206675 -0.10033688 -0.07373172 -0.135563 0.22654304 0.10322861 0.020048203 0.22426504 0.07566493 0.21567443 0.36876976 0.02212341 -0.12697601 -0.30853072 0.18872248 0.075932816
174 -0.41659653 0.116707385 0.069600604 0.15917727 0.089933485 -0.21617928 0.32002866 0.25635338 0.08925035 0.09629807 -0.15304658 0.06076525 -0.013037411 0.07925083 -0.20219693 -0.24640952 0.043285128 -0.11582617 -0.10626869 -0.0045869495 -0.10122831 0.10446217 0.15120277 0.07645829 0.0936558 0.26446974 -0.09626899 -0.18405265 -0.22243552 -0.07883907 -0.2692354 0.1119175 -0.2900452 -0.06548619 0.0727589 0.0047596726 0.18256858 -0.42421594 0.0008157725 0.058690254 -0.14912881 0.20714858 0.019958258 -0.021138238 -0.0015093249 0.2060578 -0.15517747 0.110416815 0.002958202 0.38817596 -0.07225291 -0.02576545 -0.06675756 0.006995802 -0.14991862 0.29595125 0.20826316 -0.0005542459 0.12802725 0.14861248 -0.044849996 -0.08016269 -0.097370565 0.012970765 0.059129216 0.07777903 -0.11030668 0.018792497 -0.07084793 0.094237134 -0.13735159 0.08518076 0.113577425 0.0030699363 0.04380334 0.11695852 -0.13283964 -0.0890597 -0.29361114 0.06776865 -0.03914976 0.015878176 0.019478658 0.29600665 0.09372904 0.22446887 -0.24797656 0.0035765222 -0.043649893 0.24577266 0.056225397 -0.26003763 0.06733699 0.19908598 0.06563116 0.07708282 0.20171788 -0.09169773 -0.15500621 0.022946373 0.14907639 -0.002847626 0.2830347 -0.1773561 -0.05933165 -0.044504628 0.1430057 -0.092880376 -0.2342439 0.020901116 -0.16793677 -0.29113767 -0.045856085 -0.021040432 0.09557848 -0.06510126 -0.19671522 0.16250281 0.26461902 -0.009583579 0.13938722 -0.234507 -0.14525054 0.28068936 0.026171379 -0.13913073 0.111243434 -0.07174447 0.003951694 0.14365743 -0.18481119 0.16391179 -0.32528284 0.033432472 0.041141793 -0.0918231 0.0197837 0.05352387 0.22950648 -0.20775348 0.005461624 -0.15174854 0.11635235 0.1581761 0.07116689 -0.059251044 -0.06835544 -0.008068445 0.12243761 -0.25250074 -0.13744189 0.11454195 -0.17013016 -0.0036081432 -0.27587563 -0.26734114 -0.085852064 -0.16439462 -0.13852276 0.028657498 -0.050941393 0.17211767 0.0064412053 0.014350305 -0.2959745 0.2590878 0.17105578 0.04929942 -0.0046388167 0.11480127 -0.06305064 0.017512627 -0.12764673 0.07634431 0.09292823 0.31739834 -0.011822738 0.2785709 0.025682017 -0.2204343 -0.05372183 -0.13981317 -0.025123674 -0.04193049 -0.12550028 0.14510202 0.1538189 -0.022623923 -0.017063208 -0.14029245 -0.1666404 0.2695877 -0.029648077 0.17806 0.106456764 -0.16560373 0.0976522 0.035591908 -0.07800999 -0.0068313493 0.11813215 -0.056350622 0.14468434 -0.29898688 0.06050176 -0.14542371 -0.07435541 0.009424318 -0.14735219 -0.015210536 -0.16015197 -0.2588712 0.024083195 0.18462561 -0.018298129 -0.17166434 0.041007634 -0.30181295 -0.058046363 -0.087019 0.24538757 0.20344037 0.114162266 0.13211378 -0.18428311 -0.035958536 0.15543327 0.27818292 -0.21906605 0.06592686 0.0072330395 -0.050123405 -0.10746523 -0.12996142 -0.16119863 0.08871544 -0.12073037 0.008771867 0.36549148 0.03035208 -0.06651259 0.11435903 -0.056251172 0.008143773 -0.036270402 -0.17298049 -0.21001217 0.120031364 -0.037469525 0.055425506 0.18644041 0.12260213 0.34275347 0.088886276 -0.07826513 0.22401854 0.2104982 0.0041273315 -0.2101565 0.113852665 0.06624027 -0.11807757 -0.22892605 -0.32131657 0.0476711 -0.17720555 -0.19749255 -0.13853914 0.16396768 -0.18591009 0.055870365 -0.022351202 0.013132876 -0.26419482 0.08442915 0.17169811 0.09959177 -0.0476296 0.0076046735 -0.2120877 -0.18771629 -0.12567455 0.27209947 -0.22379869 -0.16848521 -0.033627648 0.17700431 0.17420655 0.14441349 -0.06202669 0.14357954 0.2508612 0.024085453 -0.02583573 0.089603215 0.17294642 -0.028156182 -0.048816785 0.07857328 0.22862747
